{
  "hiddenBiasWeights": [
    -0.07210977375507355,
    0.013917319476604462,
    0.14725106954574585,
    0.11364950984716415,
    0.41399499773979187,
    -0.05104146525263786,
    -0.5287032723426819,
    0.9911802411079407,
    0.027199842035770416,
    -0.7549020648002625,
    -0.6085240840911865
  ],
  "hiddenNodes": 87,
  "hiddenWeights": [
    0.9778878688812256,
    -0.5421115756034851,
    0.050502579659223557,
    0.12841001152992249,
    0.27987051010131836,
    0.42290446162223816,
    0.5226951241493225,
    0.7027783989906311,
    -0.7079481482505798,
    -0.8389332890510559,
    -0.13279862701892853,
    -0.13262157142162323,
    -0.9100401401519775,
    -0.0694085881114006,
    -1.0073217153549194,
    -0.1530531495809555,
    0.6715812087059021,
    -0.7709330320358276,
    0.7352154850959778,
    0.2853459417819977,
    0.11866135895252228,
    0.945111870765686,
    -0.7380954027175903,
    -0.7994173765182495,
    -1.3586465120315552,
    0.19596803188323975,
    -0.09315118193626404,
    -1.214044213294983,
    0.18695107102394104,
    -0.32405972480773926,
    -1.2178305387496948,
    0.01954113133251667,
    -0.4425295293331146,
    -0.5084147453308105,
    0.9226420521736145,
    -0.17105454206466675,
    -0.5417668223381042,
    0.6653589010238647,
    0.12761522829532623,
    0.5574875473976135,
    0.40341198444366455,
    0.9763541221618652,
    0.8002322912216187,
    0.17385783791542053,
    -0.7737084627151489,
    0.7902052998542786,
    -0.2640113830566406,
    -0.03760894760489464,
    0.16195538640022278,
    0.19639848172664642,
    -0.9192869663238525,
    -0.644772469997406,
    -0.7479195594787598,
    -0.5729198455810547,
    -0.3792537450790405,
    -0.06314520537853241,
    -0.0710991844534874,
    0.1646379679441452,
    0.5189049243927002,
    -0.24108700454235077,
    -0.02275463566184044,
    -0.08890573680400848,
    -0.15005135536193848,
    -0.0693184956908226,
    0.8425554037094116,
    1.063235878944397,
    0.13072869181632996,
    -0.9486066699028015,
    -0.5809983015060425,
    0.25648999214172363,
    -0.7552980780601501,
    -0.9264676570892334,
    -0.05156039446592331,
    -0.4256184995174408,
    -0.26406431198120117,
    -0.18257063627243042,
    0.4610733389854431,
    -0.7407215237617493,
    0.16562752425670624,
    0.5542623400688171,
    -0.7612134218215942,
    0.07261557132005692,
    0.8602128624916077,
    -0.35828083753585815,
    -0.16113756597042084,
    0.30187833309173584,
    -0.36626631021499634,
    -0.2407446950674057,
    -0.8769965171813965,
    -0.8674970269203186,
    -1.349973440170288,
    -0.8043805360794067,
    0.19608168303966522,
    0.3175566792488098,
    -0.9772143363952637,
    0.661028265953064,
    -0.14700311422348022,
    -0.927544891834259,
    -0.9699388742446899,
    -0.050115663558244705,
    -0.29260751605033875,
    -0.4587928056716919,
    0.9249448776245117,
    -0.5486217737197876,
    0.44332075119018555,
    -0.0544009767472744,
    0.82026606798172,
    -0.13091909885406494,
    0.06254863739013672,
    0.09628960490226746,
    -0.4255397915840149,
    0.8949419856071472,
    0.08389361202716827,
    0.34496769309043884,
    -0.7639666795730591,
    0.08317724615335464,
    0.8884156346321106,
    -0.11327220499515533,
    -0.6959027051925659,
    0.15615980327129364,
    0.13776734471321106,
    -0.6859503984451294,
    0.6264127492904663,
    -0.39557480812072754,
    0.23373457789421082,
    -0.41173985600471497,
    0.13585469126701355,
    -0.5584949254989624,
    0.38291510939598083,
    0.793329656124115,
    -0.7542489767074585,
    -0.03259557858109474,
    -0.5829753279685974,
    0.6957440972328186,
    0.08070438355207443,
    -0.27219605445861816,
    0.033530574291944504,
    -0.13417229056358337,
    -0.06455191224813461,
    -0.9804756045341492,
    0.41479000449180603,
    0.6838572025299072,
    -0.048516061156988144,
    -0.9114726781845093,
    0.42632076144218445,
    -0.6953341960906982,
    -0.8405615091323853,
    -0.2777138352394104,
    -1.030966877937317,
    -0.7477673292160034,
    0.2281235009431839,
    -0.536199688911438,
    -1.080688238143921,
    0.06500943750143051,
    -0.3289896249771118,
    -0.31218162178993225,
    -0.2443934679031372,
    0.5881748199462891,
    0.18393605947494507,
    -0.12350793927907944,
    0.05209993198513985,
    0.5979480743408203,
    -0.5425951480865479,
    -0.9045982956886292,
    0.1327502727508545,
    0.595582127571106,
    0.5287207961082458,
    0.21472609043121338,
    -0.7924061417579651,
    0.636411726474762,
    -0.04064595326781273,
    0.581660270690918,
    -0.9740482568740845,
    0.9209747314453125,
    0.5628123879432678,
    0.6308346390724182,
    -0.1929488629102707,
    -0.44734570384025574,
    -1.1913015842437744,
    0.20613069832324982,
    0.23623716831207275,
    0.2980716824531555,
    -0.3522755801677704,
    -0.49252399802207947,
    0.6577630639076233,
    -1.0866879224777222,
    -0.5027216076850891,
    -0.4175890386104584,
    -0.22409279644489288,
    0.09611783921718597,
    -0.5152176022529602,
    -0.8143958449363708,
    -0.3085032105445862,
    -0.5799404382705688,
    -0.9852954149246216,
    -0.10948756337165833,
    0.8285085558891296,
    -0.7154753804206848,
    0.3308664858341217,
    -0.07680375128984451,
    -1.1874141693115234,
    -0.7448372840881348,
    0.7564191222190857,
    0.6262609362602234,
    -0.2526339888572693,
    -0.9764505624771118,
    -0.07905765622854233,
    -0.231791153550148,
    0.300357460975647,
    -0.7631822228431702,
    0.15450485050678253,
    0.13396704196929932,
    0.022587906569242477,
    -0.5787132978439331,
    0.3406757712364197,
    -0.7468461990356445,
    -0.7146841883659363,
    0.40743258595466614,
    0.44439348578453064,
    0.14805307984352112,
    0.32271549105644226,
    0.984236478805542,
    0.41854923963546753,
    0.2023410052061081,
    -0.7655785083770752,
    0.23374293744564056,
    0.865204393863678,
    0.10693260282278061,
    -0.22738279402256012,
    0.41576915979385376,
    0.014955595135688782,
    -0.7938650846481323,
    0.7736434936523438,
    0.061752334237098694,
    0.7634903192520142,
    -0.21274520456790924,
    0.32740262150764465,
    -0.3145897090435028,
    -0.7075364589691162,
    -0.1455114483833313,
    0.04873845726251602,
    0.6122008562088013,
    0.06993304938077927,
    0.2724343538284302,
    -1.2564717531204224,
    -0.7038007974624634,
    0.18040677905082703,
    -0.32123082876205444,
    0.5380273461341858,
    -0.31915926933288574,
    0.16222257912158966,
    -0.9712607860565186,
    -0.5938456058502197,
    -0.3666061758995056,
    -0.8940154314041138,
    -0.5231963396072388,
    -0.14422297477722168,
    -0.4729527533054352,
    -1.1319061517715454,
    0.24770985543727875,
    -0.19799365103244781,
    -0.1135106161236763,
    -0.02809770777821541,
    -0.9813288450241089,
    -0.4331609308719635,
    -0.648733377456665,
    -0.7164225578308105,
    0.09479810297489166,
    -0.9153099656105042,
    0.3173118531703949,
    -0.9342547059059143,
    -0.000204709533136338,
    -1.066440224647522,
    0.3593290448188782,
    -0.9645496606826782,
    -0.28349095582962036,
    -0.4307939410209656,
    -0.012091468088328838,
    -0.8530535697937012,
    -0.107320636510849,
    0.5763369798660278,
    -0.08811916410923004,
    0.7532206177711487,
    -0.8965998888015747,
    -0.3601635992527008,
    0.8298048377037048,
    0.06766781955957413,
    -0.30986282229423523,
    0.044190358370542526,
    -0.6608600616455078,
    -0.4759490191936493,
    0.07348557561635971,
    -0.7814350128173828,
    -1.0887187719345093,
    -0.9561236500740051,
    0.19031082093715668,
    0.049345213919878006,
    -0.551236093044281,
    1.01847243309021,
    0.5186243057250977,
    0.5607137680053711,
    -0.011386711150407791,
    0.8959664702415466,
    0.5082948207855225,
    0.048320043832063675,
    -0.8486550450325012,
    -0.7448194026947021,
    -0.8431876301765442,
    0.3743211030960083,
    -0.3009818196296692,
    -1.4027178287506104,
    -0.14818398654460907,
    0.6445427536964417,
    -0.4812682867050171,
    -0.2896210253238678,
    0.8569489121437073,
    0.24627235531806946,
    0.4476046562194824,
    -1.2443372011184692,
    -0.3312658667564392,
    -0.38594213128089905,
    -0.31295454502105713,
    -0.4984283745288849,
    -0.13747647404670715,
    -0.9163867235183716,
    -0.715171754360199,
    0.0012498426949605346,
    0.09256359189748764,
    0.09101545810699463,
    0.3412240743637085,
    -0.6106118559837341,
    -0.9525946378707886,
    -1.6548126935958862,
    -0.0022742601577192545,
    -0.10178602486848831,
    -0.34270045161247253,
    -0.3511641323566437,
    0.7648004293441772,
    0.28228625655174255,
    0.5544809699058533,
    -1.2862558364868164,
    0.04801030084490776,
    -0.804831862449646,
    -1.1239241361618042,
    -0.6102367639541626,
    -0.9337267279624939,
    -0.2653522193431854,
    -0.01753353886306286,
    -0.12795433402061462,
    0.8585748076438904,
    0.06573840975761414,
    -0.9906776547431946,
    0.8433696627616882,
    0.5622915625572205,
    -0.8734050393104553,
    -0.5611711740493774,
    -0.2682971656322479,
    -0.7264556884765625,
    0.16930526494979858,
    -0.5194371938705444,
    0.2795458436012268,
    0.8240960836410522,
    -0.7447230219841003,
    -0.01158236339688301,
    0.2927529811859131,
    -0.5888923406600952,
    -0.8375312089920044,
    0.9404543042182922,
    -0.23290996253490448,
    0.24115560948848724,
    0.9048711657524109,
    -0.9379399418830872,
    -1.1125938892364502,
    -1.1576991081237793,
    -0.1812627911567688,
    -0.9849215745925903,
    -0.3382163345813751,
    -0.9608993530273438,
    0.7588271498680115,
    0.051710743457078934,
    -1.0366517305374146,
    -1.1595786809921265,
    -0.10175161063671112,
    0.4743400514125824,
    -1.1850074529647827,
    0.36619898676872253,
    -0.6461524367332458,
    0.25028878450393677,
    -0.31555360555648804,
    -1.139383316040039,
    -0.2158922404050827,
    0.5425736308097839,
    -0.9255574345588684,
    0.462331086397171,
    -0.13762980699539185,
    0.49431613087654114,
    0.7327862977981567,
    -0.30873921513557434,
    -0.2005821168422699,
    0.13678006827831268,
    -0.5914102792739868,
    -0.36526212096214294,
    -0.4364098310470581,
    -0.7380734086036682,
    -0.8449177145957947,
    0.7350361347198486,
    0.08443083614110947,
    -0.15964508056640625,
    -0.16284704208374023,
    -0.7581393718719482,
    -0.9332555532455444,
    -0.8539397120475769,
    -0.19328781962394714,
    -0.33958569169044495,
    -0.8210981488227844,
    -0.3724834620952606,
    -0.172617569565773,
    -0.09509135782718658,
    -0.29675358533859253,
    0.31272992491722107,
    -1.1106704473495483,
    -0.9516627192497253,
    0.35434478521347046,
    -0.12672854959964752,
    -0.25438979268074036,
    -0.7132104635238647,
    -0.44029998779296875,
    -0.5831194519996643,
    -0.01873673126101494,
    -0.12236103415489197,
    0.0589999221265316,
    -0.7949172258377075,
    0.11960332095623016,
    -0.2570825219154358,
    -0.14911608397960663,
    0.31964489817619324,
    0.8194377422332764,
    -0.48456504940986633,
    -0.4771071970462799,
    -0.8220922946929932,
    -0.7372606992721558,
    0.7114356756210327,
    0.42644619941711426,
    -0.24849270284175873,
    -0.4641862213611603,
    0.8140037655830383,
    -0.8365010023117065,
    -0.9282253980636597,
    -0.7789117693901062,
    -0.014907913282513618,
    0.8029850721359253,
    0.807340145111084,
    -0.6742148995399475,
    0.5725932717323303,
    0.18535612523555756,
    -0.36261260509490967,
    -0.777163028717041,
    -0.19825883209705353,
    -0.5196995735168457,
    -0.28475210070610046,
    -0.49687185883522034,
    1.1435701847076416,
    -0.3516339063644409,
    -0.4170783460140228,
    -0.07641655206680298,
    0.8663680553436279,
    -0.49496179819107056,
    -0.16465182602405548,
    0.48882153630256653,
    -0.14691239595413208,
    0.34297099709510803,
    0.7370057702064514,
    0.8349364399909973,
    0.09571031481027603,
    0.8933132886886597,
    -1.895209789276123,
    -1.0676085948944092,
    -0.6106376647949219,
    -1.33906090259552,
    -1.233439564704895,
    0.19059884548187256,
    0.13913479447364807,
    -0.16846635937690735,
    -0.8690498471260071,
    0.6680212020874023,
    0.11015235632658005,
    -0.9176087975502014,
    0.5511652231216431,
    -0.03349307179450989,
    0.8404451012611389,
    -0.830946147441864,
    0.0045120734721422195,
    0.47698333859443665,
    0.1495928019285202,
    0.394630491733551,
    0.3996363878250122,
    -0.540648341178894,
    0.23737920820713043,
    -0.6122537851333618,
    1.0325180292129517,
    0.5182952284812927,
    0.06950408220291138,
    0.5959165692329407,
    0.9261848330497742,
    0.32754799723625183,
    0.08979116380214691,
    1.0054550170898438,
    0.6107472777366638,
    -0.47745591402053833,
    0.33208340406417847,
    0.756737232208252,
    0.21174867451190948,
    0.4741348624229431,
    -0.2314090132713318,
    -0.6087037920951843,
    0.7090529203414917,
    -0.7666817307472229,
    0.849517822265625,
    0.6640324592590332,
    0.0642017349600792,
    0.963634729385376,
    0.7444420456886292,
    0.14103108644485474,
    0.5238208174705505,
    0.8960707783699036,
    -0.8340253233909607,
    -0.7564526200294495,
    0.04834284260869026,
    0.22298376262187958,
    -0.11788897961378098,
    -0.6211784482002258,
    -1.0702122449874878,
    0.4202658534049988,
    -0.7421008348464966,
    -0.1343037337064743,
    -0.37855246663093567,
    -0.5595282912254333,
    -0.35969310998916626,
    0.1755039244890213,
    0.7637855410575867,
    1.0717710256576538,
    1.1345027685165405,
    0.4415934383869171,
    -0.433621346950531,
    0.9068179726600647,
    0.024830076843500137,
    0.6488854289054871,
    -0.3822156488895416,
    0.5565568804740906,
    0.9255616664886475,
    0.14698845148086548,
    -0.6506597399711609,
    -0.5861395597457886,
    0.44697538018226624,
    -0.2210506945848465,
    0.5491957664489746,
    -0.016059082001447678,
    -1.017709493637085,
    -0.02399458736181259,
    -0.025119561702013016,
    -0.8681932091712952,
    -0.06087298318743706,
    -0.3628656566143036,
    0.5208750367164612,
    0.48524975776672363,
    0.9669778347015381,
    0.0656750351190567,
    1.2598457336425781,
    0.9915047287940979,
    -0.006528443656861782,
    0.7607837915420532,
    -0.23179495334625244,
    -0.2701205909252167,
    -0.7706032395362854,
    0.4550899565219879,
    -0.08007258176803589,
    -0.4700529873371124,
    -0.26163172721862793,
    -0.2123948484659195,
    -0.8987533450126648,
    0.7579485774040222,
    -0.48813122510910034,
    -0.5392640233039856,
    1.0433884859085083,
    0.9696265459060669,
    -0.39680060744285583,
    0.27132588624954224,
    -0.4227004051208496,
    -0.23166801035404205,
    -0.6945888996124268,
    -0.11709817498922348,
    0.5674993991851807,
    -1.011319637298584,
    0.9499887228012085,
    0.40237531065940857,
    -0.23070262372493744,
    -0.9469216465950012,
    -0.11472849547863007,
    -0.21267789602279663,
    0.6607131958007812,
    -0.6570037007331848,
    -0.7990690469741821,
    -0.8244478106498718,
    -0.9771648049354553,
    -0.2667490243911743,
    -0.8985812067985535,
    -0.18814250826835632,
    -0.9910809397697449,
    -0.43167775869369507,
    -1.1597814559936523,
    0.22318698465824127,
    0.3090929687023163,
    -0.5894256830215454,
    -0.8444444537162781,
    -0.8530870676040649,
    0.49945852160453796,
    -0.09659738838672638,
    0.49876996874809265,
    0.4728882610797882,
    0.638660192489624,
    0.15796290338039398,
    0.5962730050086975,
    -0.37251946330070496,
    0.08704926073551178,
    -0.8308702111244202,
    -0.3376171290874481,
    1.0022879838943481,
    -0.8874638080596924,
    -0.8186751008033752,
    -1.3518604040145874,
    -0.8887214064598083,
    0.7803076505661011,
    -1.0924204587936401,
    -1.1259666681289673,
    -0.7222199440002441,
    0.694603681564331,
    0.3715485632419586,
    0.13267192244529724,
    0.6885368824005127,
    -0.7893614768981934,
    0.5939242243766785,
    -0.902152419090271,
    0.04585639387369156,
    0.12081948667764664,
    -0.3378271758556366,
    -0.3141578435897827,
    -0.47923824191093445,
    -0.7340773940086365,
    -0.9618885517120361,
    -0.69289231300354,
    0.3847116529941559,
    -0.8874500393867493,
    -0.4650910496711731,
    -0.6109074950218201,
    -0.4073520302772522,
    -0.38684356212615967,
    0.4771405756473541,
    -0.5134090185165405,
    -1.049535870552063,
    -0.6950687170028687,
    1.0394901037216187,
    -0.45357125997543335,
    1.0220481157302856,
    1.0991724729537964,
    0.6390827894210815,
    1.0566353797912598,
    0.8913671970367432,
    1.0553174018859863,
    1.1733516454696655,
    -0.3322257995605469,
    0.24463726580142975,
    -0.48886531591415405,
    -0.5453277826309204,
    -1.2731043100357056,
    -0.1744355410337448,
    0.44990047812461853,
    0.6205715537071228,
    -0.2511935234069824,
    -0.4085983335971832,
    -0.0838785320520401,
    -0.3807113766670227,
    0.21268966794013977,
    -0.17361335456371307,
    1.0110540390014648,
    -0.28425097465515137,
    0.38716915249824524,
    -0.6939736008644104,
    0.7298454642295837,
    -0.4846539795398712,
    0.20479679107666016,
    -0.9758774638175964,
    0.16569747030735016,
    -0.5157889723777771,
    0.13052934408187866,
    1.0129493474960327,
    0.23880194127559662,
    0.341945618391037,
    -0.8889108896255493,
    -0.6193909049034119,
    0.5918608903884888,
    -0.7290424108505249,
    -0.8119744062423706,
    -0.25396379828453064,
    -0.5383694171905518,
    0.6155208349227905,
    0.025924762710928917,
    -0.05033459514379501,
    -0.23578642308712006,
    -0.9182918071746826,
    0.5602912902832031,
    0.09548919647932053,
    -0.375749409198761,
    0.05568142980337143,
    -0.3895302414894104,
    -0.029637863859534264,
    0.590375542640686,
    -0.5668803453445435,
    -0.20084986090660095,
    0.8964822292327881,
    -0.7688329815864563,
    -0.5116971135139465,
    -0.20405811071395874,
    0.1545194536447525,
    0.88851398229599,
    0.4700881540775299,
    -0.5543621182441711,
    0.6124022603034973,
    0.5516794323921204,
    0.4817372262477875,
    -0.1717836856842041,
    0.7473651170730591,
    -0.0030539792496711016,
    -0.18399694561958313,
    0.19094298779964447,
    0.34408873319625854,
    0.007255577016621828,
    0.547086775302887,
    0.04581601545214653,
    0.18161740899085999,
    -0.33742478489875793,
    0.09967995434999466,
    0.5775762796401978,
    0.5020612478256226,
    0.5494149923324585,
    -0.08605489879846573,
    0.4308909475803375,
    -0.04448346048593521,
    0.1726686656475067,
    0.011962217278778553,
    -0.581683874130249,
    -0.5673213601112366,
    0.07189127057790756,
    0.04518946260213852,
    0.5649213194847107,
    0.07871177792549133,
    0.9583026170730591,
    -0.8949908018112183,
    0.1280454844236374,
    0.42596930265426636,
    -0.6821539402008057,
    -0.7336690425872803,
    0.11529335379600525,
    -0.8654633164405823,
    0.703999400138855,
    0.21886689960956573,
    0.34790778160095215,
    0.19627104699611664,
    0.13076724112033844,
    -0.9522569179534912,
    -0.6488962173461914,
    0.06476220488548279,
    0.6926633715629578,
    0.34393665194511414,
    0.8899363279342651,
    -0.2036084085702896,
    0.2873033881187439,
    0.5498316884040833,
    0.8647201061248779,
    0.7543494701385498,
    0.9479142427444458,
    0.30673128366470337,
    -0.9796478748321533,
    -0.894343912601471,
    -1.8636788129806519,
    -1.0963473320007324,
    0.0998404324054718,
    -0.3765602111816406,
    -0.6825709342956543,
    -1.0300995111465454,
    0.39852601289749146,
    -0.7409472465515137,
    0.3500384986400604,
    -0.3609410524368286,
    0.5439858436584473,
    0.10864155739545822,
    0.496825248003006,
    0.5722299814224243,
    0.8132120370864868,
    -0.29034388065338135,
    0.02933753840625286,
    -0.695290207862854,
    -0.5256146192550659,
    0.16222405433654785,
    -0.06398182362318039,
    -0.36388733983039856,
    -0.010335679166018963,
    -0.21444135904312134,
    -0.24195168912410736,
    -0.11817453801631927,
    -0.14004144072532654,
    0.743876576423645,
    0.6717646718025208,
    -0.720705509185791,
    0.27686193585395813,
    -0.5864282250404358,
    -0.4751945436000824,
    -1.5467907190322876,
    -0.2674950361251831,
    0.29892295598983765,
    0.3191130757331848,
    -0.9449371099472046,
    0.07602746784687042,
    -0.9419454336166382,
    -0.3806445598602295,
    -0.3643375039100647,
    -0.06674990057945251,
    -1.0362412929534912,
    -1.4070366621017456,
    0.4143545627593994,
    -0.05986553058028221,
    -1.2337050437927246,
    0.28753185272216797,
    0.5755952000617981,
    -0.33437055349349976,
    0.32325083017349243,
    -0.42947056889533997,
    -0.8131963610649109,
    -0.6512335538864136,
    0.030214620754122734,
    -0.1299218088388443,
    -0.8433359861373901,
    0.3837469220161438,
    0.1649852991104126,
    0.11604790389537811,
    0.7550598382949829,
    0.43550848960876465,
    0.902804434299469,
    -0.6646268367767334,
    -0.7245994806289673,
    -1.0902817249298096,
    0.7403378486633301,
    -0.5737709403038025,
    -0.3303406536579132,
    -0.5465033650398254,
    0.571627676486969,
    0.4082569479942322,
    -1.136307954788208,
    -0.031928956508636475,
    -0.5192275047302246,
    0.20514583587646484,
    0.13163650035858154,
    -0.8240442872047424,
    0.49085429310798645,
    -0.8240636587142944,
    0.8496136665344238,
    0.3219532370567322,
    0.07035107165575027,
    0.8071073293685913,
    -0.43202030658721924,
    0.3325798809528351,
    0.5047147274017334,
    0.19312205910682678,
    0.4909532964229584,
    0.3121616244316101,
    -0.6202394366264343,
    -0.506477952003479,
    -0.38984793424606323,
    -0.15306051075458527,
    0.5761211514472961,
    -0.12249818444252014,
    -0.8623913526535034,
    0.3624003827571869,
    -0.2314113974571228,
    0.266771137714386,
    0.3601841330528259,
    -0.17056164145469666,
    -0.49844279885292053,
    -0.464397132396698,
    -0.4873303771018982,
    0.3801453113555908,
    0.15787164866924286,
    -0.6479054093360901,
    0.6759341955184937,
    0.3523487150669098,
    -0.0351073294878006,
    0.40319693088531494,
    -0.5768817067146301,
    0.015329482965171337,
    -0.803023636341095,
    0.9792419672012329,
    0.8418328166007996,
    -0.26723241806030273,
    -0.6775756478309631,
    0.08304162323474884,
    0.0223850104957819,
    0.9276846647262573,
    0.12274689972400665,
    0.10874666273593903,
    -0.42756882309913635,
    0.6760825514793396,
    -0.6157197952270508,
    0.7608909606933594,
    -0.5230079293251038,
    1.0126605033874512,
    -0.8242707252502441,
    -0.47302964329719543,
    0.050231192260980606,
    -0.07372084259986877,
    -0.5232735276222229,
    0.06823677569627762,
    0.4350571036338806,
    0.10095144808292389,
    0.5232585072517395,
    0.08175791054964066,
    -0.1914590299129486,
    0.1042514368891716,
    -0.001942018629051745,
    0.5472437739372253,
    -0.8382921814918518,
    -0.9574553370475769,
    0.004520956892520189,
    -0.3154532015323639,
    -0.14447778463363647,
    -0.29973018169403076,
    0.02416638843715191,
    -0.4068327844142914,
    0.1383231282234192,
    -1.936012864112854,
    0.6911146640777588,
    -0.5118995308876038,
    0.47633183002471924,
    0.3737148642539978,
    0.7362183928489685,
    0.12321816384792328,
    -0.3233518898487091,
    -0.4731478691101074,
    0.4161137044429779,
    0.018253233283758163,
    -0.5856351852416992,
    0.8713290691375732,
    0.22235047817230225,
    -0.23420767486095428,
    -1.0225799083709717,
    -0.5342387557029724,
    -0.8841751217842102,
    -0.7568641901016235,
    0.015604552812874317
  ],
  "inputBiasWeights": [
    0.9719403386116028,
    0.5337652564048767,
    -0.6731580495834351,
    0.7767108678817749,
    0.42596861720085144,
    0.10510088503360748,
    0.1888372004032135,
    1.2265115976333618,
    0.5802094340324402,
    0.355631947517395,
    -0.2216256707906723,
    -0.208838552236557,
    0.6550256013870239,
    -0.7575940489768982,
    1.1397274732589722,
    1.3773165941238403,
    -0.599423885345459,
    0.6261338591575623,
    -0.28701987862586975,
    0.373070627450943,
    1.1267507076263428,
    1.1706902980804443,
    -0.1636369824409485,
    0.5634612441062927,
    0.1821078360080719,
    0.13100238144397736,
    0.07414515316486359,
    -0.20292824506759644,
    0.07038532942533493,
    0.13669845461845398,
    -0.8349621891975403,
    0.37929487228393555,
    -0.385158509016037,
    -0.31683066487312317,
    -0.42181316018104553,
    0.8604610562324524,
    -0.7298910617828369,
    -0.21590521931648254,
    0.0686996802687645,
    0.3700827956199646,
    1.1870536804199219,
    0.06300162523984909,
    0.9597635865211487,
    -0.6080636382102966,
    0.43252792954444885,
    0.7480226159095764,
    0.11796640604734421,
    0.9957590699195862,
    -0.007598654367029667,
    1.2160990238189697,
    0.7166742086410522,
    1.3319813013076782,
    0.7253725528717041,
    -0.5654848217964172,
    0.9501610398292542,
    0.43624168634414673,
    0.5801042318344116,
    -0.40512847900390625,
    0.3463606536388397,
    -0.9309179782867432,
    1.4854503870010376,
    -0.42543408274650574,
    0.9652931690216064,
    0.8438972234725952,
    0.026228763163089752,
    1.0042693614959717,
    -0.41262286901474,
    -0.476142942905426,
    0.7661123871803284,
    0.09354916960000992,
    0.8571572303771973,
    -0.460401326417923,
    -0.2884250283241272,
    1.1356085538864136,
    -0.15715157985687256,
    -0.5035395622253418,
    0.10197152197360992,
    0.674567461013794,
    1.2661066055297852,
    1.2365963459014893,
    0.5313533544540405,
    0.25582489371299744,
    0.6230829358100891,
    0.6699159741401672,
    -0.569189727306366,
    -0.40481340885162354,
    0.7010439038276672
  ],
  "inputNodes": 18,
  "inputWeights": [
    -0.564139723777771,
    0.4267096519470215,
    -1.6596962213516235,
    0.022389577701687813,
    -0.16831697523593903,
    0.14433304965496063,
    -0.310916930437088,
    -0.49730339646339417,
    -1.2329449653625488,
    -0.9146267175674438,
    -0.03480784222483635,
    -0.3299359679222107,
    0.5492551326751709,
    -0.2599525451660156,
    -0.28061187267303467,
    -0.0815076231956482,
    -0.6918249130249023,
    -0.39056462049484253,
    -0.8954254388809204,
    -0.147361621260643,
    0.4994095265865326,
    -0.7766631841659546,
    -0.8264692425727844,
    -0.4385716915130615,
    -1.5899649858474731,
    0.7050261497497559,
    -0.6985474824905396,
    1.1212146282196045,
    -0.070941261947155,
    -0.9973048567771912,
    -1.5619553327560425,
    -0.8359591364860535,
    -0.4717852473258972,
    -0.4029542803764343,
    -1.2174030542373657,
    0.29920855164527893,
    0.13653483986854553,
    0.020648684352636337,
    -0.8521946668624878,
    -0.15089274942874908,
    -0.7473205327987671,
    0.48530298471450806,
    -0.2326231449842453,
    -1.997809886932373,
    -1.0488181114196777,
    -0.4265531599521637,
    -1.2473313808441162,
    -0.48327216506004333,
    -1.1248738765716553,
    1.2161740064620972,
    0.5441093444824219,
    1.5083199739456177,
    0.04091233015060425,
    -0.5973585844039917,
    0.3831688165664673,
    -0.7186567187309265,
    0.19717904925346375,
    -1.011226773262024,
    0.17292949557304382,
    -1.3043185472488403,
    1.7425415515899658,
    -0.5398660898208618,
    -0.1402788758277893,
    0.3112941086292267,
    -0.25246548652648926,
    0.30814623832702637,
    0.1756245493888855,
    -0.9121122360229492,
    -0.27248796820640564,
    -0.8862783312797546,
    0.13233444094657898,
    -1.278590202331543,
    -0.09132983535528183,
    0.23864848911762238,
    -1.6473008394241333,
    -1.3546195030212402,
    -0.0952334776520729,
    -0.5157161355018616,
    0.12274017930030823,
    -0.12576791644096375,
    0.025023704394698143,
    0.09554679691791534,
    -0.587385892868042,
    -0.49099990725517273,
    -0.7781174778938293,
    -1.2419527769088745,
    -0.12515096366405487,
    -0.011178731918334961,
    -0.49849438667297363,
    -0.6349904537200928,
    -0.0900881290435791,
    0.7977592945098877,
    -0.3412773609161377,
    0.973182201385498,
    0.28817176818847656,
    -0.6138479709625244,
    -0.8619956970214844,
    0.9246609210968018,
    -0.1974177360534668,
    0.6692283153533936,
    -0.45391178131103516,
    0.5146780014038086,
    -0.7979176044464111,
    0.686608076095581,
    -0.154510498046875,
    0.7152526378631592,
    0.21369504928588867,
    0.5806488990783691,
    -0.9205405712127686,
    0.6383671760559082,
    -0.7385849952697754,
    0.8466334342956543,
    -0.396486759185791,
    0.43764352798461914,
    0.797069787979126,
    -0.15244412422180176,
    0.337540864944458,
    -0.23450207710266113,
    -0.02779841423034668,
    0.30470895767211914,
    0.10693120956420898,
    -0.17705297470092773,
    0.7121434211730957,
    -0.3829174041748047,
    -0.40895867347717285,
    -0.6364164352416992,
    -0.012561798095703125,
    0.4375486373901367,
    0.7999224662780762,
    -0.6931512355804443,
    -0.43622827529907227,
    0.5477392673492432,
    0.7110428810119629,
    -0.9285910129547119,
    0.7755532264709473,
    -0.1531848907470703,
    0.4343719482421875,
    -0.0787503719329834,
    0.401092529296875,
    -0.6388044357299805,
    -0.6112055778503418,
    0.09012937545776367,
    0.4960188865661621,
    0.5387051105499268,
    0.790494441986084,
    -0.7103900909423828,
    -0.004456043243408203,
    0.5896792411804199,
    0.16308021545410156,
    0.39429163932800293,
    -0.1362919807434082,
    0.8385796546936035,
    -0.9265737533569336,
    0.709958553314209,
    0.6783826351165771,
    -0.36768269538879395,
    0.31244874000549316,
    0.6324582099914551,
    0.5278942584991455,
    0.646256685256958,
    0.47575879096984863,
    -0.7064688205718994,
    -0.04923701286315918,
    -0.10677170753479004,
    0.4048120975494385,
    -0.44167470932006836,
    0.10960054397583008,
    -0.6539511680603027,
    0.029349088668823242,
    -0.7587761878967285,
    -0.05890226364135742,
    -0.42790913581848145,
    -0.7323601245880127,
    -0.683579683303833,
    0.716393768787384,
    -0.7002241015434265,
    -0.134768545627594,
    -0.9568226337432861,
    0.4891176223754883,
    -0.8959131836891174,
    0.10426245629787445,
    -0.27288517355918884,
    -0.2829301059246063,
    -0.28100475668907166,
    -0.877241849899292,
    -1.0818369388580322,
    -0.304048091173172,
    -0.013097723014652729,
    -0.03954622149467468,
    0.48367807269096375,
    -1.2145529985427856,
    -0.9349930286407471,
    -0.45969194173812866,
    -0.7628508806228638,
    0.0650913342833519,
    -0.3665158748626709,
    -1.0331683158874512,
    -0.5115198493003845,
    0.4661027491092682,
    -0.31445151567459106,
    -0.3122979700565338,
    0.42178240418434143,
    -1.211151361465454,
    0.3467573821544647,
    -0.644791841506958,
    0.25043827295303345,
    -0.4955960512161255,
    -0.05352342128753662,
    0.90901118516922,
    -1.3546702861785889,
    -0.3550665080547333,
    -0.821452796459198,
    -0.23651042580604553,
    -0.96685391664505,
    -0.8802671432495117,
    -0.9466748833656311,
    -0.86033695936203,
    -0.07081528753042221,
    -0.4768592417240143,
    -0.07704783976078033,
    -0.14289405941963196,
    -0.626244843006134,
    0.380555659532547,
    0.36221420764923096,
    -0.17585499584674835,
    -0.211237370967865,
    -0.12444666773080826,
    -0.18729475140571594,
    -0.9866034388542175,
    0.34291139245033264,
    -0.5232932567596436,
    -0.17021121084690094,
    -0.8117215633392334,
    -0.3891620934009552,
    0.24003538489341736,
    -0.20212599635124207,
    0.28488850593566895,
    0.15418878197669983,
    -1.3198133707046509,
    -1.2575864791870117,
    -0.3850332498550415,
    -0.39230504631996155,
    0.10352601855993271,
    0.3550975024700165,
    0.37857529520988464,
    -0.007937204092741013,
    -0.5841466188430786,
    -1.3341397047042847,
    -0.6611328721046448,
    -0.9656475782394409,
    -0.4983689785003662,
    0.41980624198913574,
    -0.8469364047050476,
    -0.010813400149345398,
    -0.8586693406105042,
    -1.3283542394638062,
    -0.9508981108665466,
    0.004065715242177248,
    0.5099346041679382,
    -1.3294481039047241,
    0.49257105588912964,
    0.011577367782592773,
    0.4813358783721924,
    -0.5515382289886475,
    -0.6294903755187988,
    -0.7321999073028564,
    0.19504952430725098,
    0.755732536315918,
    0.884829044342041,
    0.7015776634216309,
    -0.2259840965270996,
    0.18678784370422363,
    0.7241108417510986,
    -0.8764345645904541,
    -0.8371212482452393,
    -0.22780060768127441,
    -0.08179759979248047,
    0.16405963897705078,
    -0.38602113723754883,
    -0.5617268085479736,
    -0.4758570194244385,
    0.2527787685394287,
    0.9989221096038818,
    -0.6082656383514404,
    0.035515546798706055,
    -0.12058353424072266,
    0.003762483596801758,
    0.6389157772064209,
    0.9942445755004883,
    0.6525917053222656,
    -0.579603910446167,
    -0.3237943649291992,
    0.07683134078979492,
    -0.0030059814453125,
    -0.6493179798126221,
    -0.40369391441345215,
    0.34844493865966797,
    -0.21971678733825684,
    -0.35741734504699707,
    0.2465682029724121,
    0.3865807056427002,
    -0.909329891204834,
    -0.4621086120605469,
    -0.07253742218017578,
    -0.7081124782562256,
    -0.25412654876708984,
    0.07288098335266113,
    0.20413732528686523,
    -0.42293715476989746,
    -0.965278148651123,
    0.2770721912384033,
    -0.3166053295135498,
    -0.2140190601348877,
    0.1830754280090332,
    0.1126401424407959,
    0.9066112041473389,
    -0.4939098358154297,
    0.7896814346313477,
    0.7576673030853271,
    -0.1480259895324707,
    0.027820110321044922,
    -0.21976804733276367,
    -0.25395989418029785,
    0.11730027198791504,
    0.5073258876800537,
    0.9894769191741943,
    -0.05908560752868652,
    -0.9003868103027344,
    -0.9068865776062012,
    0.13015198707580566,
    0.5227000713348389,
    -0.534987211227417,
    0.6136643886566162,
    0.4128456115722656,
    0.2700185775756836,
    0.7767970561981201,
    -0.865027666091919,
    0.9896509647369385,
    -0.5278756618499756,
    -0.6232028007507324,
    0.7779867649078369,
    -0.10566878318786621,
    0.7347216606140137,
    -0.7849342823028564,
    0.0043790340423583984,
    0.027779579162597656,
    -0.800112247467041,
    -0.6281130313873291,
    -0.9790279865264893,
    -0.08531904220581055,
    -0.3256843090057373,
    0.11126494407653809,
    -0.42389798164367676,
    -0.7782354354858398,
    0.7861378192901611,
    0.5550110340118408,
    -0.8872127532958984,
    -0.16325640678405762,
    0.8353109359741211,
    -0.6050117015838623,
    -0.3711838722229004,
    0.5261521339416504,
    -0.24382472038269043,
    -0.2904341220855713,
    -0.38921141624450684,
    -0.7592144012451172,
    0.6674497127532959,
    -0.41523051261901855,
    0.6097416877746582,
    0.18000435829162598,
    0.47454237937927246,
    0.28675222396850586,
    0.10071110725402832,
    0.8222689628601074,
    0.3466310501098633,
    -0.48592090606689453,
    0.46466588973999023,
    -0.5904672145843506,
    0.13767051696777344,
    0.24417996406555176,
    -0.1294231414794922,
    -0.5780003070831299,
    -0.6131348609924316,
    0.3988523483276367,
    -0.8350038528442383,
    -0.789055585861206,
    0.21518564224243164,
    -0.355269193649292,
    0.779191255569458,
    -0.5006577968597412,
    -0.4083850383758545,
    -0.42241501808166504,
    0.22132277488708496,
    0.32599687576293945,
    0.5136933326721191,
    -0.6702539920806885,
    0.3720123767852783,
    0.8831381797790527,
    -0.5844042301177979,
    -0.532813310623169,
    0.7103221416473389,
    0.49738383293151855,
    -0.796013355255127,
    -0.5201051235198975,
    0.8291852474212646,
    -0.9939765930175781,
    -0.5341808795928955,
    -0.19524908065795898,
    0.12065958976745605,
    -0.4295620918273926,
    0.2008810043334961,
    0.039263010025024414,
    0.45551204681396484,
    0.712425947189331,
    0.4745757579803467,
    -0.026578187942504883,
    0.09267330169677734,
    0.03127932548522949,
    0.5292046070098877,
    0.5634560585021973,
    -0.13931989669799805,
    0.913959264755249,
    0.06860876083374023,
    -0.5478923320770264,
    -0.010868549346923828,
    0.261035680770874,
    0.5345485210418701,
    0.04328012466430664,
    0.47841882705688477,
    0.5388038158416748,
    0.2620425224304199,
    0.4502987861633301,
    -0.02237534523010254,
    0.37421751022338867,
    0.9719445705413818,
    0.8747661113739014,
    -0.6629489064216614,
    -1.5082191228866577,
    0.6019935607910156,
    -0.354496031999588,
    -0.01967417262494564,
    -1.4866058826446533,
    0.8820663690567017,
    -1.6448017358779907,
    -0.11461322009563446,
    0.0030345104169100523,
    0.5371653437614441,
    -0.39619752764701843,
    -1.3722354173660278,
    -0.5004001259803772,
    0.37287580966949463,
    -0.42155027389526367,
    -0.26798975467681885,
    -0.38299453258514404,
    0.2851959466934204,
    0.8038278222084045,
    -0.3529159426689148,
    -0.7722398638725281,
    -1.1361030340194702,
    -1.3463528156280518,
    0.6453874111175537,
    -0.45589688420295715,
    1.0176501274108887,
    -1.1236684322357178,
    0.044791847467422485,
    -1.1176363229751587,
    -0.8237418532371521,
    -0.7707967758178711,
    0.34066295623779297,
    -0.6037121415138245,
    -0.6894174814224243,
    -0.6892554759979248,
    -0.2763778865337372,
    -0.8638007640838623,
    -0.9806286692619324,
    0.5876860618591309,
    -0.20211181044578552,
    -0.24136535823345184,
    -2.528900623321533,
    -0.29883384704589844,
    1.423516869544983,
    -0.02400452457368374,
    0.6324788928031921,
    -0.7806091904640198,
    1.8990713357925415,
    -0.3616328537464142,
    2.40146803855896,
    0.052845489233732224,
    -0.06327991932630539,
    0.011512700468301773,
    -1.766377568244934,
    -0.0442022904753685,
    -1.9981540441513062,
    0.5401492118835449,
    -0.7771933674812317,
    2.4351179599761963,
    -1.8054980039596558,
    -0.8749241232872009,
    0.44357824325561523,
    0.18598146736621857,
    -0.6169593930244446,
    -0.11674916744232178,
    -0.3543833792209625,
    0.30624791979789734,
    0.6850253343582153,
    2.119095802307129,
    -2.5308687686920166,
    -0.8666520118713379,
    -0.19451425969600677,
    -1.7788866758346558,
    -1.4176722764968872,
    -0.47211894392967224,
    -0.7885783314704895,
    0.8546370267868042,
    0.5978267192840576,
    -1.01239013671875,
    1.114004135131836,
    0.9792871475219727,
    -0.195821613073349,
    0.9704502820968628,
    -1.86286461353302,
    -1.7022994756698608,
    -0.40178993344306946,
    0.47979626059532166,
    -0.6748214364051819,
    0.2553199827671051,
    -0.48565277457237244,
    0.693345308303833,
    0.2861560583114624,
    -0.04901856929063797,
    -0.5124674439430237,
    -0.21329618990421295,
    -0.5922110080718994,
    0.0034011569805443287,
    -0.024508383125066757,
    -1.2035318613052368,
    -0.45337265729904175,
    0.6662259697914124,
    -0.6376287341117859,
    0.6264416575431824,
    -0.8556952476501465,
    -0.9730143547058105,
    -0.7004963159561157,
    -0.7765586972236633,
    -1.1771360635757446,
    -1.364871621131897,
    -0.37890923023223877,
    -0.7614351511001587,
    -0.011928454041481018,
    -1.3025206327438354,
    -1.750353217124939,
    -1.1852394342422485,
    -0.43562984466552734,
    -0.4072105586528778,
    -0.4439099133014679,
    -0.9359620213508606,
    -0.8104971051216125,
    0.7989401817321777,
    0.16556306183338165,
    -1.0179219245910645,
    0.1523297131061554,
    -0.36499911546707153,
    0.7902238368988037,
    -0.24623225629329681,
    0.6620652079582214,
    -1.0251827239990234,
    0.18928062915802002,
    0.5251613855361938,
    0.08109065890312195,
    -0.048808734863996506,
    -0.2761915326118469,
    1.3133667707443237,
    -0.6621745824813843,
    0.9506141543388367,
    0.14786766469478607,
    0.013539180159568787,
    -0.7092369198799133,
    0.19860805571079254,
    0.01331142894923687,
    -0.2810407280921936,
    -0.9747944474220276,
    0.08860762417316437,
    0.8493776321411133,
    -0.9263811707496643,
    -0.2047186642885208,
    -1.2010542154312134,
    -0.795830249786377,
    0.33170613646507263,
    -1.0413209199905396,
    -0.6194915175437927,
    -0.8183872103691101,
    -0.4652286171913147,
    1.2352473735809326,
    -0.8013402223587036,
    -0.06547164171934128,
    0.311214804649353,
    -0.3795020282268524,
    -0.03652477264404297,
    0.7684817314147949,
    -1.1756455898284912,
    0.3261660933494568,
    0.4132142663002014,
    0.6682750582695007,
    0.5323551297187805,
    -0.6700156927108765,
    -0.7206321954727173,
    -0.8424274325370789,
    -0.37446895241737366,
    -0.25349700450897217,
    0.9580011367797852,
    -0.17790889739990234,
    -0.5127458572387695,
    -0.4432713985443115,
    -0.12851929664611816,
    0.4271261692047119,
    0.3321084976196289,
    0.02371072769165039,
    -0.6170508861541748,
    -0.20304441452026367,
    -0.06797075271606445,
    0.7850127220153809,
    -0.5152041912078857,
    -0.2386770248413086,
    -0.7767782211303711,
    0.9277017116546631,
    -0.44997477531433105,
    0.13403820991516113,
    -0.9468116760253906,
    0.2045912742614746,
    0.9768600463867188,
    -0.17757010459899902,
    -0.0520782470703125,
    0.8647732734680176,
    0.2762789726257324,
    -0.8463711738586426,
    -0.43546438217163086,
    0.6551201343536377,
    -0.860405445098877,
    -0.7709171772003174,
    0.48518943786621094,
    0.8445210456848145,
    -0.4557526111602783,
    -0.2792937755584717,
    0.29662179946899414,
    -0.6845822334289551,
    0.3367595672607422,
    -0.45175814628601074,
    -0.5965991020202637,
    0.11515307426452637,
    0.37418413162231445,
    0.8950507640838623,
    0.17752623558044434,
    0.5670382976531982,
    0.22383403778076172,
    0.3598630428314209,
    -0.03126263618469238,
    0.2555410861968994,
    -0.48225855827331543,
    0.6042001247406006,
    -0.8137609958648682,
    0.2362992763519287,
    0.030965805053710938,
    0.8833878040313721,
    0.783212423324585,
    -0.27945804595947266,
    -0.23395586013793945,
    -0.15308880805969238,
    -0.29909229278564453,
    0.83636474609375,
    -0.324277400970459,
    -0.8666346073150635,
    -0.880021333694458,
    -0.3345787525177002,
    -0.17541837692260742,
    0.45291686058044434,
    -0.8030738830566406,
    -0.5899693965911865,
    -0.2712547779083252,
    -0.9440364837646484,
    0.2323014736175537,
    0.226806640625,
    -0.5584547519683838,
    0.01010441780090332,
    0.39638257026672363,
    0.5582494735717773,
    -0.3453197479248047,
    0.9546337127685547,
    -0.41165614128112793,
    0.10625672340393066,
    -0.2593679428100586,
    -0.7587368488311768,
    -0.749805212020874,
    -0.19758367538452148,
    -0.31009697914123535,
    -0.0645456314086914,
    0.8472609519958496,
    -0.9076598882675171,
    -0.438687264919281,
    -1.0492244958877563,
    -0.8536518216133118,
    -0.7917814254760742,
    -1.1875481605529785,
    -0.4804304242134094,
    -0.2432405799627304,
    0.17182448506355286,
    -0.06862395256757736,
    -0.30887624621391296,
    -0.9341729283332825,
    -0.13638204336166382,
    -0.34652459621429443,
    0.5662026405334473,
    -0.205233633518219,
    -0.41943803429603577,
    -0.47899767756462097,
    0.011126209981739521,
    -0.09671686589717865,
    -0.28877022862434387,
    0.4364534020423889,
    -0.14132332801818848,
    0.32880309224128723,
    0.3397604823112488,
    -1.1655555963516235,
    -0.26034116744995117,
    -1.2556707859039307,
    0.019452042877674103,
    -0.038638852536678314,
    0.16083256900310516,
    -0.3944622278213501,
    -0.8351182341575623,
    -0.16265249252319336,
    -0.21374592185020447,
    -0.04865243285894394,
    -1.0220144987106323,
    -0.8552594780921936,
    -0.1235300600528717,
    0.05396299436688423,
    -0.7387439012527466,
    0.20269402861595154,
    -0.6632435321807861,
    0.24503149092197418,
    -0.7052569389343262,
    -1.655594825744629,
    0.2732201814651489,
    -0.3326447010040283,
    0.18251793086528778,
    -0.8345041871070862,
    -0.8313879370689392,
    -0.6303593516349792,
    -0.7020130753517151,
    -0.04042697325348854,
    -0.3259805142879486,
    -1.2271276712417603,
    -0.46519097685813904,
    -1.046898365020752,
    -0.8026232123374939,
    -0.2629912495613098,
    -1.4762496948242188,
    -1.5160534381866455,
    -0.6068817973136902,
    -0.14337854087352753,
    0.21527445316314697,
    0.3516162931919098,
    -0.3270479738712311,
    -0.20557135343551636,
    -0.8591293096542358,
    -1.1969448328018188,
    -0.7375864386558533,
    -0.8453721404075623,
    0.019174110144376755,
    -0.29687008261680603,
    0.2864474356174469,
    -0.33614566922187805,
    -1.5200570821762085,
    -0.1322576254606247,
    0.2451910525560379,
    -0.10256744921207428,
    -0.040582556277513504,
    -1.0716173648834229,
    -0.8152985572814941,
    0.3579406142234802,
    -0.5543674826622009,
    0.25714361667633057,
    -0.35591837763786316,
    -0.7077792286872864,
    -0.9460428953170776,
    0.5382569432258606,
    -0.7365159392356873,
    -0.6492385864257812,
    0.22889922559261322,
    -0.7728356719017029,
    -0.507064700126648,
    -0.2949540913105011,
    -0.31360065937042236,
    -0.14867734909057617,
    -0.3816392719745636,
    -1.0394818782806396,
    -0.6107498407363892,
    -0.6817876696586609,
    -0.939163863658905,
    -0.5848192572593689,
    -0.5842819809913635,
    -0.9700115919113159,
    -0.7797704935073853,
    -0.725113570690155,
    -0.4254179000854492,
    -0.12922929227352142,
    -0.14626675844192505,
    -0.5393657684326172,
    -1.1956743001937866,
    -0.059583794325590134,
    -1.4210578203201294,
    -0.6614893674850464,
    -0.523194432258606,
    -1.2968026399612427,
    -1.002858281135559,
    -0.8465847373008728,
    -1.181971788406372,
    -1.0954731702804565,
    0.43030861020088196,
    -0.9124764800071716,
    -0.2754210829734802,
    -0.9871131777763367,
    -0.8459225296974182,
    -0.39255523681640625,
    0.24196681380271912,
    0.6986197829246521,
    -0.10588446259498596,
    -0.2767423689365387,
    0.3008985221385956,
    -1.451038122177124,
    0.31137046217918396,
    -0.9120708107948303,
    0.6139942407608032,
    -0.8253927826881409,
    -0.6305487751960754,
    -0.5139485597610474,
    0.2895415127277374,
    -0.636364221572876,
    0.3640854060649872,
    0.026828991249203682,
    -0.022437741979956627,
    -0.40730616450309753,
    -1.0038566589355469,
    0.12963858246803284,
    0.24273979663848877,
    -0.14758241176605225,
    -0.3281116783618927,
    0.00012243035598658025,
    -0.9614444971084595,
    -0.21965010464191437,
    -0.6955661177635193,
    -0.9316248297691345,
    -0.4132959544658661,
    -0.45772719383239746,
    0.41974708437919617,
    -0.6206432580947876,
    0.38884201645851135,
    -0.1595541536808014,
    -0.44546636939048767,
    0.222172349691391,
    -0.8243864178657532,
    -0.741990864276886,
    -1.0283960103988647,
    -0.7848755121231079,
    0.0996476337313652,
    0.18069376051425934,
    -1.0210543870925903,
    -1.4160481691360474,
    -0.7011722922325134,
    -0.26261550188064575,
    0.2727043628692627,
    0.9087624549865723,
    -0.14707064628601074,
    -0.08361244201660156,
    0.058846473693847656,
    -0.30556321144104004,
    -0.9363529682159424,
    0.961472749710083,
    0.23766112327575684,
    0.02774357795715332,
    -0.5900943279266357,
    -0.24766016006469727,
    -0.2812321186065674,
    0.04294395446777344,
    -0.8499298095703125,
    0.6787204742431641,
    -0.4874117374420166,
    -0.9355287551879883,
    -0.11214971542358398,
    0.3356471061706543,
    0.6304032802581787,
    0.7435367107391357,
    -0.08491969108581543,
    0.1359391212463379,
    0.2839081287384033,
    0.27034664154052734,
    -0.3875272274017334,
    -0.6009373664855957,
    -0.5571019649505615,
    0.4906902313232422,
    -0.24974822998046875,
    -0.1709303855895996,
    -0.6243765354156494,
    -0.8933353424072266,
    0.21860551834106445,
    0.22391462326049805,
    0.6285820007324219,
    0.9780919551849365,
    -0.19133758544921875,
    0.6792933940887451,
    -0.5562500953674316,
    0.08589506149291992,
    -0.19785499572753906,
    0.8144159317016602,
    -0.9486293792724609,
    0.9790694713592529,
    0.034278154373168945,
    0.201462984085083,
    0.4649388790130615,
    0.50679612159729,
    0.7171087265014648,
    -0.9806301593780518,
    0.6970553398132324,
    0.2891807556152344,
    0.7547316551208496,
    0.49413442611694336,
    0.055806875228881836,
    -0.4028046131134033,
    -0.2597792148590088,
    -0.25400257110595703,
    -0.4116523265838623,
    -0.8245487213134766,
    0.3001680374145508,
    0.3517155647277832,
    0.29366326332092285,
    0.7081141471862793,
    -0.8618042469024658,
    0.3704500198364258,
    0.2795429229736328,
    0.00302886962890625,
    0.8850922584533691,
    -0.34072422981262207,
    -0.5986940860748291,
    -0.9182977676391602,
    -0.7721960544586182,
    -0.8684718608856201,
    -0.7834553718566895,
    -0.137373685836792,
    0.653933048248291,
    -0.17311906814575195,
    -0.28257060050964355,
    -0.45341920852661133,
    -0.33350062370300293,
    -0.03489542007446289,
    -0.5992670059204102,
    0.6376898288726807,
    -0.4546806812286377,
    -0.3547377586364746,
    -0.6518285274505615,
    -0.527855634689331,
    0.3906428813934326,
    0.2900550365447998,
    -0.7711224555969238,
    0.39236998558044434,
    -0.021991252899169922,
    0.25230932235717773,
    -0.1469871997833252,
    -0.6858587265014648,
    0.2664794921875,
    -0.06985282897949219,
    -0.6838500499725342,
    0.48744845390319824,
    -0.5881688594818115,
    0.8680369853973389,
    -0.5744442939758301,
    0.10617995262145996,
    0.9589228630065918,
    0.931598424911499,
    0.2656264305114746,
    0.6418108940124512,
    -0.645726203918457,
    0.7788240909576416,
    0.15746235847473145,
    -0.7523257732391357,
    0.2760305404663086,
    0.33798670768737793,
    -0.5603103637695312,
    0.5944709777832031,
    -0.565147876739502,
    -0.8496184349060059,
    -0.3587181568145752,
    0.43477511405944824,
    -0.29492878913879395,
    0.9424235820770264,
    0.2181088924407959,
    -0.4797787666320801,
    0.33077478408813477,
    -0.14898920059204102,
    0.9458622932434082,
    0.014964103698730469,
    0.15074872970581055,
    -0.1978743076324463,
    -0.9547886848449707,
    -0.15538311004638672,
    0.6661405563354492,
    0.11240983009338379,
    0.8457415103912354,
    -0.2662010192871094,
    0.5550646781921387,
    0.7150490283966064,
    0.14868879318237305,
    -0.9956142902374268,
    -0.5102906227111816,
    -0.7684175968170166,
    0.6195056438446045,
    0.07992339134216309,
    -0.7088007926940918,
    -0.41315579414367676,
    -0.34673213958740234,
    0.6250615119934082,
    0.08004140853881836,
    -0.6265292167663574,
    0.8783621788024902,
    0.214888334274292,
    -0.7566475868225098,
    0.20037078857421875,
    -0.7596492767333984,
    0.9594004154205322,
    0.0387425422668457,
    0.3292653560638428,
    -0.583599328994751,
    -0.01892709732055664,
    0.09813094139099121,
    0.6344203948974609,
    0.39109253883361816,
    -0.49567437171936035,
    -0.7903666496276855,
    0.8141055107116699,
    -0.9674491882324219,
    -0.2747640609741211,
    -0.032770395278930664,
    -0.05397224426269531,
    -0.030823469161987305,
    0.34603428840637207,
    -0.7992515563964844,
    0.78598952293396,
    -0.7300252914428711,
    0.1275768280029297,
    0.6642224788665771,
    -0.538733720779419,
    -0.9893581867218018,
    -0.002182483673095703,
    -0.013389110565185547,
    0.22066283226013184,
    -0.08095431327819824,
    0.20391130447387695,
    0.936312198638916,
    -0.009666681289672852,
    -0.5966203212738037,
    0.3652482032775879,
    0.42795228958129883,
    -0.9457077980041504,
    0.1160733699798584,
    0.5536744594573975,
    0.7886123657226562,
    -0.2691376209259033,
    0.9526755809783936,
    0.7532632350921631,
    -0.9513797760009766,
    -0.6093559265136719,
    0.7644484043121338,
    -0.6998419761657715,
    0.7375028133392334,
    -0.7006313800811768,
    -0.9268953800201416,
    0.44272756576538086,
    0.8611645698547363,
    0.9848165512084961,
    -0.8685646057128906,
    0.6661536693572998,
    0.7992596626281738,
    -0.02422475814819336,
    0.8972749710083008,
    -0.5142576694488525,
    -0.2576413154602051,
    -0.15111804008483887,
    -0.2641794681549072,
    -0.9043269157409668,
    -0.21358656883239746,
    -0.9299523830413818,
    0.265758752822876,
    0.8248276710510254,
    -0.1408998966217041,
    0.9704253673553467,
    -0.5184109210968018,
    0.6033976078033447,
    -0.20845723152160645,
    0.7559013366699219,
    -0.29671406745910645,
    0.2747495174407959,
    -0.128936767578125,
    -0.1945183277130127,
    0.523317813873291,
    -0.44861745834350586,
    -0.6024727821350098,
    0.11455798149108887,
    -0.5806717872619629,
    -0.5805017948150635,
    0.39754152297973633,
    -0.5828526020050049,
    -0.22131776809692383,
    -0.8821010589599609,
    -0.363116979598999,
    -0.4294857978820801,
    0.6666049957275391,
    -0.25775742530822754,
    0.3058772087097168,
    -0.05266571044921875,
    -0.9041032791137695,
    -0.5153357982635498,
    -0.589242696762085,
    -0.8784997463226318,
    -0.947357177734375,
    -0.19071745872497559,
    -0.8618993759155273,
    0.4676690101623535,
    -0.8903350830078125,
    0.9686696529388428,
    -0.30832791328430176,
    0.1649188995361328,
    0.9295914173126221,
    0.7152228355407715,
    0.1716163158416748,
    0.5529847145080566,
    0.5415444374084473,
    -0.7739293575286865,
    0.8659460544586182,
    0.21206092834472656,
    -0.5613613128662109,
    0.6694211959838867,
    0.9718258380889893,
    0.7384634017944336,
    -0.40683650970458984,
    0.015628814697265625,
    -0.3991200923919678,
    -0.17305397987365723,
    -0.7905352115631104,
    -0.44850826263427734,
    -0.2679789066314697,
    0.5844378471374512,
    -0.6113486289978027,
    0.45976924896240234,
    -0.7307207584381104,
    -0.09218358993530273,
    0.6164581775665283,
    -0.2218937873840332,
    0.9866487979888916,
    -0.040242671966552734,
    -0.2609562873840332,
    -0.23187685012817383,
    -0.1412220001220703,
    0.0440826416015625,
    0.39237332344055176,
    0.888420820236206,
    -0.5555722713470459,
    -0.3719198703765869,
    -0.1434316635131836,
    -0.12070488929748535,
    -0.7943024635314941,
    0.8456578254699707,
    0.49894261360168457,
    0.11455726623535156,
    -0.6304385662078857,
    -0.353302001953125,
    0.761836051940918,
    0.7333245277404785,
    0.21097970008850098,
    -0.33617496490478516,
    -0.5668773651123047,
    0.16040825843811035,
    -0.8658585548400879,
    -0.17171525955200195,
    -0.10397028923034668,
    -0.05859541893005371,
    -0.46375465393066406,
    -0.21879100799560547,
    -0.15905165672302246,
    -0.31319379806518555,
    0.09386372566223145,
    0.031037092208862305,
    0.7080562114715576,
    0.7973520755767822,
    -0.2810389995574951,
    0.2992832660675049,
    -0.9036381244659424,
    -0.21826839447021484,
    -0.6125710010528564,
    0.9754307270050049,
    0.058272600173950195,
    -0.5708868503570557,
    0.9191939830780029,
    0.651172399520874,
    0.9039514064788818,
    0.3472476005554199,
    -0.9108235836029053,
    0.2941594123840332,
    0.8999297618865967,
    -0.9246044158935547,
    0.4197382926940918,
    0.7443914413452148,
    0.5520119667053223,
    -0.3118913173675537,
    0.9580039978027344,
    0.6721231937408447,
    0.2044079303741455,
    0.36285853385925293,
    0.3400290012359619,
    -0.4308350086212158,
    0.10514497756958008,
    -0.9902510643005371,
    -0.8239057064056396,
    0.13540410995483398,
    0.11700940132141113,
    0.4316117763519287,
    0.24878358840942383,
    0.9301271438598633,
    -0.0028395652770996094,
    -0.8235507011413574,
    0.9390621185302734,
    -0.28595757484436035,
    -0.18523311614990234,
    -0.849186897277832,
    0.3654189109802246,
    0.2250359058380127,
    -0.48125720024108887,
    -0.14227581024169922,
    -0.31421661376953125,
    -0.26091504096984863,
    0.17864561080932617,
    0.1431896686553955,
    -0.21962714195251465,
    -0.0741112232208252,
    0.5782322883605957,
    0.9411725997924805,
    0.23341751098632812,
    0.4688076972961426,
    0.17285585403442383,
    0.700772762298584,
    -0.8492910861968994,
    0.10851287841796875,
    -0.3266913890838623,
    0.4892270565032959,
    -0.3549330234527588,
    -0.8872072696685791,
    0.6998984813690186,
    -0.6240065097808838,
    -0.9155466556549072,
    0.6418588161468506,
    -0.50177001953125,
    -0.7800829410552979,
    0.4652731418609619,
    -0.4766561985015869,
    -0.7220611572265625,
    -0.745203971862793,
    -0.5573985576629639,
    -0.22086286544799805,
    -0.40225696563720703,
    0.7724630832672119,
    0.9241831302642822,
    0.6433908939361572,
    -0.4583015441894531,
    0.33151674270629883,
    0.19667840003967285,
    -0.5395200252532959,
    -0.30144333839416504,
    -0.9355766773223877,
    0.9740660190582275,
    -0.18600678443908691,
    0.6875557899475098,
    0.49443483352661133,
    0.8922080993652344,
    -0.3351166248321533,
    -0.6088216304779053,
    0.3282499313354492,
    -0.7541642189025879,
    -0.617211103439331,
    -0.5120906829833984,
    0.6509153842926025,
    -0.28986263275146484,
    0.13080501556396484,
    0.48209595680236816,
    0.8411054611206055,
    0.7212743759155273,
    0.7785944938659668,
    -0.16115546226501465,
    0.9654161930084229,
    0.5218603610992432,
    -0.34250760078430176,
    -0.8586933612823486,
    0.7185204029083252,
    -0.4335613250732422,
    -0.6417346000671387,
    -0.2016744613647461,
    -0.008132696151733398,
    -0.9976382255554199,
    -0.5261399745941162,
    0.12185215950012207,
    -0.9794139862060547,
    -0.39164066314697266,
    0.7462143898010254,
    0.11929750442504883,
    -0.42043495178222656,
    -0.5883896350860596,
    0.5643012523651123,
    0.4043753147125244,
    0.7274057865142822,
    0.011221647262573242,
    0.06910848617553711,
    0.40468597412109375,
    -0.45461034774780273,
    -0.26146674156188965,
    0.18458271026611328,
    0.6093335151672363,
    -0.6901960372924805,
    0.06909942626953125,
    0.212860107421875,
    -0.819694995880127,
    0.1709275245666504,
    0.8943996429443359,
    -0.879647970199585,
    0.6152970790863037,
    -0.12290096282958984,
    0.513190746307373,
    -0.8858301639556885,
    -0.8840551376342773,
    -0.9578559398651123,
    0.7436206340789795,
    -0.6198818683624268,
    -0.7992911338806152,
    -0.10349035263061523,
    -0.060230255126953125,
    0.36724019050598145,
    0.11305880546569824,
    0.14447712898254395,
    0.8514270782470703,
    -0.3052637577056885,
    0.024753808975219727,
    -0.8088893890380859,
    0.027808189392089844,
    0.9069149494171143,
    0.752103328704834,
    0.6284964084625244,
    0.5142843723297119,
    -0.7144792079925537,
    -0.7986719608306885,
    0.8110811710357666,
    -0.7117033004760742,
    0.532137393951416,
    0.4511382579803467,
    0.5776009559631348,
    -0.21754884719848633,
    -0.23665308952331543,
    0.0693509578704834,
    -0.21021318435668945,
    0.6025528907775879,
    0.2924981117248535,
    -0.3105452060699463,
    -0.14543509483337402,
    -0.969430685043335,
    0.17986011505126953,
    -0.007058143615722656,
    -0.2470536231994629,
    -0.49416494369506836,
    -0.17852330207824707,
    -0.7737445831298828,
    0.9949226379394531,
    0.47237443923950195,
    0.7613589763641357,
    0.1941380500793457,
    0.37369728088378906,
    0.4306051731109619,
    0.7235002517700195,
    0.030593395233154297,
    -0.45058131217956543,
    0.10233449935913086,
    -0.7413828372955322,
    -0.7008006572723389,
    0.664862871170044,
    0.51192307472229,
    0.9990911483764648,
    0.2906002998352051,
    0.5601825714111328,
    0.9156477451324463,
    0.8712146282196045,
    0.4336698055267334,
    0.8136370182037354,
    -0.3031117916107178,
    0.11598825454711914,
    0.1652059555053711,
    -0.05026578903198242,
    0.6873042583465576,
    -0.3452334403991699,
    -0.4277045726776123,
    0.19182777404785156,
    -0.12111663818359375,
    0.2358870506286621,
    -0.3633086681365967,
    0.8139498233795166,
    -0.78273606300354,
    0.3634631633758545,
    -0.9291613101959229,
    0.968235969543457,
    0.6820342540740967,
    -0.5281217098236084,
    -0.01291036605834961,
    -0.10169172286987305,
    -0.44281768798828125,
    0.13848090171813965,
    -0.11718988418579102,
    -0.5784633159637451,
    0.4627377986907959,
    -0.1319718360900879,
    0.5333483219146729,
    0.508908748626709,
    -0.5168168544769287,
    -0.4121205806732178,
    -0.3605046272277832,
    0.600379228591919,
    0.2075517177581787,
    0.5096762180328369,
    -0.943134069442749,
    0.17608141899108887,
    -0.7171783447265625,
    0.6422550678253174,
    0.21271753311157227,
    0.848517894744873,
    -0.7766103744506836,
    0.43026041984558105,
    -0.9204654693603516,
    -0.4281589984893799,
    -0.024617910385131836,
    0.1372823715209961,
    -0.9069569110870361,
    -0.7043421268463135,
    0.9013075828552246,
    -0.19199895858764648,
    -0.43149781227111816,
    -0.03533172607421875,
    -0.31256580352783203,
    -0.20335602760314941,
    -0.09417414665222168,
    -0.5538709163665771,
    -0.45902419090270996,
    0.884711503982544,
    0.8251686096191406,
    0.3219115734100342,
    0.0011887550354003906,
    0.01274418830871582,
    0.9251101016998291,
    -0.18361377716064453,
    0.9872617721557617,
    0.02539992332458496,
    0.5412838459014893,
    -0.38105344772338867,
    -0.8193025588989258,
    0.33689141273498535,
    -0.5190541744232178,
    0.8503119945526123,
    0.0851593017578125,
    -0.8638863563537598,
    -0.9947311878204346,
    -0.993685245513916,
    -0.09458136558532715,
    0.1741931438446045,
    0.9655840396881104,
    0.1453850269317627,
    -0.2927231788635254,
    -0.6716270446777344,
    0.9653308391571045,
    0.3430924415588379,
    -0.33986592292785645,
    -0.6816377639770508,
    -0.3698105812072754,
    -0.5588068962097168,
    -0.8287038803100586,
    -0.7154214382171631,
    -0.38229942321777344,
    0.958533525466919,
    -0.23549413681030273,
    -0.23285484313964844,
    -0.2945103645324707,
    -0.36865925788879395,
    0.47986817359924316,
    0.7136468887329102,
    0.0031328201293945312,
    0.9821703433990479,
    0.25148773193359375,
    0.4501681327819824,
    -0.7805423736572266,
    0.48059988021850586,
    0.2618281841278076,
    0.45246100425720215,
    -0.5969314575195312,
    0.26367616653442383,
    -0.7847530841827393,
    -0.7914609909057617,
    0.74507737159729,
    -0.655289888381958,
    0.21813464164733887,
    0.5677459239959717,
    -0.567009449005127,
    0.3505063056945801,
    -0.9615817070007324,
    -0.25127315521240234,
    -0.37758612632751465,
    0.6494083404541016,
    -0.7506632804870605,
    0.28877806663513184,
    -0.46779370307922363,
    -0.2328338623046875,
    -0.11896991729736328,
    0.3648061752319336,
    0.26695823669433594,
    -0.4909942150115967,
    0.780961275100708,
    -0.14375853538513184,
    0.4389781951904297,
    -0.05891680717468262,
    -0.165252685546875,
    -0.9023089408874512,
    -0.5110111236572266,
    0.5104784965515137,
    -0.07479000091552734,
    -0.5928070545196533,
    0.7575628757476807,
    -0.344524621963501,
    0.17798209190368652,
    -0.5125937461853027,
    0.7017285823822021,
    -0.4664630889892578,
    -0.3105778694152832,
    -0.2035830020904541,
    -0.7092893123626709,
    -0.4789295196533203,
    0.24376559257507324,
    0.6261904239654541,
    -0.6863906383514404,
    0.5929043292999268,
    -0.9981639385223389,
    -0.6820096969604492,
    0.9627077579498291,
    0.723346471786499,
    0.8227567672729492,
    0.313413143157959,
    0.49261927604675293,
    -0.8045699596405029,
    -0.5505473613739014,
    -0.36739206314086914,
    -0.3900318145751953,
    -0.5737953186035156,
    0.5674176216125488,
    -0.16206145286560059,
    -0.1892549991607666,
    0.4490635395050049,
    -0.18856525421142578,
    -0.44271159172058105
  ],
  "outputNodes": 11,
  "outputToTypes": [
    "(Mobile - Air - Orbital) | (Structure - Orbital)",
    "(Mobile - Air - Orbital) | (Structure - Orbital)",
    "(Mobile - Air - Orbital) | (Structure - Orbital)",
    "(Mobile - Air - Orbital) | (Structure - Orbital)",
    "Mobile & AirDefense",
    "Fabber - Air - Orbital",
    "Structure & (MetalProduction | EnergyProduction)",
    "Structure & AirDefense",
    "(Structure & Defense) - Wall - AirDefense - Orbital",
    "Commander",
    ""
  ]
}