{
  "hiddenBiasWeights": [
    0.8207478523254395,
    -0.24825595319271088,
    0.10391368716955185,
    -0.8841516375541687,
    0.5770699977874756,
    0.4572935104370117,
    -0.46328359842300415,
    0.23389925062656403,
    -0.5945817828178406,
    -0.23754942417144775,
    0.7610171437263489
  ],
  "hiddenNodes": 87,
  "hiddenWeights": [
    -1.0017081499099731,
    0.21052180230617523,
    -1.2774431705474854,
    -0.7861613035202026,
    0.9479839205741882,
    -0.2211577296257019,
    0.30831772089004517,
    0.6000102758407593,
    0.028277665376663208,
    -1.1908377408981323,
    -0.7275142669677734,
    -0.5779979825019836,
    0.7825393080711365,
    0.07635274529457092,
    -0.8979661464691162,
    -0.14917385578155518,
    -0.6144598722457886,
    0.08607254922389984,
    0.5045943856239319,
    -0.9629899859428406,
    0.39873138070106506,
    0.009526473470032215,
    -0.6386374831199646,
    -0.47581806778907776,
    -0.9532268643379211,
    -0.035816241055727005,
    -0.5022450685501099,
    -0.8010109663009644,
    -0.042092371731996536,
    -0.6183508634567261,
    -0.0265863835811615,
    -0.8778879642486572,
    0.04948539659380913,
    -0.43317899107933044,
    -0.5928766131401062,
    0.6530918478965759,
    0.15840137004852295,
    -0.027934221550822258,
    -0.47345995903015137,
    1.0864900350570679,
    0.8053749203681946,
    0.20115049183368683,
    0.37549734115600586,
    0.9589175581932068,
    -0.8175047636032104,
    0.6794763207435608,
    -0.9383544921875,
    -0.1406131088733673,
    -0.007781840395182371,
    0.8041656017303467,
    0.8636981844902039,
    0.6796829104423523,
    0.5453066825866699,
    0.27081990242004395,
    -0.22463303804397583,
    0.8349846601486206,
    -0.28682467341423035,
    -0.9194605350494385,
    -0.4075283706188202,
    -0.6313489079475403,
    0.7815102934837341,
    -0.4103800654411316,
    0.7445928454399109,
    -0.5357173681259155,
    0.6086166501045227,
    0.21495281159877777,
    -0.7828845381736755,
    -1.0251617431640625,
    -0.8297681212425232,
    0.4587196707725525,
    0.733408510684967,
    0.1990646868944168,
    0.22323264181613922,
    -0.0662771612405777,
    -0.7374899983406067,
    -0.7228606343269348,
    -0.03294847905635834,
    0.5386146306991577,
    0.29842445254325867,
    -1.1865071058273315,
    -0.31437015533447266,
    0.17669831216335297,
    -0.1575814038515091,
    0.523768424987793,
    -0.6699583530426025,
    -0.6366767883300781,
    -0.7280122637748718,
    0.37035924196243286,
    0.7795965671539307,
    0.4397678077220917,
    -0.9375605583190918,
    -0.03933156281709671,
    0.16381561756134033,
    -0.7780309319496155,
    -1.0276548862457275,
    -0.42059776186943054,
    -0.10503379255533218,
    0.7299391031265259,
    -1.028831124305725,
    -0.08340033888816833,
    0.5999146103858948,
    -0.7472807765007019,
    -0.9024062156677246,
    -0.08557342737913132,
    0.6146352291107178,
    -0.23221631348133087,
    0.6641554832458496,
    0.8835409283638,
    0.7100616097450256,
    0.5004255771636963,
    0.48492398858070374,
    -0.744890570640564,
    -0.4109363257884979,
    -0.8775928616523743,
    0.6140716671943665,
    -0.0029085103888064623,
    0.20812004804611206,
    -1.07802152633667,
    -0.4279415011405945,
    -0.2277260422706604,
    0.7260403633117676,
    0.7271802425384521,
    0.7106794714927673,
    -1.6571520566940308,
    0.7598059773445129,
    0.4563291668891907,
    -0.7327300310134888,
    -0.045816827565431595,
    -0.5620202422142029,
    -0.5092757344245911,
    -0.24634402990341187,
    -1.1342551708221436,
    -0.5139297842979431,
    -0.5698278546333313,
    -0.22840531170368195,
    0.5621772408485413,
    -0.4407433271408081,
    -0.0892786979675293,
    -0.7263016700744629,
    0.12132909893989563,
    0.4857584536075592,
    -0.7926595211029053,
    -0.745163083076477,
    0.32765382528305054,
    0.13402308523654938,
    -0.8802311420440674,
    -0.7053059935569763,
    0.7233138680458069,
    -0.3246643543243408,
    -0.8005169630050659,
    -0.49431678652763367,
    -0.9757490158081055,
    0.15048187971115112,
    -0.33275243639945984,
    -0.6149738430976868,
    0.7209917902946472,
    -0.48987388610839844,
    -0.47720837593078613,
    0.23889687657356262,
    0.5214087963104248,
    0.3017878830432892,
    -0.7575982213020325,
    -0.3178904056549072,
    -0.6165382862091064,
    -0.853645384311676,
    0.48960793018341064,
    0.36712947487831116,
    0.06163289025425911,
    -0.7733376026153564,
    0.34307461977005005,
    0.3401299715042114,
    0.1358947455883026,
    0.1384427845478058,
    -0.026768546551465988,
    0.303146094083786,
    -0.8488999605178833,
    -0.22869043052196503,
    -0.9212137460708618,
    -0.7876796722412109,
    0.6170687675476074,
    -0.6323350667953491,
    -0.240571990609169,
    0.3714190423488617,
    0.7291349172592163,
    -0.6248494982719421,
    -0.3039293587207794,
    0.4270898997783661,
    0.8293545246124268,
    0.9860318303108215,
    -0.22750401496887207,
    -0.9476476907730103,
    -0.48877814412117004,
    0.6906404495239258,
    -0.5549415349960327,
    -0.7212907075881958,
    -0.21045967936515808,
    -0.10303440690040588,
    0.6446434855461121,
    0.7282764315605164,
    0.4414677023887634,
    -1.1179431676864624,
    0.056137118488550186,
    -0.4366529881954193,
    -0.7045381665229797,
    -0.4223951995372772,
    0.517846405506134,
    -0.2433052510023117,
    0.7476065754890442,
    -0.5357169508934021,
    0.44075554609298706,
    0.8418059349060059,
    0.34308111667633057,
    0.5491629242897034,
    -0.8907657265663147,
    0.46731942892074585,
    0.8743652105331421,
    -0.8776869773864746,
    -0.5632442235946655,
    0.7350632548332214,
    -0.45311465859413147,
    0.6058744192123413,
    -0.7584423422813416,
    -1.1017121076583862,
    -0.2915574014186859,
    -0.6582378149032593,
    -0.07698056101799011,
    0.2635982036590576,
    -0.4404635429382324,
    0.9579530954360962,
    -0.3126927614212036,
    -0.17895521223545074,
    0.035937272012233734,
    0.41921499371528625,
    -0.40892094373703003,
    -0.6769147515296936,
    -0.704364538192749,
    -0.22292488813400269,
    0.8042696118354797,
    -0.6947380304336548,
    0.5510006546974182,
    0.5368921160697937,
    -0.153608039021492,
    -0.4065459072589874,
    0.9233660697937012,
    -0.06997700780630112,
    -0.30884456634521484,
    0.9093155264854431,
    0.30450162291526794,
    0.4394458830356598,
    -0.5925707817077637,
    -0.9634808301925659,
    0.043145231902599335,
    0.7945213317871094,
    0.16483238339424133,
    -0.7505084872245789,
    -0.7949046492576599,
    0.03442126885056496,
    0.9369620084762573,
    -0.7397910356521606,
    0.5675413012504578,
    -0.9508259892463684,
    -0.4673001170158386,
    -1.0197899341583252,
    -1.1353965997695923,
    0.5583578944206238,
    0.6208049654960632,
    1.1985936164855957,
    1.0194138288497925,
    0.23831875622272491,
    -0.030423644930124283,
    -0.34977543354034424,
    -0.5164651870727539,
    -0.4409692883491516,
    0.4625227451324463,
    0.34468093514442444,
    -0.63536536693573,
    -0.05842571333050728,
    -0.04408717527985573,
    -0.19710400700569153,
    -0.9713686108589172,
    -0.43486684560775757,
    -0.3637925982475281,
    -0.7627018690109253,
    -0.4687889516353607,
    -0.48836374282836914,
    0.9647924900054932,
    -0.6870730519294739,
    -0.2432314157485962,
    -0.5857763886451721,
    -0.8175190687179565,
    0.07786490023136139,
    -0.15858398377895355,
    -0.09349095076322556,
    0.5583178997039795,
    0.23299618065357208,
    -0.8010541200637817,
    -0.07688574492931366,
    -0.6089637875556946,
    -0.8061019778251648,
    -0.6743426322937012,
    0.7503673434257507,
    -0.19002386927604675,
    0.5514627695083618,
    -1.1201661825180054,
    -0.27003851532936096,
    -0.1335228532552719,
    -0.6139407753944397,
    -0.007682947441935539,
    0.060044266283512115,
    0.8719199299812317,
    0.8725479245185852,
    -0.5476728081703186,
    -0.6478954553604126,
    0.027125908061861992,
    -0.4540340006351471,
    -0.650440514087677,
    -0.5968527793884277,
    0.5683684945106506,
    -0.293878436088562,
    -0.8583458662033081,
    -0.8001847267150879,
    0.4384787082672119,
    0.44264721870422363,
    -0.8219753503799438,
    -0.2618648111820221,
    -0.3047211468219757,
    -0.7230598330497742,
    0.6800837516784668,
    -0.9441288113594055,
    0.7682782411575317,
    0.07087653875350952,
    -0.14645548164844513,
    -0.8104993104934692,
    -0.21399255096912384,
    0.5711239576339722,
    -0.9685360193252563,
    -0.08046673238277435,
    -0.18001686036586761,
    0.2498169094324112,
    0.15454545617103577,
    -0.9263072609901428,
    -0.6663267016410828,
    0.5845016837120056,
    -0.8622544407844543,
    -0.1378415822982788,
    -0.18484699726104736,
    -0.20691469311714172,
    0.8045757412910461,
    0.24843813478946686,
    -0.7292060852050781,
    -1.2711670398712158,
    0.5838424563407898,
    -0.548477292060852,
    0.8560596108436584,
    -1.3149133920669556,
    0.5919298529624939,
    -0.789015531539917,
    -0.5581995248794556,
    0.6548848748207092,
    0.7205393314361572,
    -0.4226793646812439,
    -0.7141083478927612,
    -1.0982317924499512,
    -0.7042630910873413,
    -0.38286975026130676,
    -0.20187786221504211,
    0.5228095054626465,
    -0.6288958191871643,
    0.09569679945707321,
    0.0022491635754704475,
    -0.5805292725563049,
    0.29919248819351196,
    1.0466110706329346,
    -0.2625041604042053,
    -0.9677687287330627,
    0.7623802423477173,
    -0.8571414351463318,
    0.5305237770080566,
    -0.7861301898956299,
    -0.6973693370819092,
    -0.7273370623588562,
    0.22925643622875214,
    -0.8880007266998291,
    -0.962719202041626,
    -0.15507693588733673,
    0.7517780661582947,
    0.48662063479423523,
    0.4697164297103882,
    -0.7373210787773132,
    -0.6961776614189148,
    0.6092177033424377,
    -0.383546382188797,
    0.5192996859550476,
    0.16159187257289886,
    0.676976203918457,
    0.08795017749071121,
    0.718812108039856,
    -0.15527255833148956,
    0.005562379956245422,
    -0.9278732538223267,
    0.26304879784584045,
    -0.5759310722351074,
    0.0828847736120224,
    -0.3857172429561615,
    0.7200435996055603,
    0.4648993909358978,
    -0.43413347005844116,
    0.028369510546326637,
    0.06612361967563629,
    -0.5219371318817139,
    -0.10499666631221771,
    1.020325779914856,
    0.061240460723638535,
    0.3702608644962311,
    0.4231460392475128,
    -0.4256349503993988,
    -0.027371427044272423,
    -0.3972700834274292,
    0.6863522529602051,
    -0.6557834148406982,
    0.22823874652385712,
    -1.0381369590759277,
    0.11777672916650772,
    -0.6785154938697815,
    -0.8301844596862793,
    0.18725544214248657,
    -0.6743910312652588,
    -0.9788162112236023,
    0.1456586867570877,
    0.8111279606819153,
    -0.4504459500312805,
    -1.245010495185852,
    -0.9016270041465759,
    -0.951759397983551,
    0.3147687017917633,
    0.1771848350763321,
    0.28366637229919434,
    -0.6215757131576538,
    -0.7367334365844727,
    -0.4263133406639099,
    0.15776076912879944,
    -0.5123238563537598,
    -0.7794094085693359,
    -0.7303680181503296,
    -0.7525898218154907,
    0.7810450792312622,
    0.4230656921863556,
    -0.8379166126251221,
    0.9340532422065735,
    0.5707554817199707,
    0.447922945022583,
    -0.6990952491760254,
    0.4843977391719818,
    1.1139134168624878,
    0.44356849789619446,
    -0.2926771938800812,
    0.9553290009498596,
    0.4818052053451538,
    -0.402275949716568,
    -0.295156329870224,
    0.09453465044498444,
    -0.36971017718315125,
    0.5555527806282043,
    0.6735400557518005,
    0.8317488431930542,
    1.0261763334274292,
    0.0747954472899437,
    1.0762228965759277,
    0.4802294969558716,
    1.055091142654419,
    -0.6294108033180237,
    0.23628859221935272,
    -0.33022794127464294,
    -0.3458993136882782,
    -0.39589282870292664,
    1.1683887243270874,
    -0.4766395688056946,
    -0.12203141301870346,
    -0.7127705812454224,
    0.4313739538192749,
    0.09032636135816574,
    0.2460552155971527,
    -0.10772057622671127,
    0.5451101064682007,
    1.0074836015701294,
    0.6971327066421509,
    0.803847074508667,
    0.2568194270133972,
    0.13702218234539032,
    0.22002571821212769,
    -0.04152615740895271,
    -0.11200081557035446,
    0.47307121753692627,
    0.7352486848831177,
    0.7231718301773071,
    0.003683489980176091,
    0.34655019640922546,
    -1.4522066116333008,
    -0.3734881281852722,
    0.25831565260887146,
    0.5856038331985474,
    -0.530487060546875,
    -0.9764686822891235,
    0.5641343593597412,
    0.6897804737091064,
    -0.8055517077445984,
    0.3476882874965668,
    -0.39198699593544006,
    -0.589893639087677,
    -0.8375981450080872,
    0.915876567363739,
    0.6372465491294861,
    0.1507018804550171,
    -0.7826942801475525,
    -0.6699743270874023,
    0.098689965903759,
    0.060578618198633194,
    0.3928121030330658,
    -0.7195897698402405,
    -0.5801581144332886,
    -0.03721084073185921,
    -0.09317757934331894,
    -0.15565885603427887,
    0.601651132106781,
    -0.7850691080093384,
    0.23996180295944214,
    -0.2334991693496704,
    0.35381945967674255,
    -0.5269560217857361,
    0.04388894885778427,
    0.36204782128334045,
    0.44359663128852844,
    -0.0483689047396183,
    -0.19402356445789337,
    -0.2923680245876312,
    -0.15489614009857178,
    -0.18734753131866455,
    0.09883594512939453,
    -0.8912075161933899,
    0.8260864615440369,
    0.15430299937725067,
    0.6424046158790588,
    1.0235403776168823,
    -0.8309262990951538,
    1.1603525876998901,
    0.6103294491767883,
    0.739138126373291,
    0.7654125690460205,
    0.052807703614234924,
    -0.4858528971672058,
    0.6270362138748169,
    -0.22013896703720093,
    -0.09684234857559204,
    -1.0702918767929077,
    -0.05562329292297363,
    0.31802037358283997,
    -0.5853623151779175,
    -0.1857839822769165,
    -0.6092754602432251,
    -0.8130851984024048,
    -0.34393179416656494,
    -0.19783464074134827,
    0.8875899314880371,
    -0.8577974438667297,
    0.010623583570122719,
    -0.968603789806366,
    -0.684640109539032,
    -0.0021042332518845797,
    -0.5887904167175293,
    -0.9109687805175781,
    -0.34476152062416077,
    0.720539391040802,
    0.7829420566558838,
    0.4144415557384491,
    0.251088947057724,
    0.8193120360374451,
    -0.6559233069419861,
    0.06691696494817734,
    -0.17128799855709076,
    -0.10434514284133911,
    0.4076501131057739,
    0.3063010275363922,
    -0.3064071834087372,
    -0.3870064616203308,
    0.5589174628257751,
    -1.071709156036377,
    0.8109009265899658,
    -0.13611114025115967,
    -0.8790139555931091,
    -0.49572235345840454,
    0.6465985774993896,
    0.6277024149894714,
    -1.2339245080947876,
    0.38103607296943665,
    0.2058938592672348,
    -0.7360910773277283,
    0.5352768301963806,
    0.9486860036849976,
    -0.7211167216300964,
    0.44044163823127747,
    0.45116597414016724,
    0.8215605020523071,
    0.7543514966964722,
    -0.08049872517585754,
    0.6716979146003723,
    0.15416473150253296,
    0.4865119755268097,
    -0.26106178760528564,
    -1.0578420162200928,
    -0.22307495772838593,
    -0.49369481205940247,
    -0.7531024217605591,
    0.5889148116111755,
    0.4218725860118866,
    -0.018107376992702484,
    0.013447507284581661,
    -0.40875881910324097,
    -0.8571688532829285,
    0.4152246415615082,
    -0.46916940808296204,
    -0.05561906471848488,
    0.3799675405025482,
    -0.7024886608123779,
    -1.0374342203140259,
    0.39296767115592957,
    0.6946402192115784,
    0.07626404613256454,
    -0.9520013332366943,
    -0.5201504826545715,
    -1.0176305770874023,
    -0.8294506072998047,
    0.9993889927864075,
    -0.4198445677757263,
    0.39201653003692627,
    -0.532614529132843,
    -0.6272571682929993,
    -0.8245380520820618,
    -0.31805673241615295,
    -0.33045580983161926,
    0.11053383350372314,
    -0.09533664584159851,
    0.8706125617027283,
    0.07084914296865463,
    -0.2998179793357849,
    0.21771208941936493,
    0.10033538937568665,
    0.48480796813964844,
    -0.27793630957603455,
    0.4875859022140503,
    0.07720817625522614,
    -0.5312207341194153,
    0.17937295138835907,
    -0.3088444471359253,
    -0.45763885974884033,
    -0.683707058429718,
    0.9125416278839111,
    0.5015544295310974,
    0.1809578537940979,
    -0.23602870106697083,
    0.5298635363578796,
    0.38487714529037476,
    -0.6917126774787903,
    -1.267708659172058,
    -0.9858771562576294,
    -0.6170724630355835,
    0.16001932322978973,
    -1.4311869144439697,
    0.1539708375930786,
    -0.3689696192741394,
    0.31152960658073425,
    -0.13303932547569275,
    0.2872723340988159,
    -0.847900927066803,
    0.9758848547935486,
    0.26570624113082886,
    0.33104509115219116,
    0.9174757599830627,
    1.24260413646698,
    1.0057814121246338,
    0.2547929883003235,
    1.1354504823684692,
    1.2205114364624023,
    0.1586892455816269,
    0.22401604056358337,
    0.3965924084186554,
    -0.36901623010635376,
    -0.5367638468742371,
    0.4873218238353729,
    0.3889501690864563,
    0.988814115524292,
    0.426057904958725,
    0.8996233940124512,
    0.8995829224586487,
    0.1778709590435028,
    -0.39574792981147766,
    -1.0541919469833374,
    -0.8035584688186646,
    -0.2067192643880844,
    -0.9776789546012878,
    -0.6795910596847534,
    0.18527498841285706,
    0.6225326657295227,
    0.05284758284687996,
    -0.83856201171875,
    -0.14249718189239502,
    0.30489030480384827,
    -0.7558835744857788,
    0.02143598534166813,
    0.1538275182247162,
    -0.5145708918571472,
    0.012733178213238716,
    -0.7750108242034912,
    -0.9829631447792053,
    -0.4890815317630768,
    -0.1073591336607933,
    -0.16367146372795105,
    -0.08598380535840988,
    -1.2430087327957153,
    0.45383062958717346,
    0.43366560339927673,
    0.19649609923362732,
    -0.4932173788547516,
    0.7209483981132507,
    0.808021605014801,
    -0.7707774043083191,
    0.27586182951927185,
    -0.11866892874240875,
    -0.27557671070098877,
    -0.19388532638549805,
    0.483857661485672,
    0.8433264493942261,
    0.5970866084098816,
    -0.531971275806427,
    -0.04914196580648422,
    -0.6114667057991028,
    -0.1452436000108719,
    -0.5426803827285767,
    -0.21164315938949585,
    0.029481956735253334,
    -0.08754505962133408,
    -0.2894316613674164,
    0.11508315056562424,
    0.5615738034248352,
    -0.673331081867218,
    0.165629044175148,
    -0.563446581363678,
    -0.6146465539932251,
    1.076656460762024,
    0.048615261912345886,
    0.5241097211837769,
    0.42643553018569946,
    0.9538993835449219,
    -0.684161901473999,
    -0.008213375695049763,
    0.16053348779678345,
    -0.5034366250038147,
    -0.5497528314590454,
    -0.7683115601539612,
    0.8939484357833862,
    -0.2771424949169159,
    0.5451036095619202,
    0.8654689192771912,
    0.8637129664421082,
    0.36512401700019836,
    -0.5810084342956543,
    0.6530242562294006,
    -0.03972760960459709,
    0.6648904085159302,
    -0.4333174228668213,
    0.5282957553863525,
    -0.08221578598022461,
    -0.2613307237625122,
    0.14293067157268524,
    -0.018871596083045006,
    0.8444637060165405,
    -0.11892453581094742,
    0.7586456537246704,
    -0.7319490313529968,
    0.3097405433654785,
    0.257783442735672,
    0.4944573640823364,
    0.5147796869277954,
    -0.24495017528533936,
    -0.09285827726125717,
    -0.562625527381897,
    0.8190620541572571,
    -0.029650233685970306,
    -0.38507530093193054,
    0.5208668112754822,
    0.36744627356529236,
    0.33467137813568115,
    0.15409062802791595,
    0.0018525496125221252,
    0.4674719572067261,
    -0.11276019364595413,
    0.9451403021812439,
    -0.43087583780288696,
    0.6395622491836548,
    -0.6807122826576233,
    0.11619499325752258,
    -0.6290482878684998,
    0.8745048642158508,
    0.7478491067886353,
    -0.09203498810529709,
    0.25682535767555237,
    0.3056867718696594,
    0.7426940202713013,
    -0.02910115197300911,
    0.2864607870578766,
    -1.0891176462173462,
    -0.27257415652275085,
    -0.39875778555870056,
    0.6414731740951538,
    -0.20055556297302246,
    -0.3117820918560028,
    0.013685014098882675,
    0.20271621644496918,
    0.020283177495002747,
    0.4553500711917877,
    0.5945859551429749,
    -0.9373958110809326,
    0.7270206212997437,
    0.24559849500656128,
    -0.4715541899204254,
    0.012560191564261913,
    0.8525866866111755,
    -0.006128236185759306,
    -0.8661021590232849,
    0.5697070360183716,
    0.33822473883628845,
    0.09652547538280487,
    0.0444171242415905,
    -0.9880922436714172,
    0.7879507541656494,
    -0.027726344764232635,
    0.3982318639755249,
    -0.49519771337509155,
    0.3047415018081665,
    0.3154674768447876,
    -0.8402810096740723,
    0.7417437434196472,
    -0.7272071242332458,
    0.6828858256340027,
    0.5836206674575806,
    -0.2768465578556061,
    0.6052864193916321,
    0.10547442734241486,
    0.487178772687912,
    0.40634411573410034,
    -0.7076442837715149,
    -0.14282338321208954,
    0.31051337718963623,
    -1.0920469760894775,
    -0.054982397705316544,
    -0.1424252986907959,
    0.6055092811584473,
    -0.16319365799427032,
    -0.14258936047554016,
    -0.5932674407958984,
    0.5010004043579102,
    -1.251800775527954,
    0.5537475347518921,
    0.20572160184383392,
    -1.046390414237976,
    0.09026861190795898,
    -0.08794726431369781,
    -0.6923382878303528,
    0.17462599277496338,
    -0.6085053086280823,
    -0.03240801766514778,
    -0.8204596042633057,
    -0.2774204611778259,
    -0.2206183671951294,
    -0.55484938621521,
    -0.5312197208404541,
    0.4373680055141449,
    -0.7578350901603699,
    0.44419407844543457,
    -0.08792144805192947,
    -0.8936348557472229,
    0.9510022401809692,
    -0.39470192790031433,
    0.277734637260437,
    0.15780042111873627,
    -0.15471844375133514,
    0.1803438663482666,
    -0.5771089792251587,
    0.4495334029197693,
    -0.5210098028182983,
    0.8169953227043152,
    0.33519595861434937,
    -0.1406126618385315,
    0.11209488660097122,
    -1.5927456617355347,
    -0.4774022102355957,
    -0.5561721324920654,
    0.31918999552726746,
    -0.8208717107772827,
    0.5500452518463135,
    -1.0111267566680908,
    -0.7308112978935242,
    0.08475209027528763,
    0.08639723807573318,
    -0.5729950070381165,
    -0.6433661580085754,
    0.4112599194049835,
    0.011546751484274864,
    -0.07631807029247284,
    0.48682403564453125,
    -1.1223665475845337,
    -0.025866100564599037,
    0.48233532905578613,
    -0.28417399525642395,
    -0.16956113278865814,
    0.20033198595046997,
    -0.951336681842804,
    0.671810507774353,
    0.31709498167037964,
    0.2741767466068268,
    -0.7859463691711426,
    0.2788977026939392,
    -0.5482286810874939,
    0.7128050327301025,
    -1.0487499237060547,
    0.9006024599075317,
    -0.7748730778694153,
    0.3256808817386627,
    -0.3549880385398865,
    0.017526226118206978,
    -0.36973974108695984,
    0.289519727230072,
    0.8247830271720886,
    0.1256559193134308,
    0.13117599487304688,
    0.9307514429092407,
    0.7945399880409241,
    -0.014077480882406235,
    1.0624912977218628,
    0.06950977444648743,
    0.06735836714506149,
    0.347160667181015,
    -0.02299921028316021,
    0.2586931884288788,
    0.8576247096061707,
    -0.29739394783973694,
    0.36156508326530457,
    0.28407523036003113,
    -0.9631337523460388,
    -0.32253795862197876,
    -0.03611190244555473,
    0.0740303322672844,
    0.2432626485824585,
    0.6682078838348389,
    0.5254703164100647,
    0.5121734142303467,
    0.38652724027633667,
    -0.7640625834465027
  ],
  "inputBiasWeights": [
    -0.27215665578842163,
    -0.11928937584161758,
    1.030917763710022,
    1.265917420387268,
    -0.09375187009572983,
    -0.16159889101982117,
    -0.4441600441932678,
    0.1468934863805771,
    0.09914388507604599,
    -0.3361762464046478,
    1.066103219985962,
    -0.8005852103233337,
    0.32823821902275085,
    -0.8270014524459839,
    0.09526605904102325,
    -0.8194857239723206,
    0.5654276609420776,
    0.7671557664871216,
    0.5092037320137024,
    0.05812861770391464,
    0.6717656254768372,
    0.8983398079872131,
    0.7860357165336609,
    0.5555435419082642,
    0.5274327993392944,
    0.4692433476448059,
    -0.5417841076850891,
    -0.6533611416816711,
    -0.6164698004722595,
    -0.22501887381076813,
    0.757439136505127,
    -0.7406904101371765,
    0.2529844343662262,
    0.21235477924346924,
    0.2234354168176651,
    0.6611073613166809,
    -0.554451584815979,
    -0.7756332159042358,
    -0.530089795589447,
    0.517519474029541,
    0.03612687811255455,
    -0.011944194324314594,
    -0.609546422958374,
    1.0712729692459106,
    -0.5947627425193787,
    -0.9455491304397583,
    -0.2933932840824127,
    1.0206106901168823,
    0.7652558088302612,
    0.30564820766448975,
    0.17131587862968445,
    -0.21509075164794922,
    0.6952579617500305,
    0.5482447147369385,
    -0.10043931752443314,
    -0.07629518210887909,
    0.0473848357796669,
    0.1962592452764511,
    0.8849292993545532,
    0.2834269106388092,
    0.30026206374168396,
    1.1406455039978027,
    0.2991342842578888,
    -0.6147568821907043,
    0.7739902138710022,
    -0.24261130392551422,
    0.9830830693244934,
    0.635205864906311,
    0.8877652883529663,
    0.6145961880683899,
    0.33854857087135315,
    -0.0427706278860569,
    0.8772399425506592,
    0.3048599362373352,
    0.4408719837665558,
    0.7309406995773315,
    -0.005547408014535904,
    0.326131135225296,
    -0.15628601610660553,
    0.5184546113014221,
    0.5716509819030762,
    -0.1488574594259262,
    0.858385443687439,
    0.7301827669143677,
    0.3822866976261139,
    0.9910476803779602,
    1.0229634046554565
  ],
  "inputNodes": 18,
  "inputWeights": [
    -0.9255526065826416,
    -0.6980456709861755,
    -0.6916273832321167,
    0.9109874367713928,
    -0.9103173017501831,
    0.9614647030830383,
    -0.8612397909164429,
    -1.4178314208984375,
    -0.8154395222663879,
    0.4331921935081482,
    -0.22757209837436676,
    -0.6835576891899109,
    0.6056692600250244,
    -0.4017011523246765,
    -1.076993465423584,
    -0.7828922271728516,
    0.7146289348602295,
    -0.42838817834854126,
    -0.2497299462556839,
    -0.16936098039150238,
    0.39933767914772034,
    -0.38997408747673035,
    0.13353148102760315,
    -1.1792001724243164,
    1.363842248916626,
    -1.1344008445739746,
    -0.9801000952720642,
    -0.35302063822746277,
    0.10648821294307709,
    -0.9641337394714355,
    0.6130874156951904,
    -0.9289638996124268,
    0.023032035678625107,
    0.5997925400733948,
    -0.8642853498458862,
    -0.3054670989513397,
    0.21712565422058105,
    0.4532443583011627,
    0.3356183171272278,
    -0.5149848461151123,
    -1.1519604921340942,
    -0.7183886766433716,
    -0.14819635450839996,
    -0.46669983863830566,
    -0.15793271362781525,
    -0.10291538387537003,
    -1.1470099687576294,
    0.5859794616699219,
    -0.4879031479358673,
    0.1955059915781021,
    -0.09588168561458588,
    0.3073287308216095,
    0.04301555082201958,
    -1.1647626161575317,
    0.7691930532455444,
    0.0376596637070179,
    -0.762353777885437,
    -1.4489130973815918,
    0.3242409825325012,
    -0.7259697318077087,
    -0.8597898483276367,
    1.0523133277893066,
    1.0217761993408203,
    -1.1216286420822144,
    -0.3262478709220886,
    -0.1367821991443634,
    0.7887488603591919,
    0.041865210980176926,
    -0.8835111856460571,
    0.24925421178340912,
    -0.5166661143302917,
    -0.7118762135505676,
    -0.022671343758702278,
    -0.526009202003479,
    0.3418627083301544,
    -0.7603850960731506,
    0.3831471800804138,
    -0.7837462425231934,
    -0.02648933418095112,
    -0.7665707468986511,
    0.2764940559864044,
    -1.0159978866577148,
    -0.9561678171157837,
    0.2867373526096344,
    -0.01629624515771866,
    0.8709513545036316,
    0.34653034806251526,
    -0.7298398017883301,
    0.03722429275512695,
    -0.0845801830291748,
    0.49295878410339355,
    -0.1444382667541504,
    0.19997525215148926,
    0.18634915351867676,
    -0.9885058403015137,
    0.4829537868499756,
    0.11590266227722168,
    -0.12358880043029785,
    -0.2961611747741699,
    -0.0693514347076416,
    0.012098550796508789,
    0.7687668800354004,
    0.25320935249328613,
    -0.6668729782104492,
    0.2767946720123291,
    -0.8228013515472412,
    0.5026662349700928,
    -0.3179919719696045,
    -0.7557258605957031,
    0.971562385559082,
    -0.306668758392334,
    0.7542657852172852,
    0.2770237922668457,
    -0.03161478042602539,
    0.4156627655029297,
    -0.3790459632873535,
    -0.0355687141418457,
    0.25479578971862793,
    0.08546876907348633,
    -0.46839404106140137,
    -0.7660233974456787,
    -0.5655648708343506,
    0.9957027435302734,
    0.3945765495300293,
    -0.6710374355316162,
    0.7277011871337891,
    0.08624768257141113,
    -0.9880890846252441,
    0.706608772277832,
    -0.10583043098449707,
    -0.6495404243469238,
    0.44396090507507324,
    -0.9704799652099609,
    0.5194592475891113,
    0.3113210201263428,
    -0.8562135696411133,
    0.5276460647583008,
    -0.6626331806182861,
    0.5704324245452881,
    -0.5555815696716309,
    0.44287896156311035,
    0.36805272102355957,
    0.35500431060791016,
    -0.5936791896820068,
    0.4010138511657715,
    0.8208982944488525,
    -0.01103353500366211,
    0.46758031845092773,
    -0.35717272758483887,
    0.4226226806640625,
    -0.15653777122497559,
    0.05511641502380371,
    0.22124242782592773,
    0.0006704330444335938,
    0.5256850719451904,
    -0.7766766548156738,
    -0.30109238624572754,
    0.9989926815032959,
    -0.7027533054351807,
    0.6200635433197021,
    -0.9376380443572998,
    -0.2133924961090088,
    -0.5115275382995605,
    -0.6859743595123291,
    0.7984452247619629,
    0.10581016540527344,
    0.09124040603637695,
    -0.42833375930786133,
    0.14405012130737305,
    -0.7061092853546143,
    0.1144568920135498,
    0.06956958770751953,
    0.7049205303192139,
    0.11193346977233887,
    -0.6763912439346313,
    -0.7038586139678955,
    -0.11136815696954727,
    -0.0802450031042099,
    -0.9518903493881226,
    -0.9556943774223328,
    -0.2084122747182846,
    -0.1227865144610405,
    -0.0028330800123512745,
    -0.872000515460968,
    -0.584984540939331,
    -0.13723185658454895,
    0.2558532953262329,
    0.477035790681839,
    -0.5890631079673767,
    -1.090943455696106,
    0.16487003862857819,
    0.20358626544475555,
    -0.6883459687232971,
    -1.1861693859100342,
    -0.8155219554901123,
    -0.13167135417461395,
    0.37939754128456116,
    0.34799984097480774,
    0.47508785128593445,
    -0.3203253448009491,
    0.4073525071144104,
    -0.2066478431224823,
    -0.37079155445098877,
    0.5654745697975159,
    -0.768661618232727,
    -0.7676311731338501,
    -1.3284891843795776,
    0.5132234692573547,
    -0.3785758912563324,
    -0.6891116499900818,
    -1.0954413414001465,
    0.7934473752975464,
    -1.1914080381393433,
    0.34725216031074524,
    -0.4327704906463623,
    0.36637166142463684,
    -0.574146568775177,
    -0.7763877511024475,
    0.8617377877235413,
    -0.48543018102645874,
    0.5507819056510925,
    -0.10232789814472198,
    -0.5083615183830261,
    -0.05179702863097191,
    0.42620161175727844,
    0.39006584882736206,
    0.9240264892578125,
    -0.3415622115135193,
    -0.33575761318206787,
    -0.00437689945101738,
    0.45622649788856506,
    0.1561928391456604,
    0.2791614830493927,
    -1.1046433448791504,
    0.878382682800293,
    0.10825370252132416,
    0.8551937937736511,
    0.39962977170944214,
    0.148279070854187,
    0.053898315876722336,
    -0.7721373438835144,
    0.1676589399576187,
    -0.5018498301506042,
    -0.7055431604385376,
    -0.2364320009946823,
    -0.27344319224357605,
    -0.6486254334449768,
    0.2368759959936142,
    0.35546255111694336,
    -0.15951697528362274,
    0.21543115377426147,
    -0.07808570563793182,
    0.05522800609469414,
    -0.6584518551826477,
    0.1150779128074646,
    -0.3852846026420593,
    -0.0469125360250473,
    -0.5065120458602905,
    0.21390442550182343,
    1.108340859413147,
    -0.5831948518753052,
    -0.37056469917297363,
    -0.5933024883270264,
    0.6098663806915283,
    -0.1687779426574707,
    -0.15750527381896973,
    0.42795634269714355,
    0.14295673370361328,
    0.8019912242889404,
    -0.2573568820953369,
    0.6784188747406006,
    -0.15276694297790527,
    -0.720383882522583,
    0.7251815795898438,
    -0.8302686214447021,
    0.24791955947875977,
    -0.3515961170196533,
    -0.2853202819824219,
    0.7959411144256592,
    0.9970934391021729,
    -0.8651828765869141,
    0.7068140506744385,
    -0.83935546875,
    0.20205044746398926,
    -0.922224760055542,
    0.027405500411987305,
    0.44046473503112793,
    -0.8371000289916992,
    -0.8688969612121582,
    -0.9806582927703857,
    -0.4988682270050049,
    0.45795130729675293,
    0.4681730270385742,
    -0.7761664390563965,
    -0.8864076137542725,
    -0.47026562690734863,
    0.30770325660705566,
    -0.47146081924438477,
    -0.010826349258422852,
    0.7851889133453369,
    -0.8072223663330078,
    -0.4111344814300537,
    -0.897395133972168,
    -0.3886094093322754,
    0.8701870441436768,
    -0.24589252471923828,
    0.7425308227539062,
    -0.47636866569519043,
    0.08156943321228027,
    0.34890246391296387,
    -0.2299790382385254,
    -0.8067402839660645,
    -0.15364909172058105,
    0.366382360458374,
    0.3602924346923828,
    0.7696349620819092,
    -0.4321250915527344,
    0.6890952587127686,
    -0.38981080055236816,
    -0.11738944053649902,
    0.5378813743591309,
    -0.4506843090057373,
    0.15481257438659668,
    -0.13496017456054688,
    -0.9524521827697754,
    -0.6645147800445557,
    0.8138933181762695,
    0.869835615158081,
    0.5163073539733887,
    -0.5936174392700195,
    -0.27596211433410645,
    -0.21721696853637695,
    -0.47011804580688477,
    0.8701016902923584,
    -0.9966814517974854,
    -0.2384963035583496,
    0.07975888252258301,
    -0.28394055366516113,
    0.17524027824401855,
    0.19747638702392578,
    0.708359956741333,
    0.541827917098999,
    -0.31329870223999023,
    -0.407611608505249,
    0.5267467498779297,
    0.9136683940887451,
    -0.28299379348754883,
    0.10834074020385742,
    0.1784660816192627,
    -0.2526533603668213,
    0.40686607360839844,
    -0.09971141815185547,
    -0.6046569347381592,
    -0.2986629009246826,
    -0.008558273315429688,
    -0.8433659076690674,
    -0.34180212020874023,
    -0.02204108238220215,
    -0.006725311279296875,
    -0.12636899948120117,
    -0.13676071166992188,
    0.7568354606628418,
    0.9670774936676025,
    -0.07204103469848633,
    -0.5849206447601318,
    0.8155932426452637,
    -0.6649479866027832,
    0.6989753246307373,
    0.9079487323760986,
    -0.5718104839324951,
    0.23772788047790527,
    0.09267568588256836,
    -0.31777143478393555,
    0.6971161365509033,
    0.9326331615447998,
    -0.8564162254333496,
    0.11597275733947754,
    0.017004728317260742,
    0.34302186965942383,
    -0.48549818992614746,
    0.5084571838378906,
    0.6908667087554932,
    -0.2769591808319092,
    -0.7269444465637207,
    0.9056274890899658,
    0.09500432014465332,
    -0.46814584732055664,
    0.10061860084533691,
    -0.22714948654174805,
    0.49690914154052734,
    0.8258147239685059,
    -0.0465855598449707,
    0.7985713481903076,
    0.16180753707885742,
    0.3596484661102295,
    0.3315713405609131,
    -0.48755788803100586,
    -0.36152100563049316,
    0.7766451835632324,
    0.7472376823425293,
    -0.19798994064331055,
    0.26898789405822754,
    0.84783935546875,
    0.31356310844421387,
    0.3945901393890381,
    -0.20833873748779297,
    0.5390710830688477,
    -0.3074362277984619,
    -0.3974423408508301,
    0.12342667579650879,
    -0.742624044418335,
    0.7493352890014648,
    0.1823716163635254,
    -0.48192596435546875,
    -0.9101290702819824,
    0.9642846584320068,
    0.025254249572753906,
    0.4323101043701172,
    -0.6347212791442871,
    -0.8712935447692871,
    0.7804310321807861,
    0.1530923843383789,
    0.5390863418579102,
    -0.4380676746368408,
    0.24430298805236816,
    0.15273380279541016,
    -0.30913400650024414,
    0.4019627571105957,
    0.3870968818664551,
    0.23744893074035645,
    -0.6410677433013916,
    -0.31874871253967285,
    -0.7101624011993408,
    -0.6745259761810303,
    0.31871461868286133,
    -1.1682054996490479,
    0.4289422035217285,
    -0.5791275501251221,
    0.6331482529640198,
    0.10285484045743942,
    -0.945751965045929,
    -0.4443010687828064,
    -0.9005170464515686,
    -1.3267055749893188,
    -0.7611731290817261,
    -0.7532218098640442,
    -1.5716086626052856,
    -0.6423793435096741,
    -1.8747934103012085,
    -0.9518653154373169,
    0.39126917719841003,
    -0.9712235331535339,
    0.8428146839141846,
    -0.9468486905097961,
    0.9521192312240601,
    -1.383937954902649,
    -0.8052157759666443,
    0.8038041591644287,
    -0.9981909394264221,
    0.26900967955589294,
    0.603306770324707,
    -0.6582685708999634,
    -0.6035342812538147,
    -0.0065756188705563545,
    -0.7547414302825928,
    -0.956267774105072,
    0.6442671418190002,
    -0.4066729247570038,
    -0.7136657238006592,
    -0.9902527332305908,
    -0.4047548174858093,
    -0.6196722388267517,
    0.920829176902771,
    -0.10802164673805237,
    -1.525599479675293,
    -0.07352019846439362,
    0.8810939192771912,
    1.4963266849517822,
    1.1323846578598022,
    0.5740503668785095,
    -1.7757753133773804,
    -0.3590628206729889,
    -0.3494502604007721,
    -0.19383151829242706,
    1.1130154132843018,
    -0.8840906620025635,
    -0.8442184925079346,
    -0.6064688563346863,
    -0.022774487733840942,
    0.10511094331741333,
    -1.0054517984390259,
    -0.18446925282478333,
    -0.36248108744621277,
    -0.5850228667259216,
    0.8010333776473999,
    -1.4974958896636963,
    1.034852147102356,
    -0.1393948346376419,
    -0.5663638114929199,
    -0.660159170627594,
    -0.9621624946594238,
    -0.9110946655273438,
    0.12724484503269196,
    -0.039704579859972,
    0.7214213609695435,
    -0.5077931880950928,
    -0.3004108965396881,
    -0.369259238243103,
    -0.8744657039642334,
    -0.469675749540329,
    0.21048074960708618,
    0.26703527569770813,
    -0.6747029423713684,
    -1.41616690158844,
    -0.6329640746116638,
    -0.16754785180091858,
    -1.6349234580993652,
    -0.6286824941635132,
    -1.3776777982711792,
    0.747209906578064,
    1.5462403297424316,
    0.23225191235542297,
    -0.5706226825714111,
    0.03720925375819206,
    -1.0343022346496582,
    0.33588406443595886,
    -0.801870584487915,
    -0.7739225625991821,
    -0.5220057368278503,
    -0.46343809366226196,
    0.1109335795044899,
    -0.35941165685653687,
    0.47502148151397705,
    -1.017747163772583,
    -0.9851570129394531,
    0.24760423600673676,
    -0.42742201685905457,
    0.41330432891845703,
    -0.7813267707824707,
    -0.7511814832687378,
    0.05687831714749336,
    0.21514643728733063,
    -0.06494259089231491,
    -0.3347454071044922,
    -0.48655110597610474,
    -0.473633736371994,
    0.9783586859703064,
    -0.03189774975180626,
    -1.0522266626358032,
    -1.1415095329284668,
    0.34442853927612305,
    -0.3126153349876404,
    -0.4180490970611572,
    -0.9591884016990662,
    -1.351610779762268,
    0.0807841345667839,
    -1.0566747188568115,
    0.23700706660747528,
    0.5562584400177002,
    0.404338002204895,
    -0.21162740886211395,
    -0.29434478282928467,
    -0.6372756958007812,
    1.2049665451049805,
    0.942360520362854,
    1.0617291927337646,
    0.03487914800643921,
    -0.7009871602058411,
    -0.11685863882303238,
    -0.10178554803133011,
    0.7472124695777893,
    1.1546962261199951,
    -0.707781195640564,
    -1.3762447834014893,
    -0.0471053272485733,
    -0.7984350919723511,
    1.1283949613571167,
    -0.6260995864868164,
    0.21460676193237305,
    0.034248240292072296,
    0.185605987906456,
    0.638517439365387,
    -1.0849467515945435,
    1.0462249517440796,
    0.6667616963386536,
    -0.9327207803726196,
    -0.3601115345954895,
    -1.0337564945220947,
    -0.6977314352989197,
    0.36209478974342346,
    0.9694654941558838,
    0.6107531189918518,
    -0.9008452296257019,
    0.17106811702251434,
    1.0073307752609253,
    0.5480899214744568,
    0.12701332569122314,
    -0.23627232015132904,
    -0.08518458902835846,
    -0.750869631767273,
    -1.0132125616073608,
    -0.3056311011314392,
    0.12267935276031494,
    -0.6045382022857666,
    -0.035938143730163574,
    0.35395777225494385,
    0.5003532767295837,
    -0.23283959925174713,
    -0.7217376828193665,
    -0.4672682285308838,
    0.8877148628234863,
    -0.4213383197784424,
    -0.10203814506530762,
    0.10958337783813477,
    0.6206891536712646,
    0.16422104835510254,
    -0.3959834575653076,
    -0.3847949504852295,
    -0.30135011672973633,
    0.39929628372192383,
    0.5708310604095459,
    -0.754056453704834,
    0.5834324359893799,
    0.19608497619628906,
    0.5927743911743164,
    0.21194219589233398,
    -0.2756674289703369,
    0.4332253932952881,
    0.07511258125305176,
    -0.7271544933319092,
    0.1426546573638916,
    0.07152199745178223,
    0.6060519218444824,
    -0.06580996513366699,
    0.6208658218383789,
    -0.8361313343048096,
    -0.5302441120147705,
    -0.21961522102355957,
    0.9298605918884277,
    -0.8259720802307129,
    -0.5207006931304932,
    -0.9348170757293701,
    -0.3102092742919922,
    -0.06495523452758789,
    -0.2760603427886963,
    0.3067779541015625,
    0.7240250110626221,
    0.3481893539428711,
    0.9094762802124023,
    0.47570323944091797,
    -0.5817878246307373,
    0.20762228965759277,
    0.7140319347381592,
    0.23893308639526367,
    0.1989753246307373,
    0.2871105670928955,
    -0.850102424621582,
    0.9904227256774902,
    -0.40091896057128906,
    0.6515803337097168,
    0.16460347175598145,
    0.8058216571807861,
    -0.9314639568328857,
    0.12934327125549316,
    -0.8360674381256104,
    -0.851736307144165,
    -0.6259877681732178,
    0.2658555507659912,
    -0.7265808582305908,
    -0.8288116455078125,
    0.15769410133361816,
    0.294644832611084,
    -0.09703636169433594,
    0.5280661582946777,
    0.7676379680633545,
    -0.2752351760864258,
    -0.8662216663360596,
    -0.34920263290405273,
    0.5813798904418945,
    -0.18806004524230957,
    0.2785813808441162,
    0.9851405620574951,
    -0.3181161880493164,
    0.44904088973999023,
    -0.17757964134216309,
    0.29752230644226074,
    -0.9941112995147705,
    0.5722951889038086,
    -0.9391992092132568,
    0.25811243057250977,
    0.9473142623901367,
    0.1155085563659668,
    0.39723825454711914,
    -0.5339920520782471,
    -0.7988481521606445,
    0.4149513244628906,
    -0.5202012658119202,
    -0.04075177013874054,
    0.7190781235694885,
    0.009721807204186916,
    0.2359820306301117,
    0.3716202974319458,
    -0.5602375864982605,
    -0.17089109122753143,
    0.8336191773414612,
    0.4239882826805115,
    0.6372246742248535,
    0.06495234370231628,
    -0.03797898069024086,
    -1.0660836696624756,
    0.6534387469291687,
    0.43385112285614014,
    -0.5252178311347961,
    -0.6192532777786255,
    -0.3753621280193329,
    0.4374251365661621,
    0.7155815362930298,
    -0.9980949759483337,
    0.02689977176487446,
    0.7027102112770081,
    -0.7260369062423706,
    0.23280823230743408,
    -0.9185294508934021,
    -0.33203721046447754,
    -0.19047687947750092,
    0.5902165174484253,
    0.15683473646640778,
    -0.09519539773464203,
    0.4400614798069,
    -0.06429940462112427,
    0.27391839027404785,
    -0.28481337428092957,
    -1.0694379806518555,
    -0.07833626121282578,
    -0.18786704540252686,
    -0.7516469359397888,
    0.65171217918396,
    -1.50558602809906,
    -1.0586239099502563,
    0.2103545069694519,
    -0.2645568549633026,
    0.7919154167175293,
    -0.8488420248031616,
    -0.3549996018409729,
    -0.008447744883596897,
    -1.1267884969711304,
    -0.08340036869049072,
    0.3707709312438965,
    0.346445232629776,
    0.5629241466522217,
    -1.2044060230255127,
    0.3247039318084717,
    -1.2881641387939453,
    -0.7226139307022095,
    0.3230857849121094,
    -0.5676993131637573,
    0.5119642615318298,
    -1.425777554512024,
    -0.8012746572494507,
    -0.7506571412086487,
    -1.0124156475067139,
    -0.5520104765892029,
    -0.8363028764724731,
    -0.08915247023105621,
    -0.061921246349811554,
    -0.5232639312744141,
    -0.925351083278656,
    -0.2370709627866745,
    -0.7149912118911743,
    -0.8199811577796936,
    0.22308512032032013,
    -0.7521002292633057,
    -1.4717763662338257,
    0.2942117750644684,
    -0.969452977180481,
    0.4485531449317932,
    -0.4009849727153778,
    0.16967971622943878,
    0.43435245752334595,
    0.7679722905158997,
    0.0805826336145401,
    0.3232956528663635,
    0.25778108835220337,
    0.4212111532688141,
    0.5487018823623657,
    0.430436909198761,
    -0.9026026129722595,
    -0.3109303116798401,
    -0.47510018944740295,
    -0.2625768780708313,
    0.5863948464393616,
    -0.6780375838279724,
    -0.7645525336265564,
    -0.26942557096481323,
    -0.38841426372528076,
    -1.012306571006775,
    -0.40322667360305786,
    -0.2268347442150116,
    -1.3310656547546387,
    -0.4624186158180237,
    -0.7884140610694885,
    0.2524931728839874,
    0.3401569724082947,
    -0.9346173405647278,
    0.5211807489395142,
    -1.1015043258666992,
    -0.6833574771881104,
    -0.8269034624099731,
    -0.6714876294136047,
    0.11261966824531555,
    0.1728300005197525,
    0.23503105342388153,
    0.6611320972442627,
    -0.5000160336494446,
    -0.7656084299087524,
    0.1269037425518036,
    -0.3750295341014862,
    1.0197380781173706,
    -0.9979791045188904,
    0.4900168478488922,
    0.9104190468788147,
    -0.056591685861349106,
    0.17750070989131927,
    -0.03448915854096413,
    -0.3526921570301056,
    -0.6532273292541504,
    -0.8022816181182861,
    -0.0670672357082367,
    -1.045198678970337,
    -0.27728456258773804,
    -0.8521544933319092,
    -0.8153010010719299,
    -0.3984168469905853,
    -0.5613670945167542,
    0.002488096244633198,
    -1.0461539030075073,
    0.16727492213249207,
    -0.7485175132751465,
    0.013274986296892166,
    0.5585103034973145,
    -0.10678835213184357,
    -0.08807734400033951,
    0.5419394969940186,
    0.9493000507354736,
    0.20682649314403534,
    -0.8955131769180298,
    0.4072810709476471,
    0.5258354544639587,
    -0.1194702610373497,
    0.8927041292190552,
    0.7779350876808167,
    0.6762019395828247,
    0.13478033244609833,
    0.37896105647087097,
    -0.24906831979751587,
    -0.7844525575637817,
    0.5874408483505249,
    -1.266517162322998,
    0.17343410849571228,
    0.35535508394241333,
    -0.2456078827381134,
    0.67533278465271,
    0.27965375781059265,
    0.0003164764493703842,
    0.4997483491897583,
    -0.003211522474884987,
    -1.0723963975906372,
    0.17729075253009796,
    -1.0398709774017334,
    -0.3741131126880646,
    -0.8663229942321777,
    0.7631864547729492,
    0.2788362503051758,
    -0.1284496784210205,
    0.024930715560913086,
    -0.3591575622558594,
    -0.12981486320495605,
    -0.7270224094390869,
    0.6153697967529297,
    -0.30531883239746094,
    -0.16901302337646484,
    0.4350776672363281,
    0.6279888153076172,
    -0.5394814014434814,
    -0.5923082828521729,
    0.3511531352996826,
    -0.5079679489135742,
    -0.855809211730957,
    0.4498019218444824,
    0.03249931335449219,
    0.7223429679870605,
    -0.9589681625366211,
    0.17841362953186035,
    0.13969182968139648,
    -0.7126939296722412,
    0.26807475090026855,
    0.9926550388336182,
    0.37607860565185547,
    0.36919260025024414,
    0.4898519515991211,
    0.8954486846923828,
    -0.6385335922241211,
    -0.4320499897003174,
    -0.42731165885925293,
    0.3467066287994385,
    0.4230949878692627,
    -0.16585946083068848,
    0.9329750537872314,
    0.14548420906066895,
    0.652984619140625,
    -0.8503961563110352,
    -0.3365151882171631,
    -0.6634855270385742,
    0.2613546848297119,
    -0.49973273277282715,
    -0.45180726051330566,
    -0.2678835391998291,
    0.37610793113708496,
    -0.8124368190765381,
    -0.8820040225982666,
    -0.4528162479400635,
    0.2780337333679199,
    -0.07702207565307617,
    0.42812681198120117,
    0.1583569049835205,
    0.12259101867675781,
    -0.9475243091583252,
    -0.6154789924621582,
    -0.9016311168670654,
    -0.750849723815918,
    0.5199856758117676,
    0.5621540546417236,
    -0.8804547786712646,
    -0.3342571258544922,
    -0.4277637004852295,
    0.3192479610443115,
    -0.11227869987487793,
    -0.5744268894195557,
    -0.05588078498840332,
    0.9920601844787598,
    -0.9289143085479736,
    -0.4274895191192627,
    -0.021381139755249023,
    -0.6054179668426514,
    0.811589241027832,
    0.9049673080444336,
    0.748584508895874,
    -0.19790935516357422,
    -0.3567366600036621,
    -0.8279426097869873,
    0.11076140403747559,
    -0.30591607093811035,
    -0.3852262496948242,
    -0.6063461303710938,
    -0.9065423011779785,
    -0.9944517612457275,
    0.18270325660705566,
    -0.10361623764038086,
    -0.009902238845825195,
    0.7397918701171875,
    -0.6020901203155518,
    -0.17554426193237305,
    0.3584456443786621,
    -0.9333188533782959,
    -0.5348408222198486,
    -0.47130799293518066,
    -0.7992005348205566,
    -0.010330677032470703,
    0.915590763092041,
    -0.2702620029449463,
    0.5010414123535156,
    -0.8606069087982178,
    -0.48189353942871094,
    -0.24528837203979492,
    0.39589524269104004,
    0.2790565490722656,
    -0.37941908836364746,
    0.06512904167175293,
    0.7269287109375,
    0.8576638698577881,
    -0.9795944690704346,
    -0.3403801918029785,
    0.4441719055175781,
    -0.05161786079406738,
    0.13100075721740723,
    0.08783340454101562,
    0.46691203117370605,
    0.4004790782928467,
    -0.7622966766357422,
    -0.5380537509918213,
    -0.39754462242126465,
    -0.37917518615722656,
    0.07272005081176758,
    0.7908952236175537,
    0.911811351776123,
    -0.45794248580932617,
    -0.7044939994812012,
    -0.1402888298034668,
    0.5368425846099854,
    0.38263940811157227,
    0.31657886505126953,
    0.3333861827850342,
    0.8522019386291504,
    -0.9567780494689941,
    0.176133394241333,
    -0.9841775894165039,
    -0.009479761123657227,
    0.8231034278869629,
    -0.2357800006866455,
    0.39416027069091797,
    0.8129801750183105,
    0.9848158359527588,
    -0.6580302715301514,
    -0.3598361015319824,
    0.9401705265045166,
    -0.769232988357544,
    0.20379114151000977,
    -0.669166088104248,
    -0.09907960891723633,
    -0.3214282989501953,
    -0.668123722076416,
    0.04516863822937012,
    -0.24800634384155273,
    -0.7865924835205078,
    0.36330246925354004,
    0.28305602073669434,
    0.8436448574066162,
    -0.6970384120941162,
    0.6924998760223389,
    0.798943281173706,
    -0.4288320541381836,
    0.5407538414001465,
    -0.7382364273071289,
    0.5477674007415771,
    -0.49223923683166504,
    0.49280667304992676,
    0.9891605377197266,
    0.7707712650299072,
    -0.5320024490356445,
    0.6881313323974609,
    0.24364733695983887,
    0.6542019844055176,
    0.4567415714263916,
    -0.7294323444366455,
    0.2310781478881836,
    0.3927927017211914,
    -0.6651420593261719,
    -0.0042650699615478516,
    0.9338228702545166,
    0.8006439208984375,
    -0.2785327434539795,
    0.5959687232971191,
    0.17113780975341797,
    0.48869872093200684,
    -0.14302325248718262,
    -0.4059436321258545,
    0.3031325340270996,
    0.961618185043335,
    -0.24099469184875488,
    0.9567592144012451,
    -0.8422286510467529,
    0.5434355735778809,
    0.4910004138946533,
    -0.5927176475524902,
    0.5112936496734619,
    0.9552633762359619,
    -0.6712095737457275,
    0.804863691329956,
    0.2837343215942383,
    0.36125707626342773,
    -0.055309295654296875,
    0.22126460075378418,
    0.52964186668396,
    0.8623459339141846,
    -0.020882606506347656,
    -0.36545610427856445,
    0.12758994102478027,
    -0.20211482048034668,
    0.7542181015014648,
    -0.38990283012390137,
    0.6787936687469482,
    0.012274503707885742,
    -0.6091361045837402,
    0.7354335784912109,
    0.2144150733947754,
    -0.8967468738555908,
    0.7060191631317139,
    -0.8773014545440674,
    -0.6048479080200195,
    0.0014500617980957031,
    -0.22527360916137695,
    0.4480111598968506,
    -0.7207427024841309,
    -0.3679335117340088,
    0.04631400108337402,
    0.9948735237121582,
    -0.9798362255096436,
    -0.7221698760986328,
    -0.10861611366271973,
    -0.28426623344421387,
    -0.5517477989196777,
    -0.26050424575805664,
    -0.3158152103424072,
    0.37937164306640625,
    -0.263735294342041,
    0.028048992156982422,
    -0.06553125381469727,
    0.27852964401245117,
    -0.012714385986328125,
    0.6332292556762695,
    0.8813736438751221,
    0.16602873802185059,
    0.21813607215881348,
    -0.9291667938232422,
    -0.4719843864440918,
    0.896568775177002,
    0.7903003692626953,
    -0.7630107402801514,
    0.6904370784759521,
    -0.7247066497802734,
    0.08659505844116211,
    -0.1844005584716797,
    0.1166377067565918,
    -0.9485507011413574,
    0.9793767929077148,
    -0.5787348747253418,
    -0.8301355838775635,
    -0.8078017234802246,
    0.8767287731170654,
    -0.058644771575927734,
    0.8718886375427246,
    -0.18829035758972168,
    -0.6807622909545898,
    0.10139656066894531,
    -0.8767778873443604,
    0.3283884525299072,
    -0.0933384895324707,
    0.3134174346923828,
    -0.5095324516296387,
    0.22437286376953125,
    -0.7858340740203857,
    -0.16706538200378418,
    0.8034579753875732,
    -0.9319918155670166,
    -0.10211992263793945,
    -0.12504220008850098,
    -0.7471389770507812,
    0.04666280746459961,
    -0.723095178604126,
    -0.9580891132354736,
    -0.3913726806640625,
    -0.9935877323150635,
    -0.5581820011138916,
    -0.09180593490600586,
    0.5473618507385254,
    -0.6438932418823242,
    0.29437828063964844,
    -0.928131103515625,
    -0.32331228256225586,
    0.9365925788879395,
    -0.32841944694519043,
    -0.308377742767334,
    0.9129724502563477,
    0.5675876140594482,
    0.7341375350952148,
    0.18424463272094727,
    0.2328808307647705,
    0.9396271705627441,
    0.024667978286743164,
    0.32187914848327637,
    0.2897937297821045,
    -0.5462768077850342,
    -0.1186525821685791,
    -0.10610294342041016,
    0.3672163486480713,
    0.04862713813781738,
    0.5379331111907959,
    0.7573225498199463,
    0.7457423210144043,
    -0.33604955673217773,
    -0.9359290599822998,
    0.012108802795410156,
    -0.8077311515808105,
    0.1532454490661621,
    -0.19096040725708008,
    -0.5093986988067627,
    -0.24380970001220703,
    -0.40988874435424805,
    -0.699068546295166,
    0.5390071868896484,
    -0.31247901916503906,
    0.20101428031921387,
    0.3353259563446045,
    -0.2686429023742676,
    -0.5033986568450928,
    -0.406693696975708,
    0.6465840339660645,
    0.8496274948120117,
    -0.9757339954376221,
    0.026384830474853516,
    0.37653684616088867,
    0.16666030883789062,
    -0.9669275283813477,
    -0.9540252685546875,
    0.9318821430206299,
    -0.29409241676330566,
    0.5974483489990234,
    0.35210466384887695,
    -0.5874083042144775,
    -0.17527294158935547,
    0.8871409893035889,
    -0.7425782680511475,
    0.1384906768798828,
    0.3286733627319336,
    -0.5117356777191162,
    0.5130112171173096,
    0.7185170650482178,
    0.586195707321167,
    -0.14741277694702148,
    0.3516838550567627,
    0.14359498023986816,
    0.39878249168395996,
    0.04345345497131348,
    -0.383251428604126,
    0.7385444641113281,
    0.18512773513793945,
    -0.5970790386199951,
    0.36304807662963867,
    -0.8053648471832275,
    -0.827434778213501,
    -0.0967106819152832,
    -0.5377833843231201,
    0.5024080276489258,
    0.43251490592956543,
    -0.4384472370147705,
    -0.12899470329284668,
    -0.2678685188293457,
    0.5811676979064941,
    -0.6942546367645264,
    -0.7010095119476318,
    -0.887662410736084,
    0.42118096351623535,
    -0.6993241310119629,
    -0.2833225727081299,
    0.9670937061309814,
    -0.40399599075317383,
    0.06807398796081543,
    0.5905771255493164,
    0.07343816757202148,
    0.6671922206878662,
    0.1488051414489746,
    -0.4201960563659668,
    0.8746585845947266,
    0.5055439472198486,
    0.6374378204345703,
    -0.4342803955078125,
    -0.21469926834106445,
    0.012978076934814453,
    0.06431770324707031,
    0.334470272064209,
    0.4672095775604248,
    -0.10843634605407715,
    0.8852031230926514,
    -0.3663623332977295,
    -0.6037805080413818,
    0.6442563533782959,
    0.3961629867553711,
    0.41445040702819824,
    -0.3525879383087158,
    -0.43546581268310547,
    0.4336669445037842,
    0.11220860481262207,
    0.25589942932128906,
    0.718538761138916,
    0.5256929397583008,
    -0.5972340106964111,
    0.43793702125549316,
    -0.5875651836395264,
    -0.37024378776550293,
    -0.3017714023590088,
    0.4247467517852783,
    0.7206916809082031,
    -0.6579527854919434,
    0.14902901649475098,
    -0.8062710762023926,
    0.9788150787353516,
    -0.7149217128753662,
    0.5386645793914795,
    0.7000572681427002,
    -0.24995040893554688,
    0.5172512531280518,
    -0.9879992008209229,
    0.8013052940368652,
    0.40229177474975586,
    -0.6646289825439453,
    -0.8144700527191162,
    0.67508864402771,
    -0.9276828765869141,
    0.7305123805999756,
    0.9813640117645264,
    0.4519953727722168,
    -0.5338194370269775,
    -0.8944647312164307,
    -0.42738986015319824,
    -0.5412566661834717,
    -0.9318459033966064,
    -0.5729343891143799,
    0.8407797813415527,
    0.9704420566558838,
    -0.28688883781433105,
    -0.6112704277038574,
    0.2729532718658447,
    -0.2159290313720703,
    0.4121403694152832,
    -0.8137342929840088,
    -0.5213780403137207,
    -0.9611563682556152,
    0.6408722400665283,
    0.88564133644104,
    0.0375518798828125,
    0.5938541889190674,
    0.1428825855255127,
    -0.9677987098693848,
    0.7430682182312012,
    0.5421369075775146,
    -0.9945118427276611,
    -0.7034556865692139,
    0.022313356399536133,
    -0.931431770324707,
    0.47815513610839844,
    -0.48354578018188477,
    0.5421292781829834,
    -0.9417846202850342,
    0.9338569641113281,
    0.03278541564941406,
    -0.834672212600708,
    -0.44752001762390137,
    0.61287522315979,
    0.09455084800720215,
    0.3109772205352783,
    0.879033088684082,
    0.7336218357086182,
    0.5348596572875977,
    0.3458116054534912,
    -0.16530227661132812,
    -0.392719030380249,
    -0.83011794090271,
    0.3913137912750244,
    -0.17584586143493652,
    -0.006285667419433594,
    0.8759868144989014,
    0.3482792377471924,
    -0.8975608348846436,
    0.5299746990203857,
    0.28027963638305664,
    -0.9320633411407471,
    0.5751190185546875,
    -0.40403032302856445,
    -0.5758342742919922,
    0.5296928882598877,
    0.6791787147521973,
    0.2760021686553955,
    -0.02429652214050293,
    0.7846784591674805,
    -0.7780020236968994,
    -0.009612321853637695,
    -0.9397306442260742,
    0.008240222930908203,
    -0.010753154754638672,
    0.6155815124511719,
    0.7730007171630859,
    -0.4569365978240967,
    0.9779825210571289,
    0.2666432857513428,
    0.33346104621887207,
    -0.3345906734466553,
    0.9203503131866455,
    0.3312549591064453,
    -0.20469141006469727,
    0.9795784950256348,
    -0.32471394538879395,
    -0.1421947479248047,
    -0.8831121921539307,
    0.291276216506958,
    -0.6870937347412109,
    0.6385211944580078,
    0.5324029922485352,
    0.6168735027313232,
    -0.13468050956726074,
    0.6466464996337891,
    -0.20280694961547852,
    -0.2934274673461914,
    0.8240845203399658,
    0.6070125102996826,
    -0.08469104766845703,
    0.25143980979919434,
    0.9673018455505371,
    0.3498830795288086,
    0.5173835754394531,
    -0.6836211681365967,
    0.39470648765563965,
    0.27892255783081055,
    -0.2703983783721924,
    0.53961181640625,
    -0.5817868709564209,
    0.21953105926513672,
    -0.3891584873199463,
    0.36122608184814453,
    -0.30210256576538086,
    -0.5613229274749756,
    0.45741724967956543,
    0.9168148040771484,
    0.5171175003051758,
    -0.555670976638794,
    0.5968291759490967,
    -0.4001295566558838,
    0.9658393859863281,
    -0.7829105854034424,
    -0.8688886165618896,
    -0.8237898349761963,
    -0.6077761650085449,
    -0.033325910568237305,
    0.2240133285522461,
    -0.04295539855957031,
    0.7959606647491455,
    -0.5733842849731445,
    0.8502261638641357,
    -0.5830914974212646,
    -0.6453080177307129,
    -0.24569106101989746,
    -0.9256038665771484,
    0.6060190200805664,
    -0.8730757236480713,
    0.6488711833953857,
    0.31377363204956055,
    -0.013543844223022461,
    0.9957139492034912,
    -0.31163692474365234,
    0.9470100402832031,
    0.3575103282928467,
    0.5794789791107178,
    -0.19814324378967285,
    -0.5587618350982666,
    0.24352312088012695,
    -0.8173229694366455,
    -0.9547994136810303,
    -0.8596818447113037,
    -0.36161375045776367,
    -0.5660355091094971,
    0.6876599788665771,
    0.1140289306640625,
    -0.3758985996246338,
    0.5656280517578125,
    -0.9505448341369629,
    -0.022124528884887695,
    0.4347696304321289,
    0.4435722827911377,
    0.13094425201416016,
    0.7802786827087402,
    -0.7295496463775635,
    0.6250512599945068,
    -0.38359498977661133,
    -0.5714762210845947,
    0.35190868377685547,
    -0.8074347972869873,
    -0.35207653045654297,
    -0.29705214500427246,
    0.792060375213623,
    0.807858943939209,
    -0.3735389709472656,
    -0.632371187210083,
    0.730583906173706,
    -0.952817440032959,
    0.747481107711792,
    -0.3770887851715088,
    0.7654438018798828,
    0.5131149291992188,
    -0.3907017707824707,
    0.3362898826599121,
    0.052196502685546875,
    -0.8083415031433105,
    -0.7718720436096191,
    0.9857547283172607,
    -0.43764185905456543,
    0.27337026596069336,
    -0.08960723876953125,
    -0.773047685623169,
    -0.6831202507019043,
    0.6543550491333008,
    -0.5732157230377197,
    0.059075355529785156,
    0.48819613456726074,
    -0.8557593822479248,
    -0.10210943222045898,
    0.45844411849975586,
    -0.9743361473083496,
    0.43152546882629395,
    -0.6537511348724365,
    -0.7523448467254639,
    -0.6854145526885986,
    0.941979169845581,
    0.31803393363952637,
    -0.4185917377471924,
    -0.6281650066375732,
    0.831904411315918,
    0.4972095489501953,
    0.14582133293151855,
    0.010541200637817383,
    -0.7299580574035645,
    0.04864192008972168,
    0.8609611988067627,
    0.4814589023590088,
    0.5098850727081299,
    -0.6563506126403809,
    -0.8326365947723389,
    0.12013649940490723,
    0.9449059963226318,
    -0.9842233657836914,
    -0.5809948444366455,
    -0.16211867332458496,
    -0.6859288215637207,
    0.4282567501068115,
    -0.5367636680603027,
    -0.1110234260559082,
    0.07489323616027832,
    -0.7555849552154541,
    -0.9678270816802979,
    0.2640721797943115,
    -0.2937357425689697,
    0.4441945552825928,
    0.415236234664917,
    -0.939589262008667,
    0.40982627868652344,
    -0.41031742095947266,
    0.132399320602417,
    -0.9789552688598633,
    -0.7839508056640625,
    0.09492349624633789,
    -0.9946494102478027,
    0.4269447326660156,
    -0.6924867630004883,
    -0.5708158016204834,
    -0.7906074523925781,
    -0.1829688549041748,
    -0.8542165756225586,
    -0.2713756561279297,
    0.537987470626831,
    0.5874452590942383,
    -0.7435195446014404,
    0.5112550258636475,
    0.514049768447876,
    0.9007954597473145,
    -0.6471586227416992,
    -0.9503364562988281,
    -0.7159476280212402,
    0.005301713943481445,
    0.5829963684082031,
    0.7545468807220459,
    0.09358978271484375,
    0.48344898223876953,
    0.061566829681396484,
    0.8710241317749023,
    -0.3761725425720215,
    0.5884525775909424,
    -0.33315563201904297,
    -0.6143589019775391
  ],
  "outputNodes": 11,
  "outputToTypes": [
    "(Mobile - Air - Orbital) | (Structure - (Orbital - Land))",
    "(Mobile - Air - Orbital) | (Structure - (Orbital - Land))",
    "(Mobile - Air - Orbital) | (Structure - (Orbital - Land))",
    "(Mobile - Air - Orbital) | (Structure - (Orbital - Land))",
    "Mobile & AirDefense",
    "Fabber - Air - Orbital",
    "Structure & (MetalProduction | EnergyProduction)",
    "Structure & AirDefense",
    "(Structure & Defense) - Wall - AirDefense - Orbital",
    "Commander",
    ""
  ]
}