{
  "hiddenBiasWeights": [
    -1.2310187816619873,
    -0.5646300315856934,
    0.09231068938970566,
    0.05651862919330597,
    -0.6858314275741577,
    -0.9997203350067139
  ],
  "hiddenNodes": 72,
  "hiddenWeights": [
    0.3301042318344116,
    0.39577269554138184,
    -1.126853108406067,
    0.21072937548160553,
    -0.8447368741035461,
    -1.0585206747055054,
    0.6248940229415894,
    -0.46727612614631653,
    1.0605499744415283,
    0.13876672089099884,
    0.0902855321764946,
    1.2124627828598022,
    0.5868696570396423,
    0.8330962061882019,
    -0.43431568145751953,
    0.9082802534103394,
    0.13816678524017334,
    -1.045309066772461,
    0.5803436636924744,
    -0.6042357683181763,
    -0.8406228423118591,
    -0.3847140371799469,
    -1.051047444343567,
    -1.6848276853561401,
    0.7870268225669861,
    -0.4600752890110016,
    1.2032759189605713,
    0.5215649008750916,
    -0.28339266777038574,
    0.6110104918479919,
    0.39808642864227295,
    -0.10367768257856369,
    1.217221736907959,
    0.8820421695709229,
    0.6023892760276794,
    0.20511768758296967,
    -0.455242395401001,
    0.18202564120292664,
    -1.151147723197937,
    -0.7903760075569153,
    0.35083135962486267,
    0.6265736222267151,
    0.49302971363067627,
    0.6999687552452087,
    -0.5625621676445007,
    0.42152369022369385,
    -0.8424046635627747,
    -0.9271237254142761,
    0.8998074531555176,
    0.7848284840583801,
    0.9318325519561768,
    -0.06994521617889404,
    0.3152516782283783,
    0.23943659663200378,
    -0.7185828685760498,
    1.2528812885284424,
    1.0339888334274292,
    0.412921279668808,
    0.9907131791114807,
    0.22409005463123322,
    0.9158130288124084,
    -0.17287136614322662,
    -0.42138057947158813,
    0.8723711967468262,
    0.2510030269622803,
    0.30100470781326294,
    0.10580749809741974,
    0.459900438785553,
    -1.1064900159835815,
    0.6214302778244019,
    -0.40049266815185547,
    -0.8240593075752258,
    -0.6416462659835815,
    0.9930033683776855,
    -0.3835080564022064,
    0.8665670156478882,
    -0.20578816533088684,
    0.7452802658081055,
    -0.24121156334877014,
    -0.2220655381679535,
    -1.3890522718429565,
    0.7883799076080322,
    0.5030530095100403,
    -0.4307294189929962,
    0.5407574772834778,
    0.8081938624382019,
    0.48198312520980835,
    1.553339958190918,
    -0.2490062117576599,
    0.45655956864356995,
    -0.9154042601585388,
    -0.7104360461235046,
    -1.5182348489761353,
    -0.15278583765029907,
    -0.7519329190254211,
    -0.9527589082717896,
    0.7618526220321655,
    0.8580693602561951,
    0.41763442754745483,
    1.4255906343460083,
    1.0238596200942993,
    0.033483438193798065,
    -0.3579433560371399,
    0.7028620839118958,
    0.061131443828344345,
    0.22199322283267975,
    0.21818764507770538,
    -0.118800587952137,
    1.0730177164077759,
    0.22838075459003448,
    0.5325238108634949,
    0.2260308861732483,
    0.6662829518318176,
    0.9466862678527832,
    -0.07304419577121735,
    -0.04402300715446472,
    0.6251780390739441,
    -0.5235547423362732,
    0.0059292372316122055,
    -0.42971324920654297,
    0.10621386766433716,
    -0.6595661640167236,
    0.9968342781066895,
    0.36084702610969543,
    0.6650131940841675,
    0.2733626961708069,
    0.294798344373703,
    0.27279409766197205,
    0.2803579866886139,
    0.39918282628059387,
    0.047047246247529984,
    0.9330432415008545,
    -0.29031097888946533,
    0.267115980386734,
    0.9282931685447693,
    0.2767232656478882,
    -0.30358853936195374,
    -0.8463072776794434,
    -0.3505677282810211,
    -0.26301783323287964,
    1.2289668321609497,
    1.0358632802963257,
    0.07984459400177002,
    -0.4178107678890228,
    1.0478969812393188,
    -0.8342989087104797,
    0.5090471506118774,
    -0.6766444444656372,
    -0.8020552396774292,
    0.4845205545425415,
    -1.1617114543914795,
    -0.914009153842926,
    -1.4459104537963867,
    -0.7572094798088074,
    -1.0568056106567383,
    -0.35330435633659363,
    0.34515923261642456,
    -0.9378277659416199,
    -0.35314786434173584,
    0.8420003056526184,
    0.6734926700592041,
    -0.2330416887998581,
    -1.263715147972107,
    -0.5949946641921997,
    -1.2452472448349,
    -0.48347896337509155,
    -1.3985949754714966,
    -1.1862274408340454,
    1.1053649187088013,
    1.107508659362793,
    -0.2986152470111847,
    1.062700867652893,
    0.37530893087387085,
    0.9817273616790771,
    -0.19195714592933655,
    0.8636676669120789,
    0.28371888399124146,
    0.7258316278457642,
    -0.43330255150794983,
    0.5805764198303223,
    -1.0204706192016602,
    0.17559343576431274,
    -0.8122772574424744,
    -0.5305777788162231,
    -0.033180706202983856,
    -0.8457949161529541,
    -0.4847498834133148,
    -0.48020869493484497,
    -1.3086191415786743,
    -0.32029038667678833,
    -0.8324221968650818,
    -0.3796609342098236,
    -0.3282608985900879,
    -0.1532122939825058,
    0.2274521440267563,
    -0.4588504731655121,
    0.5453166961669922,
    1.022221326828003,
    0.5344088077545166,
    0.2522044777870178,
    0.6460464000701904,
    1.0136141777038574,
    0.9934643507003784,
    0.15340450406074524,
    0.7902805209159851,
    -0.5498016476631165,
    -1.2847890853881836,
    -0.04556633159518242,
    0.45727241039276123,
    -0.34322017431259155,
    -0.2950206398963928,
    -0.036747269332408905,
    -0.035069789737463,
    0.6355752348899841,
    -0.20875325798988342,
    0.798130214214325,
    -0.03207075595855713,
    -0.3829701840877533,
    -1.408751368522644,
    -0.18063467741012573,
    0.24415743350982666,
    -0.3918139338493347,
    0.3655415177345276,
    0.24099230766296387,
    -1.7333413362503052,
    -0.42948395013809204,
    -0.9166615009307861,
    -0.6058070659637451,
    0.9285640716552734,
    0.288600355386734,
    1.1805639266967773,
    0.7680486440658569,
    0.4459015130996704,
    0.5006091594696045,
    -0.8810677528381348,
    0.9627876281738281,
    -0.9622335433959961,
    -0.26922789216041565,
    0.68143630027771,
    0.26136142015457153,
    -0.6254500150680542,
    -0.5240971446037292,
    -0.007949341088533401,
    -0.8325657248497009,
    0.42765432596206665,
    0.3199571371078491,
    -0.8624475002288818,
    0.15371298789978027,
    -0.8530523180961609,
    -0.46792465448379517,
    -0.4720703661441803,
    0.9366781115531921,
    -0.2629894018173218,
    -0.36661088466644287,
    -0.37711215019226074,
    -0.6307355761528015,
    0.029066385701298714,
    0.44584816694259644,
    -0.6758143305778503,
    0.043177612125873566,
    -0.7226403951644897,
    -0.32924118638038635,
    -0.598686695098877,
    0.3262515068054199,
    0.6775856614112854,
    -0.431573748588562,
    -1.4193029403686523,
    -0.20359556376934052,
    -0.7127666473388672,
    -0.6365408897399902,
    -0.5905566811561584,
    -0.9485360383987427,
    0.016220245510339737,
    -0.1026061400771141,
    -0.7715163826942444,
    -0.5730383396148682,
    -0.759274423122406,
    -0.4982329308986664,
    -0.5441433191299438,
    0.8853364586830139,
    0.5874283909797668,
    -0.31919318437576294,
    0.8118584752082825,
    0.07794342935085297,
    -0.9084206223487854,
    0.017608391121029854,
    0.03439251333475113,
    -0.3022864758968353,
    0.9397274851799011,
    -0.02401411160826683,
    1.0244368314743042,
    -0.7067544460296631,
    0.6244934797286987,
    -0.19546985626220703,
    -0.8690311908721924,
    0.1857111155986786,
    -1.933502435684204,
    -1.372955083847046,
    -1.2507801055908203,
    -0.2639405131340027,
    0.7189613580703735,
    -0.08374670147895813,
    -1.101430058479309,
    -0.774827241897583,
    -1.443111777305603,
    -1.3179357051849365,
    0.10173632949590683,
    -1.0337285995483398,
    -1.1041637659072876,
    -0.9221228361129761,
    0.07412019371986389,
    0.4327992796897888,
    -0.16048233211040497,
    1.230795979499817,
    2.055938720703125,
    0.059204138815402985,
    1.2443873882293701,
    0.09091942012310028,
    -0.5411512851715088,
    -0.829311192035675,
    -0.8444697260856628,
    0.05685468390583992,
    -0.37542712688446045,
    -0.7849832773208618,
    -0.7038713693618774,
    0.692249596118927,
    0.3015576899051666,
    -0.2935759425163269,
    0.46430495381355286,
    0.04946891963481903,
    -0.45788341760635376,
    0.7683905363082886,
    0.3203155994415283,
    0.15165819227695465,
    1.3848910331726074,
    0.925690233707428,
    -0.9494644999504089,
    0.061626289039850235,
    -0.3726446330547333,
    0.19773590564727783,
    -0.21111056208610535,
    -0.041378989815711975,
    -0.06127626448869705,
    0.8146879076957703,
    -0.1857466697692871,
    0.5176833868026733,
    -0.2773181200027466,
    0.8180368542671204,
    0.8427576422691345,
    -0.13691246509552002,
    -0.3252764642238617,
    0.24974225461483002,
    0.8351848125457764,
    0.08761100471019745,
    -0.5984433889389038,
    -0.7153367400169373,
    -1.3764328956604004,
    0.453732967376709,
    0.21239961683750153,
    0.22010217607021332,
    0.04585376754403114,
    -0.7342833876609802,
    -0.4411157965660095,
    -0.24834981560707092,
    -0.011759031563997269,
    0.4721263647079468,
    -0.5379694104194641,
    -0.12247009575366974,
    1.0891945362091064,
    -0.4101787507534027,
    0.7908852696418762,
    0.5626252889633179,
    0.6373316645622253,
    0.8098461627960205,
    -0.2184610813856125,
    0.20488214492797852,
    0.752461314201355,
    -0.11329715698957443,
    -0.9811267256736755,
    -0.556552529335022,
    -1.3573713302612305,
    -1.2141711711883545,
    -1.6567182540893555,
    -1.6461403369903564,
    -0.8090608716011047,
    -0.22711917757987976,
    -1.664426326751709,
    -0.8874323964118958,
    -0.9055116772651672,
    -0.2578870356082916,
    -0.058421533554792404,
    -0.4805622696876526,
    -0.8982497453689575,
    -0.7076752781867981,
    0.08409034460783005,
    0.5904765725135803,
    -0.48240357637405396,
    -1.3689709901809692,
    -1.3758183717727661,
    0.38389626145362854,
    -1.7359007596969604,
    -1.0462331771850586,
    0.24505500495433807,
    -0.17210382223129272,
    0.5818151831626892,
    0.27227771282196045,
    -0.4099544286727905,
    -0.2500253915786743,
    0.05787373706698418,
    -0.5578395128250122,
    -0.6052446365356445,
    0.549774169921875,
    -0.6287862658500671,
    -0.6941601037979126,
    -1.1572604179382324,
    0.3975420892238617,
    -0.8301367163658142,
    -0.9564577341079712,
    0.3306421637535095,
    -0.6263636350631714,
    -0.35925671458244324,
    -0.6588030457496643,
    -1.0027979612350464,
    0.5117717385292053,
    -0.20759762823581696,
    -0.482247918844223,
    0.08394330739974976,
    -0.10554040223360062,
    1.3481788635253906,
    -0.07133307307958603,
    0.40507620573043823,
    0.4610496461391449
  ],
  "inputBiasWeights": [
    0.6806674599647522,
    0.3452620506286621,
    0.27820006012916565,
    -0.5555642247200012,
    -0.4061551094055176,
    0.2349584996700287,
    -0.10924621671438217,
    0.4912608861923218,
    0.7903677821159363,
    0.16919870674610138,
    1.2016125917434692,
    0.04537638649344444,
    0.9892628788948059,
    0.05771441012620926,
    0.8293342590332031,
    -0.3611884117126465,
    0.37198740243911743,
    0.778203547000885,
    -0.1409515142440796,
    0.557244598865509,
    -0.415638267993927,
    0.1351957470178604,
    0.3928918242454529,
    0.5220075845718384,
    0.7550474405288696,
    -0.22770656645298004,
    0.702282726764679,
    -0.23812678456306458,
    -0.29174700379371643,
    0.4538879096508026,
    -0.41281038522720337,
    -0.7016927599906921,
    0.11111117154359818,
    -0.007645351812243462,
    0.534035325050354,
    0.6497531533241272,
    0.5147907733917236,
    -0.05325507000088692,
    -0.09286070615053177,
    0.7909606099128723,
    0.4373428523540497,
    0.1788191795349121,
    0.7309765815734863,
    0.5969336628913879,
    0.8480340242385864,
    1.0191253423690796,
    0.7950697541236877,
    0.8109756708145142,
    0.8191781044006348,
    -0.6558470129966736,
    -0.0420411080121994,
    0.6952881217002869,
    0.15885889530181885,
    0.4791829288005829,
    -0.2892099916934967,
    0.3212994635105133,
    0.1340552717447281,
    -0.26343196630477905,
    -0.23323358595371246,
    0.2720057964324951,
    0.5723024606704712,
    0.3671140670776367,
    0.9644170999526978,
    0.9314653277397156,
    -0.20876893401145935,
    -0.048105958849191666,
    -0.5540063977241516,
    1.1845301389694214,
    0.705983579158783,
    0.43099677562713623,
    -0.04055856913328171,
    -0.1356862485408783
  ],
  "inputNodes": 18,
  "inputWeights": [
    -1.789968490600586,
    1.4433003664016724,
    -1.1544920206069946,
    -2.51877498626709,
    0.5756513476371765,
    0.5953150391578674,
    -0.930436909198761,
    -1.6644543409347534,
    0.32294201850891113,
    1.287634253501892,
    -0.18816977739334106,
    -1.8116281032562256,
    -0.34937527775764465,
    -1.3647445440292358,
    0.8552150726318359,
    -2.2698214054107666,
    0.22630400955677032,
    0.02083796262741089,
    0.7909463047981262,
    -0.31130191683769226,
    1.0182899236679077,
    -0.22832047939300537,
    -0.3710706830024719,
    -0.020416351035237312,
    -0.46588921546936035,
    -2.482020378112793,
    -0.7607409954071045,
    -2.7575201988220215,
    -0.25051432847976685,
    -0.7446220517158508,
    -0.682036280632019,
    -0.9776207804679871,
    0.43972012400627136,
    0.5013976693153381,
    -0.8524380326271057,
    -0.04567362740635872,
    -1.6116775274276733,
    -1.8676341772079468,
    1.5028181076049805,
    -0.3065458834171295,
    -0.254171758890152,
    -0.20509077608585358,
    -0.8488431572914124,
    -0.5970693826675415,
    -1.2230736017227173,
    -1.5374711751937866,
    0.058356624096632004,
    -0.2635374665260315,
    0.9478211402893066,
    -2.2700209617614746,
    -2.735159397125244,
    -0.9516065716743469,
    2.9962105751037598,
    -0.6189631223678589,
    -0.044862665235996246,
    0.5430347919464111,
    -1.0733462572097778,
    -0.6081820130348206,
    -0.4251974821090698,
    -1.0694348812103271,
    -0.9489444494247437,
    0.880524218082428,
    -0.7425578832626343,
    -3.328469753265381,
    -1.3970073461532593,
    -0.8165016770362854,
    -3.282331943511963,
    -0.8699876070022583,
    -0.7155004143714905,
    -0.5365467667579651,
    -1.2842541933059692,
    1.173932433128357,
    0.4174656867980957,
    0.8969542980194092,
    0.5043611526489258,
    0.25413966178894043,
    0.5618300437927246,
    -0.3753645420074463,
    -0.9020414352416992,
    -0.7591724395751953,
    -0.036108970642089844,
    -0.7234964370727539,
    -0.7052481174468994,
    -0.19984126091003418,
    0.4312458038330078,
    -0.12241435050964355,
    -0.9561376571655273,
    -0.5656168460845947,
    0.22823619842529297,
    0.12982869148254395,
    0.2745990753173828,
    -0.4663352966308594,
    0.4120769500732422,
    -0.5705485343933105,
    0.8702423572540283,
    0.9068350791931152,
    0.4817776679992676,
    0.6576714515686035,
    0.6261699199676514,
    -0.3948638439178467,
    -0.5486321449279785,
    -0.20480847358703613,
    0.23420429229736328,
    0.5741424560546875,
    -0.27175188064575195,
    0.8223533630371094,
    -0.8958747386932373,
    -0.7191312313079834,
    -0.6140468120574951,
    -0.014461994171142578,
    -0.8856961727142334,
    0.8065218925476074,
    0.7531716823577881,
    0.2716636657714844,
    0.6307275295257568,
    -0.8438115119934082,
    -0.5428187847137451,
    -0.48104190826416016,
    -0.4172961711883545,
    0.8694627285003662,
    -0.04413414001464844,
    -0.3779010772705078,
    -0.22940540313720703,
    -0.9136881828308105,
    0.9602513313293457,
    0.12031173706054688,
    -0.5759506225585938,
    -0.9449484348297119,
    -0.5476815700531006,
    0.7998836040496826,
    -0.7302155494689941,
    -0.49792957305908203,
    -0.28328657150268555,
    0.15151166915893555,
    0.0025784969329833984,
    0.9490194320678711,
    -0.9448754787445068,
    -0.23681020736694336,
    0.039055585861206055,
    0.8405294418334961,
    0.34140515327453613,
    -0.7896790504455566,
    -0.8386387825012207,
    0.006591796875,
    -0.02479427494108677,
    -0.5563860535621643,
    0.16628071665763855,
    0.10203534364700317,
    -0.40355023741722107,
    1.0761228799819946,
    -0.949264407157898,
    0.8045502305030823,
    0.037613462656736374,
    0.07518354058265686,
    0.06585703790187836,
    0.1952858865261078,
    -0.9908387660980225,
    -0.4366011917591095,
    -0.3937051594257355,
    -1.1108661890029907,
    0.8110540509223938,
    -0.5837340950965881,
    -1.2379162311553955,
    0.5376194715499878,
    -0.5625957250595093,
    -0.9112581610679626,
    0.9092502593994141,
    0.18737991154193878,
    0.4324474036693573,
    -1.269287347793579,
    0.16196182370185852,
    -0.8276500701904297,
    -1.3005434274673462,
    0.2438378781080246,
    -0.44462624192237854,
    -1.0144751071929932,
    -0.7634561657905579,
    -0.1781107485294342,
    -1.1180329322814941,
    -0.7068537473678589,
    -1.0778306722640991,
    -1.6222065687179565,
    0.6805676817893982,
    -1.0173572301864624,
    -1.4218780994415283,
    -1.5337435007095337,
    -0.9628281593322754,
    -0.8274520039558411,
    -1.175013780593872,
    0.34751322865486145,
    -0.7290130853652954,
    -0.18984419107437134,
    0.8703361749649048,
    -1.8198325634002686,
    -0.3351755738258362,
    -1.052230954170227,
    2.3446238040924072,
    -0.16493672132492065,
    -0.6071636080741882,
    -0.28764912486076355,
    -1.045002818107605,
    -1.280748963356018,
    -1.0372917652130127,
    -0.4021564722061157,
    -0.9885150194168091,
    0.5116665959358215,
    0.20600196719169617,
    -0.39509931206703186,
    -1.7231630086898804,
    -1.4366974830627441,
    -1.015689730644226,
    -0.9049436450004578,
    -0.5700581669807434,
    -1.1739000082015991,
    -1.2297574281692505,
    0.8103615641593933,
    -0.4347703456878662,
    0.31427764892578125,
    0.9229335784912109,
    0.2664909362792969,
    0.7889316082000732,
    0.6396558284759521,
    -0.9611258506774902,
    0.7803051471710205,
    0.04346203804016113,
    0.15393567085266113,
    0.5266761779785156,
    -0.12708640098571777,
    -0.17869782447814941,
    0.9953112602233887,
    0.3116157054901123,
    -0.5786318778991699,
    0.8299570083618164,
    -0.8815999031066895,
    0.7590103149414062,
    -0.741858959197998,
    -0.3544626235961914,
    0.898059606552124,
    0.3382298946380615,
    0.6146156787872314,
    0.13325953483581543,
    0.8499913215637207,
    0.9258415699005127,
    0.9333455562591553,
    0.04256725311279297,
    -0.7695934772491455,
    0.5389068126678467,
    0.07110333442687988,
    -0.7323703765869141,
    0.2214348316192627,
    -0.768202543258667,
    0.7672648429870605,
    0.8909709453582764,
    0.03667759895324707,
    -0.4142451286315918,
    -0.326019287109375,
    -0.5194785594940186,
    -0.4542543888092041,
    -0.32015395164489746,
    0.7489025592803955,
    0.16827821731567383,
    0.8241057395935059,
    -0.1604313850402832,
    -0.5305664539337158,
    0.9154012203216553,
    -0.2535676956176758,
    0.38648295402526855,
    0.24062657356262207,
    0.30149364471435547,
    0.7705457210540771,
    -0.06744813919067383,
    -0.2903907299041748,
    -0.2116374969482422,
    0.10070633888244629,
    0.46009182929992676,
    -0.3336923122406006,
    0.000415802001953125,
    0.4012596607208252,
    0.2910428047180176,
    0.13770198822021484,
    -0.39037489891052246,
    -0.43001294136047363,
    0.2667815685272217,
    0.6386995315551758,
    -0.46176743507385254,
    -0.06910324096679688,
    0.9542045593261719,
    -0.3103969097137451,
    -0.0866079330444336,
    0.11881470680236816,
    0.04737091064453125,
    -0.30081868171691895,
    0.31833720207214355,
    -0.45650792121887207,
    -0.49327588081359863,
    0.2323744297027588,
    -0.6043059825897217,
    0.7038004398345947,
    0.5488791465759277,
    0.23232507705688477,
    0.8932216167449951,
    -0.3113710880279541,
    -0.6736416816711426,
    0.3010988235473633,
    0.17427396774291992,
    0.7603909969329834,
    0.43558597564697266,
    -0.35475850105285645,
    0.9541733264923096,
    0.21038079261779785,
    -0.044996023178100586,
    0.6736056804656982,
    0.6085994243621826,
    0.7652311325073242,
    0.7461042404174805,
    -0.3013169765472412,
    -0.024086952209472656,
    -0.38295984268188477,
    -0.36263370513916016,
    -0.5703275203704834,
    -0.9559974670410156,
    -0.7838597297668457,
    0.5023677349090576,
    -0.6990683078765869,
    0.5737745761871338,
    -0.94683837890625,
    -0.9370229244232178,
    -0.21028566360473633,
    -0.9746711254119873,
    -0.5788073539733887,
    -0.7297167778015137,
    0.8155362606048584,
    -0.14020586013793945,
    0.8449192047119141,
    0.9526369571685791,
    0.7450177669525146,
    -0.31082606315612793,
    0.9593307971954346,
    0.44834351539611816,
    0.4214317798614502,
    0.6294238567352295,
    -0.9632244110107422,
    -0.1978452205657959,
    -0.9882240295410156,
    0.18733954429626465,
    0.502246618270874,
    0.05142664909362793,
    -0.2464001178741455,
    -0.8054933547973633,
    0.7123045921325684,
    -0.883486270904541,
    -0.3113570213317871,
    -0.5266172885894775,
    -0.20827722549438477,
    0.11788702011108398,
    -0.7950663566589355,
    -0.5041661262512207,
    0.532900333404541,
    0.7317302227020264,
    -0.7916359901428223,
    -0.8894279599189758,
    0.9294967651367188,
    -0.07585459202528,
    -1.9948387145996094,
    1.4236701726913452,
    1.039982795715332,
    -0.7655550241470337,
    -0.6244127154350281,
    0.9322218894958496,
    0.7744884490966797,
    -0.6285824179649353,
    -1.3465465307235718,
    0.22655685245990753,
    -0.8924545645713806,
    0.9346899390220642,
    -1.644257664680481,
    0.44352519512176514,
    -0.6541635990142822,
    0.4758032262325287,
    -0.6729646921157837,
    0.5903032422065735,
    0.7879281044006348,
    0.01444872934371233,
    1.4237068891525269,
    -0.4799978733062744,
    -1.028835654258728,
    -0.5993558764457703,
    -1.8250699043273926,
    0.36142441630363464,
    1.2445082664489746,
    -1.6449449062347412,
    -1.9763720035552979,
    0.1999560445547104,
    0.18130531907081604,
    -0.9182243347167969,
    -0.06667060405015945,
    -1.3329023122787476,
    -0.7010091543197632,
    0.343311607837677,
    -0.37904733419418335,
    -0.09676145762205124,
    -0.6731619834899902,
    -0.4314170479774475,
    -1.8685590028762817,
    -1.1472359895706177,
    -0.922964870929718,
    -0.15625116229057312,
    -1.5417441129684448,
    -0.22744353115558624,
    -2.0477001667022705,
    -0.9252191185951233,
    -1.0622373819351196,
    0.7576369047164917,
    -1.9366240501403809,
    0.12248091399669647,
    -0.34429946541786194,
    -0.324325293302536,
    0.5682675838470459,
    0.044880762696266174,
    -1.379813313484192,
    0.08813263475894928,
    -0.11772818118333817,
    0.42129582166671753,
    -2.074867010116577,
    -2.1211471557617188,
    -1.1533704996109009,
    -1.303896188735962,
    1.2060797214508057,
    -1.3870683908462524,
    -1.4341466426849365,
    -1.061117172241211,
    0.8307759761810303,
    0.6535124182701111,
    -2.287982225418091,
    0.8301802277565002,
    -0.7329906225204468,
    -2.278095006942749,
    -2.514418840408325,
    1.6385031938552856,
    0.6517492532730103,
    -1.6766808032989502,
    -2.2030398845672607,
    0.6904546618461609,
    1.1922650337219238,
    0.7258641123771667,
    2.0546176433563232,
    -0.7835241556167603,
    1.7381283044815063,
    -0.5219390392303467,
    -0.9460573196411133,
    -1.2260277271270752,
    -1.130141019821167,
    -1.953614592552185,
    -0.5055935978889465,
    -1.5481278896331787,
    -2.160482883453369,
    -0.7228959798812866,
    1.4777095317840576,
    -0.7810624241828918,
    0.8219346404075623,
    0.50007164478302,
    -0.151413232088089,
    -0.6776424050331116,
    -0.33558785915374756,
    -0.49379900097846985,
    -1.2614719867706299,
    1.9239650964736938,
    -0.00940156914293766,
    1.3450015783309937,
    2.2598564624786377,
    -2.728571653366089,
    1.603877305984497,
    -0.4697726368904114,
    0.7714241743087769,
    -0.1371338963508606,
    -0.8211877346038818,
    1.7247470617294312,
    -0.9979108572006226,
    0.8025022149085999,
    0.4049988389015198,
    -1.5734286308288574,
    0.951825737953186,
    -0.6035844683647156,
    -0.45299792289733887,
    -4.609334468841553,
    0.32505640387535095,
    -0.6857114434242249,
    -0.8816515207290649,
    -0.01360438670963049,
    0.18934749066829681,
    -0.43465784192085266,
    1.880994439125061,
    -0.17314545810222626,
    -1.5403872728347778,
    0.6412677764892578,
    0.052185945212841034,
    1.0415267944335938,
    -0.4196877181529999,
    -0.0613400936126709,
    -0.5901324152946472,
    0.10922785848379135,
    0.7675545811653137,
    0.09911343455314636,
    -2.268113136291504,
    -0.7959403991699219,
    -0.7576744556427002,
    -0.12003326416015625,
    -0.7220206260681152,
    0.1343545913696289,
    0.6499147415161133,
    -0.8417885303497314,
    0.09034061431884766,
    0.5312662124633789,
    -0.13314414024353027,
    0.2296760082244873,
    0.983464241027832,
    0.3722672462463379,
    -0.29328107833862305,
    0.46268320083618164,
    -0.6044394969940186,
    0.46297359466552734,
    -0.2481977939605713,
    -0.5383360385894775,
    0.24702239036560059,
    -0.8677055835723877,
    0.9683454036712646,
    -0.5415678024291992,
    -0.013827085494995117,
    -0.32921671867370605,
    0.16748261451721191,
    -0.07399463653564453,
    -0.5773670673370361,
    0.41765594482421875,
    0.4940650463104248,
    0.87689208984375,
    -0.5498781204223633,
    0.5516467094421387,
    0.915290117263794,
    0.2669985294342041,
    -0.47077155113220215,
    0.1045377254486084,
    0.8136727809906006,
    0.2212977409362793,
    0.2401738166809082,
    0.03278851509094238,
    0.924203634262085,
    0.10076713562011719,
    -0.15848064422607422,
    -0.1643388271331787,
    -0.7182111740112305,
    -0.5928459167480469,
    0.09989547729492188,
    0.34970664978027344,
    0.11730432510375977,
    -0.3793661594390869,
    -0.9138634204864502,
    0.25342297554016113,
    -0.8789529800415039,
    0.6919431686401367,
    0.09539556503295898,
    -0.8916182518005371,
    0.0773015022277832,
    -0.7783946990966797,
    -0.1403648853302002,
    0.30591487884521484,
    0.4216279983520508,
    -0.44940805435180664,
    0.01767563819885254,
    -0.12364959716796875,
    0.910651683807373,
    0.24041032791137695,
    0.8203456401824951,
    0.48447251319885254,
    0.6267125606536865,
    0.36890292167663574,
    0.13098549842834473,
    0.038445960730314255,
    -0.358684241771698,
    -1.3233911991119385,
    -0.831785261631012,
    -0.5483719110488892,
    -0.2912437617778778,
    -0.6261104345321655,
    -0.6690654754638672,
    -0.24747218191623688,
    -0.9743025302886963,
    -1.295300841331482,
    -0.3522164225578308,
    -0.3513891398906708,
    -0.8264426589012146,
    -0.6650394201278687,
    0.5107868313789368,
    -1.0548943281173706,
    -0.11152104288339615,
    -0.3519692122936249,
    -0.9152944684028625,
    -0.2916885018348694,
    -0.168076291680336,
    -1.4533940553665161,
    -0.3409580886363983,
    -1.3616654872894287,
    0.30197009444236755,
    -0.8657224774360657,
    0.8684870004653931,
    -0.2665990889072418,
    -1.0294990539550781,
    -0.6438028216362,
    -0.44943657517433167,
    -1.0033090114593506,
    -0.5530267953872681,
    -0.8340574502944946,
    -0.9499064683914185,
    0.3347625732421875,
    0.2973822057247162,
    -0.11480076611042023,
    -0.6565144658088684,
    -0.43625447154045105,
    -0.24694225192070007,
    -0.004718203563243151,
    -0.08671808987855911,
    0.0436498299241066,
    0.29727673530578613,
    -0.8179813027381897,
    -1.177622675895691,
    -0.8177837133407593,
    -0.11099962145090103,
    -0.7899582386016846,
    -0.8125064969062805,
    -1.0225932598114014,
    -0.8689504265785217,
    -1.3848423957824707,
    -0.45211395621299744,
    -0.15877775847911835,
    -0.012777005322277546,
    -0.843307375907898,
    0.2706642746925354,
    -1.077890396118164,
    -0.7829596996307373,
    -0.8124489784240723,
    0.7538341879844666,
    0.40584689378738403,
    -0.6410169005393982,
    0.2891210615634918,
    -0.011982868425548077,
    -0.6375616192817688,
    0.4086056351661682,
    -0.6427010893821716,
    -1.1076366901397705,
    -0.47685226798057556,
    -0.524240255355835,
    0.009898735210299492,
    -0.09127503633499146,
    -1.2549058198928833,
    -1.0101191997528076,
    -0.5438253879547119,
    -0.566459059715271,
    -0.7811511158943176,
    -0.48447245359420776,
    0.4223393499851227,
    -0.5609118938446045,
    -0.1799219250679016,
    -0.19683463871479034,
    -0.8529520034790039,
    -0.25280994176864624,
    -1.3381019830703735,
    -0.3331945836544037,
    -0.9107690453529358,
    -0.4637755751609802,
    -1.3765965700149536,
    -1.2900902032852173,
    -0.08067052066326141,
    -0.6545373201370239,
    -0.3566186726093292,
    -0.08392999321222305,
    -1.0402244329452515,
    -0.7161331176757812,
    -0.9686540365219116,
    -1.1379354000091553,
    -1.2345784902572632,
    -0.8731680512428284,
    -0.8182584047317505,
    -0.9292817115783691,
    0.5263971090316772,
    -0.5499166250228882,
    0.2226121425628662,
    -0.3141951858997345,
    -0.4910683035850525,
    -0.11659669131040573,
    -0.07288084924221039,
    -0.5527837872505188,
    -0.382620632648468,
    -0.18154792487621307,
    0.363827109336853,
    -0.7680745720863342,
    -0.5258298516273499,
    0.09427741169929504,
    -0.7843238115310669,
    0.5677910447120667,
    0.5919860601425171,
    0.6730625033378601,
    -0.3912094235420227,
    -0.2478969693183899,
    -0.35064807534217834,
    -0.3241979777812958,
    -0.46663063764572144,
    -1.4839271306991577,
    -0.680834174156189,
    -1.0916340351104736,
    0.2627325654029846,
    -1.0263240337371826,
    -0.6871249675750732,
    0.36531123518943787,
    0.03233763575553894,
    0.3743149936199188,
    -0.0639571100473404,
    -0.5190951228141785,
    0.09208036214113235,
    -0.5469369292259216,
    0.40661004185676575,
    -1.5167958736419678,
    0.8762838840484619,
    0.8285839557647705,
    -0.10274338722229004,
    -0.5996205806732178,
    -0.6314926147460938,
    0.3150980472564697,
    0.22078371047973633,
    0.6747207641601562,
    0.25427985191345215,
    0.5041556358337402,
    -0.1471388339996338,
    0.4999103546142578,
    0.4206349849700928,
    0.05116081237792969,
    -0.7960524559020996,
    0.5027186870574951,
    0.26749110221862793,
    0.6043896675109863,
    -0.058196067810058594,
    0.7645382881164551,
    0.7151968479156494,
    0.0947425365447998,
    -0.9081182479858398,
    -0.7831916809082031,
    0.9051105976104736,
    -0.1206369400024414,
    -0.3192465305328369,
    -0.32328295707702637,
    0.8851215839385986,
    -0.8773679733276367,
    -0.8575201034545898,
    0.8773512840270996,
    -0.08576536178588867,
    0.9229817390441895,
    0.28699421882629395,
    -0.4393794536590576,
    -0.47916626930236816,
    0.9028668403625488,
    -0.6928846836090088,
    -0.9478182792663574,
    0.8126134872436523,
    -0.021493196487426758,
    0.8088743686676025,
    0.8050405979156494,
    -0.639500617980957,
    -0.8853833675384521,
    0.4119405746459961,
    0.006607532501220703,
    0.24515676498413086,
    -0.10947155952453613,
    0.07773995399475098,
    -0.4190959930419922,
    -0.6940302848815918,
    0.240156888961792,
    -0.6802771091461182,
    -0.8890552520751953,
    -0.16350555419921875,
    -0.26250267028808594,
    -0.9746291637420654,
    0.8997323513031006,
    -0.10398292541503906,
    0.9149401187896729,
    0.7136826515197754,
    -0.28266072273254395,
    -0.8685085773468018,
    -0.2936110496520996,
    0.12677645683288574,
    -0.8082165718078613,
    0.7907280921936035,
    0.73258376121521,
    0.9645676612854004,
    0.17892909049987793,
    -0.7322428226470947,
    0.48308777809143066,
    0.9045810699462891,
    0.9644999504089355,
    0.9244778156280518,
    0.4339261054992676,
    0.029985427856445312,
    -0.030877113342285156,
    0.025780200958251953,
    -0.025183677673339844,
    -0.8233840465545654,
    0.7185940742492676,
    -0.07435917854309082,
    -0.41611742973327637,
    -0.556983470916748,
    0.345217227935791,
    -0.1013486385345459,
    0.840684175491333,
    0.6369025707244873,
    -0.50673508644104,
    0.0012326240539550781,
    -0.898059606552124,
    0.310070276260376,
    0.6610705852508545,
    -0.7124783992767334,
    -0.9289922714233398,
    0.5407905578613281,
    0.7662744522094727,
    -0.6664910316467285,
    0.6677472591400146,
    0.18657279014587402,
    -0.7013916969299316,
    0.5140249729156494,
    0.595841646194458,
    0.8967633247375488,
    -0.8666822910308838,
    -0.81892991065979,
    -0.12495231628417969,
    -0.9154453277587891,
    0.6195485591888428,
    0.896420955657959,
    0.4854748249053955,
    0.7138848304748535,
    0.9042186737060547,
    0.7886388301849365,
    -0.34308481216430664,
    -0.2839362621307373,
    -0.515040397644043,
    -0.7126154899597168,
    0.15558695793151855,
    0.3238041400909424,
    -0.10917377471923828,
    0.08368778228759766,
    -0.6512479782104492,
    -0.19441986083984375,
    -0.5445587635040283,
    0.22586870193481445,
    -0.7223398685455322,
    -0.003290891647338867,
    0.3565089702606201,
    -0.9519233703613281,
    0.266115665435791,
    0.35262346267700195,
    -0.3918612003326416,
    0.9844644069671631,
    0.6938321590423584,
    0.6069149971008301,
    -0.8206496238708496,
    0.10725975036621094,
    0.47687864303588867,
    -0.7404510974884033,
    0.2450399398803711,
    -0.6079750061035156,
    -0.3377563953399658,
    0.7162106037139893,
    -0.9043223857879639,
    0.681567907333374,
    0.7586722373962402,
    0.9935414791107178,
    0.8850064277648926,
    0.4028208255767822,
    0.3687591552734375,
    -0.6966192722320557,
    0.9859368801116943,
    0.8276255130767822,
    0.40862035751342773,
    -0.6056313514709473,
    0.22010397911071777,
    0.7663369178771973,
    -0.8741207122802734,
    0.5468316078186035,
    0.9724996089935303,
    -0.3527207374572754,
    -0.0401606559753418,
    0.4763631820678711,
    0.8863887786865234,
    0.37409520149230957,
    -0.17357921600341797,
    0.7716786861419678,
    -0.8981921672821045,
    0.06239461898803711,
    0.5031211376190186,
    -0.8963925838470459,
    0.6458802223205566,
    0.6092031002044678,
    -0.3743100166320801,
    0.9837450981140137,
    -0.33272290229797363,
    0.10435199737548828,
    0.8326749801635742,
    -0.04319047927856445,
    0.6181881427764893,
    -0.7658348083496094,
    -0.8954548835754395,
    -0.15676498413085938,
    -0.23083043098449707,
    -0.5359244346618652,
    0.5142254829406738,
    -0.6128647327423096,
    -0.5311617851257324,
    -0.06580114364624023,
    0.3265707492828369,
    -0.023213624954223633,
    -0.11826753616333008,
    0.18499517440795898,
    -0.1520090103149414,
    -0.3103981018066406,
    -0.38764166831970215,
    0.4502553939819336,
    -0.3206489086151123,
    0.9961659908294678,
    -0.5751032829284668,
    0.08674407005310059,
    -0.8070206642150879,
    -0.29651737213134766,
    0.13841032981872559,
    0.8153629302978516,
    -0.8598489761352539,
    0.5148379802703857,
    0.7736725807189941,
    0.4943692684173584,
    -0.3051884174346924,
    0.8666384220123291,
    0.750032901763916,
    0.2431931495666504,
    0.46799325942993164,
    0.8555710315704346,
    -0.4596376419067383,
    0.5754644870758057,
    0.3106834888458252,
    -0.6166021823883057,
    0.6219029426574707,
    -0.2019641399383545,
    -0.41884326934814453,
    -0.9909582138061523,
    -0.9120087623596191,
    -0.7442936897277832,
    0.2112123966217041,
    0.5717198848724365,
    -0.39621424674987793,
    0.012434005737304688,
    0.1118781566619873,
    -0.9545783996582031,
    -0.5589785575866699,
    0.6226365566253662,
    -0.42002105712890625,
    0.02019214630126953,
    0.5487043857574463,
    0.4406411647796631,
    0.6032824516296387,
    -0.9746248722076416,
    -0.2167654037475586,
    0.8731052875518799,
    0.07312798500061035,
    -0.6542661190032959,
    0.1098790168762207,
    -0.3258960247039795,
    0.024984359741210938,
    -0.07470393180847168,
    0.7282600402832031,
    -0.8288969993591309,
    0.25510644912719727,
    -0.8948841094970703,
    0.7523403167724609,
    0.32177090644836426,
    -0.3670613765716553,
    -0.14746761322021484,
    -0.8270947933197021,
    0.9247536659240723,
    0.3375561237335205,
    -0.32744431495666504,
    -0.110687255859375,
    0.8857393264770508,
    0.003820180892944336,
    0.07625532150268555,
    -0.7607858180999756,
    -0.2880110740661621,
    0.39749884605407715,
    -0.5831160545349121,
    0.513371467590332,
    0.10537457466125488,
    -0.9025685787200928,
    -0.7742941379547119,
    -0.4572412967681885,
    0.49988317489624023,
    -0.20107460021972656,
    -0.8502292633056641,
    0.5617601871490479,
    0.6491808891296387,
    0.5402889251708984,
    0.46811866760253906,
    0.7775793075561523,
    0.02830338478088379,
    0.594780445098877,
    -0.0462343692779541,
    -0.2892594337463379,
    -0.9378747940063477,
    -0.071563720703125,
    -0.407698392868042,
    -0.9722015857696533,
    -0.6223134994506836,
    -0.9734630584716797,
    0.22284793853759766,
    0.9288218021392822,
    0.6117289066314697,
    -0.7182056903839111,
    0.7120161056518555,
    0.464630126953125,
    0.7814421653747559,
    0.23981022834777832,
    -0.2384505271911621,
    0.5935862064361572,
    -0.07693719863891602,
    0.5828771591186523,
    -0.9409744739532471,
    0.3270423412322998,
    -0.9749648571014404,
    0.18056845664978027,
    0.04363536834716797,
    0.9831092357635498,
    0.08793830871582031,
    0.18151235580444336,
    -0.5114905834197998,
    0.9699804782867432,
    -0.7187604904174805,
    -0.7664334774017334,
    -0.7573752403259277,
    -0.0487368106842041,
    0.7892279624938965,
    -0.30358028411865234,
    0.5619697570800781,
    -0.17460155487060547,
    -0.6816952228546143,
    -0.6782150268554688,
    -0.9662532806396484,
    0.8892991542816162,
    -0.0751497745513916,
    -0.021207571029663086,
    0.47161054611206055,
    -0.19745731353759766,
    -0.11561393737792969,
    -0.12354850769042969,
    0.5793857574462891,
    0.8719215393066406,
    0.9113278388977051,
    -0.5109109878540039,
    -0.36391448974609375,
    -0.9865612983703613,
    -0.30066394805908203,
    -0.06387996673583984,
    0.9862706661224365,
    0.067626953125,
    0.23729753494262695,
    0.49570345878601074,
    0.9617645740509033,
    0.22407793998718262,
    0.06557273864746094,
    0.6991574764251709,
    0.39101552963256836,
    -0.25018787384033203,
    0.9509174823760986,
    0.11853551864624023,
    -0.46517467498779297,
    0.599299430847168,
    0.15988564491271973,
    -0.11539149284362793,
    -0.04220414161682129,
    -0.607043981552124,
    -0.018684864044189453,
    -0.35990238189697266,
    -0.43610453605651855,
    -0.995490550994873,
    -0.1080026626586914,
    -0.46507859230041504,
    0.8415956497192383,
    -0.9430148601531982,
    0.4589686393737793,
    0.9722621440887451,
    -0.46738147735595703,
    -0.6409313678741455,
    0.8027188777923584,
    -0.6464927196502686,
    0.20634722709655762,
    0.4152224063873291,
    0.5365667343139648,
    -0.011849403381347656,
    -0.559776782989502,
    0.9858229160308838,
    -0.782616376876831,
    0.9061436653137207,
    -0.9200072288513184,
    -0.5843617916107178,
    -0.24924445152282715,
    -0.12079644203186035,
    0.4261355400085449,
    -0.06807732582092285,
    -0.42680859565734863,
    0.9734447002410889,
    -0.8907561302185059,
    -0.7759542465209961,
    -0.8341028690338135,
    -0.44220495223999023,
    -0.4004848003387451,
    0.8380358219146729,
    -0.9908835887908936,
    0.11755561828613281,
    0.40966296195983887,
    0.11788749694824219,
    -0.20949268341064453,
    -0.2667887210845947,
    0.4835333824157715,
    -0.5003981590270996,
    -0.34917402267456055,
    0.8166971206665039,
    0.8145413398742676,
    -0.7252352237701416,
    0.515376091003418,
    -0.17275190353393555,
    -0.7242960929870605,
    -0.7787647247314453,
    -0.04117107391357422,
    0.7288734912872314,
    0.7821862697601318,
    -0.8878185749053955,
    -0.07839798927307129,
    -0.787513256072998,
    -0.5050845146179199,
    -0.24699640274047852,
    0.023825883865356445,
    0.11893272399902344,
    0.09487581253051758,
    -0.781710147857666,
    0.5540368556976318,
    0.8417708873748779,
    0.8716011047363281,
    0.18143796920776367,
    -0.6047589778900146,
    0.043409109115600586,
    -0.278364896774292,
    -0.6420960426330566,
    -0.4455597400665283,
    0.9472191333770752,
    0.9142112731933594,
    -0.32971715927124023,
    0.5609133243560791,
    0.3025398254394531,
    0.7391023635864258,
    0.874058723449707,
    0.10157155990600586,
    -0.8274595737457275,
    -0.4200563430786133,
    -0.9980769157409668,
    0.9503769874572754,
    0.3749721050262451,
    0.9468593597412109,
    -0.44866490364074707,
    -0.2853577136993408,
    0.21322202682495117,
    0.6603617668151855,
    -0.18363237380981445,
    -0.4606130123138428,
    -0.5777308940887451,
    0.6013791561126709,
    0.06343913078308105,
    -0.30681824684143066,
    0.4138679504394531,
    0.11317062377929688,
    -0.4421882629394531,
    0.9629712104797363,
    -0.27880263328552246,
    -0.8090555667877197,
    -0.17594552040100098,
    -0.20761847496032715,
    -0.48412370681762695,
    0.8093221187591553,
    0.21035194396972656,
    -0.9972896575927734,
    -0.34299135208129883,
    0.49939656257629395,
    -0.5036194324493408,
    -0.11382508277893066,
    -0.7276015281677246,
    -0.9687049388885498,
    -0.31595826148986816,
    0.6878411769866943,
    -0.9480609893798828,
    0.25247716903686523,
    -0.5760748386383057,
    -0.5527260303497314,
    -0.9381983280181885,
    0.2731795310974121,
    -0.6947894096374512,
    -0.14393186569213867,
    -0.7150373458862305,
    -0.5843315124511719,
    0.022520065307617188,
    -0.6456472873687744,
    -0.3006727695465088,
    -0.5195968151092529,
    -0.3586854934692383,
    0.41689586639404297,
    0.9734361171722412,
    -0.09364604949951172,
    -0.5301241874694824,
    0.29427194595336914,
    0.12290334701538086,
    -0.6957857608795166,
    -0.8261516094207764,
    -0.24661517143249512,
    -0.8186736106872559,
    0.008678913116455078,
    0.4984934329986572,
    -0.7641956806182861,
    -0.41019582748413086,
    -0.5196311473846436,
    0.9785821437835693,
    0.36919236183166504,
    0.43006110191345215,
    -0.7469513416290283,
    0.6031732559204102,
    0.6679728031158447,
    0.805070161819458,
    0.31551170349121094,
    -0.5848982334136963,
    0.7534241676330566,
    -0.7286369800567627,
    0.7634150981903076,
    -0.06383156776428223,
    -0.037227630615234375,
    -0.791759729385376,
    0.6532948017120361,
    0.8387355804443359,
    -0.6528246402740479,
    -0.3867213726043701,
    0.6334974765777588,
    0.8587794303894043,
    -0.5459198951721191,
    0.34004640579223633,
    0.17669224739074707,
    0.14460134506225586,
    0.2664375305175781,
    -0.5380523204803467,
    -0.8813984394073486,
    -0.16094350814819336,
    -0.8804128170013428,
    0.3212144374847412,
    -0.9225080013275146,
    -0.31308913230895996,
    0.9865591526031494,
    0.24450922012329102,
    0.35651707649230957,
    -0.5292463302612305,
    -0.7126259803771973,
    -0.9473052024841309,
    0.5502123832702637,
    0.6002094745635986,
    0.005530118942260742,
    0.7781109809875488,
    -0.6708214282989502,
    -0.6120307445526123,
    0.9059271812438965,
    0.1821444034576416,
    -0.04425811767578125,
    0.17241287231445312,
    0.8990154266357422,
    -0.8788940906524658,
    -0.14135289192199707,
    -0.47606444358825684,
    -0.22744107246398926,
    0.14217233657836914,
    -0.3106663227081299,
    0.11208271980285645,
    0.27117037773132324,
    0.06601667404174805,
    -0.8179614543914795,
    -0.22917747497558594,
    -0.5596232414245605,
    0.846259593963623,
    0.5092439651489258,
    0.09703516960144043,
    0.7997467517852783,
    0.2083597183227539,
    0.0432276725769043,
    0.5802373886108398
  ],
  "outputNodes": 6,
  "outputToTypes": [
    "Mobile & (Air | Transport)",
    "Mobile & (Air | Transport)",
    "Mobile & (Air | Transport)",
    "Mobile & (Air | Transport)",
    "Fabber & Air",
    ""
  ]
}