{
  "hiddenBiasWeights": [
    0.48351970314979553,
    -0.8372718095779419,
    0.03016965463757515,
    -0.2523575723171234,
    -1.0592197179794312,
    -0.618891716003418
  ],
  "hiddenNodes": 72,
  "hiddenWeights": [
    -0.37254369258880615,
    -0.46100881695747375,
    0.31745654344558716,
    -1.1242121458053589,
    -0.4922091066837311,
    -0.5300530195236206,
    0.3847988545894623,
    -1.1272233724594116,
    -1.075559377670288,
    -0.14448127150535583,
    -1.2072709798812866,
    -0.5936458706855774,
    0.5990970134735107,
    -0.776924729347229,
    0.6056029200553894,
    -0.12668083608150482,
    0.6211575269699097,
    -0.5298973917961121,
    0.550872802734375,
    -0.12370393425226212,
    -0.7428459525108337,
    -0.47092685103416443,
    -0.9393177032470703,
    -0.515653133392334,
    0.8436263203620911,
    0.6220674514770508,
    -0.750611424446106,
    0.4432142972946167,
    0.5396044850349426,
    0.4978516697883606,
    -0.7959988117218018,
    0.7317135334014893,
    0.11153523623943329,
    0.9804589152336121,
    0.28965815901756287,
    -0.7228679060935974,
    -0.502865731716156,
    -1.0472452640533447,
    0.019663425162434578,
    0.00333569198846817,
    0.34206992387771606,
    -0.6769846081733704,
    0.4962379038333893,
    1.0718750953674316,
    1.4189367294311523,
    1.4294612407684326,
    0.6924838423728943,
    1.5104975700378418,
    0.15800181031227112,
    -1.0400519371032715,
    0.19516193866729736,
    -0.5543165802955627,
    0.14664655923843384,
    -0.9874719977378845,
    0.7589539885520935,
    0.0048446073196828365,
    0.13895602524280548,
    0.7717335224151611,
    0.20391187071800232,
    0.4152813255786896,
    0.49096396565437317,
    -0.9647651314735413,
    -0.7434467673301697,
    0.10879545658826828,
    -0.3913821280002594,
    0.24398772418498993,
    -0.02328888513147831,
    1.1798701286315918,
    0.8916997909545898,
    0.9432869553565979,
    -0.252259761095047,
    0.9056591987609863,
    0.22988399863243103,
    -0.6136476993560791,
    -0.41904956102371216,
    -0.7784835696220398,
    -0.5915507078170776,
    -0.7022082209587097,
    -0.7513461709022522,
    0.4831414818763733,
    -0.399600088596344,
    0.5609227418899536,
    -0.662283718585968,
    0.32616549730300903,
    -0.7416766285896301,
    0.11348401755094528,
    0.7688518166542053,
    -0.4080130159854889,
    0.7434021234512329,
    -0.0881950855255127,
    -1.2037886381149292,
    -1.0206612348556519,
    -1.066462516784668,
    0.8754227757453918,
    -0.13796685636043549,
    0.04091406613588333,
    -0.6421042680740356,
    -0.8738917112350464,
    0.03515832498669624,
    0.6246652603149414,
    0.2516297996044159,
    -0.3340228497982025,
    0.5259515047073364,
    -0.10768298804759979,
    -1.1857103109359741,
    -1.0002754926681519,
    0.19377803802490234,
    -0.4080897867679596,
    -1.1038808822631836,
    -0.01605064421892166,
    -0.8761582970619202,
    -0.5189144015312195,
    -1.145102858543396,
    -0.6242318749427795,
    -0.9531322717666626,
    -0.29178106784820557,
    -0.7168785333633423,
    -1.0184975862503052,
    -0.8651641607284546,
    0.23881900310516357,
    0.5863069295883179,
    -0.1743689924478531,
    -0.5851316452026367,
    0.4493209719657898,
    -0.17445340752601624,
    -0.2940289378166199,
    0.10748365521430969,
    -0.19654034078121185,
    0.05802413448691368,
    0.4529086649417877,
    -0.45023253560066223,
    0.42442193627357483,
    0.8838092684745789,
    -0.21407672762870789,
    -0.037763457745313644,
    -0.7414032220840454,
    0.21328938007354736,
    -0.09771967679262161,
    0.02358163706958294,
    0.007082801777869463,
    0.7605903148651123,
    -0.021438440307974815,
    0.4897350072860718,
    1.3175082206726074,
    -0.5982171893119812,
    -0.7997814416885376,
    -0.03229738399386406,
    -0.0722694844007492,
    -0.7177558541297913,
    -1.1277923583984375,
    -0.9367848038673401,
    -0.4776162803173065,
    -0.20352838933467865,
    0.1983576864004135,
    -0.628814697265625,
    0.40036094188690186,
    -0.9563406109809875,
    -0.396805077791214,
    -0.1968698799610138,
    0.19265441596508026,
    0.15605740249156952,
    0.5050370097160339,
    0.046422019600868225,
    -0.7830461263656616,
    0.3163934648036957,
    -0.4836376905441284,
    0.1447795182466507,
    -0.16131223738193512,
    -0.33270034193992615,
    0.9064828753471375,
    0.7355821132659912,
    -0.20194430649280548,
    0.11143338680267334,
    1.0714836120605469,
    -0.9499463438987732,
    -0.28682640194892883,
    0.5002756118774414,
    -0.3309152126312256,
    0.3688816428184509,
    0.4040684998035431,
    -0.6271793842315674,
    -0.04462476819753647,
    -0.39943060278892517,
    -0.13108758628368378,
    0.37473440170288086,
    -0.25715282559394836,
    0.9815500378608704,
    -0.1522071659564972,
    0.049515098333358765,
    -0.47117406129837036,
    -0.29108691215515137,
    0.48709532618522644,
    -0.4213482141494751,
    0.014315099455416203,
    -0.27919453382492065,
    0.11771734058856964,
    -0.3412211835384369,
    0.3882632553577423,
    -0.0271479319781065,
    -0.8254273533821106,
    -0.6278447508811951,
    0.40502700209617615,
    -0.7875455021858215,
    -0.3019770383834839,
    0.5485563278198242,
    -0.28319504857063293,
    0.18487849831581116,
    -0.6769158244132996,
    0.8407222628593445,
    0.8379460573196411,
    0.5746747851371765,
    0.7270391583442688,
    -0.5920906066894531,
    0.31446313858032227,
    -0.6489487290382385,
    0.6959258913993835,
    -1.250362515449524,
    -0.7938218116760254,
    -1.099791407585144,
    -0.6883768439292908,
    -0.5548171997070312,
    -1.0238022804260254,
    0.9099228382110596,
    0.9061831831932068,
    0.9257580637931824,
    -0.22269859910011292,
    0.9930093288421631,
    0.3422155976295471,
    -0.25959035754203796,
    -0.8451291918754578,
    -0.26040127873420715,
    0.5475826859474182,
    -0.5180793404579163,
    -0.0819009393453598,
    0.5543584227561951,
    0.6165302991867065,
    -0.6312663555145264,
    -0.6058048009872437,
    -1.0920991897583008,
    -0.6718288064002991,
    -0.6122344136238098,
    0.2888079285621643,
    -0.18357686698436737,
    -0.24970462918281555,
    -0.325827956199646,
    -0.45989590883255005,
    -0.8068532943725586,
    0.30394524335861206,
    0.33451178669929504,
    0.5857055187225342,
    -0.07207146286964417,
    -0.07593677192926407,
    0.8600339293479919,
    0.5204436779022217,
    -0.3444688022136688,
    -0.45060309767723083,
    -0.006924755871295929,
    0.9659999012947083,
    -1.2408004999160767,
    0.44706809520721436,
    -0.7598757743835449,
    -1.043170690536499,
    -1.4287433624267578,
    -0.6793591380119324,
    -0.531980574131012,
    0.4906578063964844,
    0.07242291420698166,
    0.8062943816184998,
    0.7964895367622375,
    -0.03437027707695961,
    -0.4685125946998596,
    0.4885450005531311,
    0.11365747451782227,
    -0.05974017456173897,
    -0.4784810245037079,
    0.9070829749107361,
    0.24095338582992554,
    -0.2279691994190216,
    -0.961568295955658,
    -0.6517074704170227,
    -0.8074172735214233,
    -0.2939556837081909,
    -0.05749867856502533,
    -0.10334000736474991,
    1.0154927968978882,
    0.1349952071905136,
    0.8537408709526062,
    0.686227023601532,
    -0.7222862243652344,
    -1.0528534650802612,
    -1.1612358093261719,
    -0.3981937766075134,
    -0.33768871426582336,
    0.34530553221702576,
    0.6000908613204956,
    -0.9256545901298523,
    0.4430953562259674,
    0.7113977074623108,
    0.8162148594856262,
    -0.2456495314836502,
    -0.19016273319721222,
    0.8560467958450317,
    0.5550990700721741,
    0.9814875721931458,
    0.5382511019706726,
    0.11893932521343231,
    -0.7681179046630859,
    0.5929793119430542,
    0.6125820279121399,
    -0.7969306111335754,
    -0.19195924699306488,
    -0.23720169067382812,
    -0.7692463397979736,
    0.34206700325012207,
    0.09024856239557266,
    -0.41687026619911194,
    -0.7430610656738281,
    0.13581117987632751,
    0.897596001625061,
    0.5514106154441833,
    0.09857984632253647,
    0.7869835495948792,
    -0.682641327381134,
    -1.1111022233963013,
    0.17583326995372772,
    0.19009345769882202,
    -0.7731513381004333,
    -0.664248526096344,
    -0.1492430567741394,
    -0.4759882092475891,
    0.596961498260498,
    -0.808644711971283,
    -0.6533839702606201,
    -0.05801606550812721,
    0.023235121741890907,
    -0.7843860387802124,
    0.5857181549072266,
    0.6716747283935547,
    -1.1620128154754639,
    -0.2848023474216461,
    -0.20133166015148163,
    -0.22010546922683716,
    1.1458362340927124,
    -0.3687461018562317,
    0.6772938370704651,
    0.9921177625656128,
    -0.2207169234752655,
    0.7910729050636292,
    0.9162108302116394,
    -0.25229743123054504,
    -0.29635733366012573,
    0.7452313899993896,
    -0.04403136670589447,
    0.27359986305236816,
    0.7274237871170044,
    -0.35534611344337463,
    0.6633440852165222,
    -0.6085283160209656,
    0.502901554107666,
    0.16228589415550232,
    -0.008875887840986252,
    -0.10673052817583084,
    0.35103535652160645,
    0.7467387318611145,
    0.4998851716518402,
    -0.3206045627593994,
    -0.44765162467956543,
    -0.14022472500801086,
    0.8229541778564453,
    -0.47808781266212463,
    -0.23481859266757965,
    -0.16646432876586914,
    -0.38848385214805603,
    0.39807426929473877,
    -0.6200562119483948,
    0.15319998562335968,
    -0.5728746652603149,
    0.4638073444366455,
    -0.3709384799003601,
    0.8298666477203369,
    0.6325806975364685,
    -0.03568307310342789,
    0.6757552027702332,
    0.14204564690589905,
    -0.6688409447669983,
    -0.3033389449119568,
    -0.3897102475166321,
    -0.9930106401443481,
    0.0780634805560112,
    -0.29605740308761597,
    0.1967439204454422,
    0.8451114892959595,
    0.3608461916446686,
    -0.3256111443042755,
    -0.17354869842529297,
    -0.7059195041656494,
    -0.26192596554756165,
    -0.24920296669006348,
    -0.5098763108253479,
    -0.7679455280303955,
    -0.40340229868888855,
    0.10820429772138596,
    -0.44142574071884155,
    -0.3637767434120178,
    -1.0215367078781128,
    -1.2315380573272705,
    -0.39067748188972473,
    -0.8474878668785095,
    1.6738836765289307,
    0.5065732002258301,
    -0.4124423563480377,
    -0.11069986969232559,
    1.1873548030853271,
    -0.5287875533103943,
    0.43691545724868774,
    -0.4986802935600281,
    0.010236287489533424,
    0.7797495722770691,
    -0.9390591382980347,
    -0.2695476710796356,
    -0.020500829443335533,
    -0.47476866841316223,
    -0.055369243025779724,
    0.11355262249708176,
    -0.9463536143302917,
    -0.6805146336555481,
    -0.07144363224506378,
    0.673308789730072,
    -0.9120615124702454,
    0.4218602180480957,
    -0.12609945237636566,
    -0.005130360834300518
  ],
  "inputBiasWeights": [
    0.12673041224479675,
    -0.5545945167541504,
    0.3440765142440796,
    0.02074137143790722,
    1.0333276987075806,
    0.709189772605896,
    -0.7214130163192749,
    1.0650168657302856,
    -0.005597779061645269,
    -0.42995989322662354,
    0.8345341682434082,
    0.5773534178733826,
    -0.05926946923136711,
    0.9763056039810181,
    -0.11314140260219574,
    -0.5135883092880249,
    0.17861077189445496,
    0.527952253818512,
    0.5154849290847778,
    -0.2644692361354828,
    -0.5355689525604248,
    0.12310892343521118,
    -0.6012742519378662,
    0.6727433800697327,
    0.41818371415138245,
    0.6778945922851562,
    0.18655402958393097,
    1.1010922193527222,
    0.3529130220413208,
    0.008316374383866787,
    0.16923147439956665,
    -0.01956901326775551,
    -0.5466738939285278,
    -0.1580168902873993,
    0.7249433398246765,
    0.04762496426701546,
    0.5130016803741455,
    0.9608430862426758,
    -0.7420771718025208,
    -0.3705572485923767,
    -0.36518433690071106,
    -0.030167823657393456,
    0.9813290238380432,
    0.6173807382583618,
    -0.5363461971282959,
    0.4344080984592438,
    -0.028113052248954773,
    1.2018375396728516,
    0.6268031001091003,
    0.21515625715255737,
    1.6256426572799683,
    -0.3539506196975708,
    -0.6383470296859741,
    1.0368566513061523,
    0.10949929058551788,
    -0.003133136546239257,
    -0.33955004811286926,
    1.2861180305480957,
    0.5811037421226501,
    -0.10713616013526917,
    -0.36671683192253113,
    0.641447126865387,
    -0.17347575724124908,
    0.9025154113769531,
    0.0572689063847065,
    0.9804558157920837,
    0.5066092610359192,
    0.6936372518539429,
    -0.10523805767297745,
    0.12484119832515717,
    -0.2068345993757248,
    0.975514829158783
  ],
  "inputNodes": 18,
  "inputWeights": [
    -0.9321368932723999,
    -1.6877590417861938,
    0.4082900583744049,
    -0.7918667197227478,
    -0.5356490612030029,
    -0.8918416500091553,
    -0.9806968569755554,
    2.639376640319824,
    -0.6941457390785217,
    -0.2626049220561981,
    -0.79404616355896,
    1.4742871522903442,
    -1.6784740686416626,
    -0.9773961901664734,
    0.2544192671775818,
    -1.5007710456848145,
    -0.7432224154472351,
    -1.2660083770751953,
    -2.0492022037506104,
    -0.6206161975860596,
    -1.2059240341186523,
    -0.36367568373680115,
    0.04355615749955177,
    1.9919975996017456,
    -1.3777016401290894,
    -0.6351170539855957,
    -0.22908413410186768,
    0.416881263256073,
    0.9586171507835388,
    0.3486597537994385,
    -0.9752020239830017,
    -0.38383734226226807,
    -0.6389872431755066,
    -0.6632919907569885,
    0.17232199013233185,
    -0.6682259440422058,
    -1.865624189376831,
    1.4730243682861328,
    -1.5212689638137817,
    -1.7518119812011719,
    -1.5018359422683716,
    -0.5263440608978271,
    0.5277525186538696,
    -2.0976972579956055,
    0.1608278751373291,
    0.3048272430896759,
    -0.4560020864009857,
    1.4170451164245605,
    -0.35027366876602173,
    0.4802030026912689,
    0.05152352154254913,
    -1.178724765777588,
    -0.5440343618392944,
    -1.1921641826629639,
    -1.0744308233261108,
    -0.8797954320907593,
    -0.9043457508087158,
    0.829362690448761,
    -0.5966043472290039,
    0.9589024782180786,
    -0.2086513340473175,
    0.10785704106092453,
    -0.6445145010948181,
    0.1759905070066452,
    -1.0416797399520874,
    -0.4269731044769287,
    -0.1877201497554779,
    -1.8200421333312988,
    0.7387868165969849,
    -1.2786946296691895,
    -1.4549705982208252,
    -0.47186750173568726,
    0.9616076946258545,
    0.7685647010803223,
    0.8860206604003906,
    -0.1683032512664795,
    0.49144530296325684,
    -0.5235812664031982,
    0.9912681579589844,
    0.0447998046875,
    0.41620659828186035,
    0.6887202262878418,
    0.7363793849945068,
    0.03879094123840332,
    0.13177967071533203,
    0.9876024723052979,
    -0.8668937683105469,
    0.04026627540588379,
    -0.8840630054473877,
    -0.5455799102783203,
    0.9920666217803955,
    0.05264902114868164,
    -0.5468096733093262,
    0.32644200325012207,
    0.8855669498443604,
    0.007991552352905273,
    -0.1657102108001709,
    -0.05663037300109863,
    -0.7320654392242432,
    0.3295445442199707,
    -0.7398767471313477,
    0.21267151832580566,
    0.43888306617736816,
    -0.4479033946990967,
    0.1903238296508789,
    -0.6817612648010254,
    0.13321971893310547,
    -0.13263654708862305,
    -0.6478292942047119,
    -0.3309166431427002,
    -0.22092008590698242,
    0.17738652229309082,
    0.2884550094604492,
    0.5158779621124268,
    0.3357675075531006,
    -0.9766507148742676,
    0.20952749252319336,
    0.7304720878601074,
    -0.8106019496917725,
    -0.9469037055969238,
    0.6858103275299072,
    0.2701570987701416,
    -0.15408778190612793,
    -0.3764495849609375,
    0.4625680446624756,
    0.5063290596008301,
    0.42462754249572754,
    0.7524120807647705,
    -0.7340762615203857,
    -0.1692497730255127,
    0.8178579807281494,
    -0.4287149906158447,
    0.967186689376831,
    -0.9353573322296143,
    -0.8370876312255859,
    0.24715399742126465,
    0.7334320545196533,
    -0.6579623222351074,
    -0.7460997104644775,
    0.9289820194244385,
    0.30842089653015137,
    -0.3952903747558594,
    0.10914468765258789,
    0.9397644996643066,
    -0.36705851554870605,
    -1.136997103691101,
    -0.24736057221889496,
    -1.1709825992584229,
    0.38934949040412903,
    0.36492326855659485,
    -0.7836688160896301,
    1.0650229454040527,
    0.09742999821901321,
    -0.5245484113693237,
    -0.2936994433403015,
    -0.30905798077583313,
    0.12106514722108841,
    -0.523854672908783,
    0.7757781744003296,
    -1.194575309753418,
    -0.7693231701850891,
    -1.3211010694503784,
    0.02118610590696335,
    -1.2439414262771606,
    -0.5265401601791382,
    -0.3440952003002167,
    -0.678341805934906,
    0.8528010845184326,
    -0.19733677804470062,
    -0.6620912551879883,
    -1.574708342552185,
    -0.2849403917789459,
    0.3462361991405487,
    -0.5935470461845398,
    0.15741969645023346,
    0.3825427293777466,
    -0.7614789009094238,
    -1.3722418546676636,
    -0.8890599012374878,
    -1.2569477558135986,
    -0.062201302498579025,
    0.8601385354995728,
    -0.29255566000938416,
    -0.6691774129867554,
    -0.08230368047952652,
    -0.8379437923431396,
    -0.7601701617240906,
    0.09947951138019562,
    -0.9518258571624756,
    -1.0359315872192383,
    -1.2000941038131714,
    0.7114207744598389,
    -0.7044897079467773,
    0.1549491137266159,
    0.3748425245285034,
    -0.10242757946252823,
    -0.6099546551704407,
    0.5533427596092224,
    -0.6210144758224487,
    -0.6063556671142578,
    -0.9780372381210327,
    0.8247220516204834,
    0.09746863692998886,
    -0.6167804598808289,
    0.5230456590652466,
    -0.28669723868370056,
    -1.4863237142562866,
    0.044673070311546326,
    0.17874129116535187,
    0.3041589558124542,
    -1.2077066898345947,
    -0.9787418246269226,
    0.5824745297431946,
    -0.7181054949760437,
    -0.7924550771713257,
    -0.511569082736969,
    0.4861760139465332,
    -0.7579753398895264,
    -0.7034361362457275,
    -0.8564300537109375,
    -0.31317138671875,
    0.9282009601593018,
    0.8700642585754395,
    0.5422694683074951,
    -0.8160128593444824,
    0.7897682189941406,
    -0.5476951599121094,
    -0.6191198825836182,
    0.15755414962768555,
    0.44666624069213867,
    -0.13210248947143555,
    -0.14433979988098145,
    -0.925137996673584,
    0.6987228393554688,
    -0.9605922698974609,
    0.18101954460144043,
    0.20047259330749512,
    0.527238130569458,
    -0.830310583114624,
    -0.6290380954742432,
    -0.9788892269134521,
    -0.6402971744537354,
    -0.40004706382751465,
    0.29821205139160156,
    -0.4006807804107666,
    0.8129117488861084,
    0.44393491744995117,
    0.11407995223999023,
    0.30840396881103516,
    -0.28781819343566895,
    -0.7070724964141846,
    0.7313268184661865,
    0.12517356872558594,
    0.9779016971588135,
    0.289226770401001,
    -0.6720230579376221,
    0.9640655517578125,
    -0.321439266204834,
    0.49398207664489746,
    -0.6929402351379395,
    0.2082962989807129,
    -0.5135061740875244,
    0.9323546886444092,
    -0.18650317192077637,
    0.582369327545166,
    0.28092193603515625,
    -0.23784589767456055,
    0.1364612579345703,
    -0.7976799011230469,
    -0.8875362873077393,
    0.3011362552642822,
    0.1817028522491455,
    -0.9377479553222656,
    0.22459745407104492,
    0.05680584907531738,
    -0.07837700843811035,
    0.5378644466400146,
    0.4606654644012451,
    -0.3405921459197998,
    0.5129210948944092,
    0.12000846862792969,
    -0.6352405548095703,
    -0.6946601867675781,
    0.8919568061828613,
    -0.45778965950012207,
    0.06566500663757324,
    0.4898843765258789,
    0.6951253414154053,
    0.11083769798278809,
    -0.8185398578643799,
    0.762397289276123,
    0.7662484645843506,
    0.07165050506591797,
    0.3412818908691406,
    0.39583659172058105,
    0.4890120029449463,
    -0.3442056179046631,
    -0.2850368022918701,
    0.8360738754272461,
    0.795640230178833,
    0.04949951171875,
    0.05053353309631348,
    -0.651531457901001,
    0.058780670166015625,
    -0.645965576171875,
    0.49584269523620605,
    0.3714261054992676,
    0.17004728317260742,
    0.5608165264129639,
    -0.10851383209228516,
    -0.3492581844329834,
    -0.26471495628356934,
    -0.002986907958984375,
    0.6939082145690918,
    -0.8928587436676025,
    -0.29047727584838867,
    0.49024415016174316,
    -0.6413564682006836,
    0.3029592037200928,
    0.7962179183959961,
    0.9763083457946777,
    -0.588404655456543,
    0.8188705444335938,
    0.8134832382202148,
    -0.9525434970855713,
    0.18169355392456055,
    0.3172430992126465,
    -0.04643845558166504,
    0.6393077373504639,
    -0.62095046043396,
    -0.015308380126953125,
    -0.2110147476196289,
    0.3298983573913574,
    0.5570344924926758,
    -0.912909984588623,
    0.6215853691101074,
    -0.49282145500183105,
    0.601323127746582,
    0.8240447044372559,
    0.4822115898132324,
    -0.4696633815765381,
    -0.6409051418304443,
    -0.807795524597168,
    0.759941816329956,
    -0.05938220024108887,
    -0.9797987937927246,
    -0.5854671001434326,
    0.6233909130096436,
    -0.341428279876709,
    -0.9821550846099854,
    0.25722360610961914,
    0.9073617458343506,
    -0.3246438503265381,
    0.23137187957763672,
    0.965585470199585,
    0.4429309368133545,
    -0.45861196517944336,
    0.38187646865844727,
    0.5182981491088867,
    -0.7754364013671875,
    -0.8492262363433838,
    -0.7656827569007874,
    -0.5268816947937012,
    -0.5486289262771606,
    -0.8590568900108337,
    0.20607613027095795,
    -0.06870685517787933,
    1.7598800659179688,
    -1.0188138484954834,
    0.7582949995994568,
    -1.175879955291748,
    1.5158627033233643,
    -0.5621216893196106,
    -0.26172155141830444,
    -0.5566948056221008,
    -0.347154438495636,
    -0.5787262320518494,
    0.4154646098613739,
    -0.9157758951187134,
    -1.122036099433899,
    -0.13821937143802643,
    -0.17487429082393646,
    -0.3622722327709198,
    0.2057882845401764,
    -1.2142952680587769,
    -0.15762446820735931,
    -0.09251080453395844,
    -0.4929759204387665,
    0.4926728904247284,
    0.05153857171535492,
    -0.6509154438972473,
    -0.39736539125442505,
    0.061311494559049606,
    -0.15917238593101501,
    0.0882587730884552,
    0.32851797342300415,
    -1.3393876552581787,
    0.5775413513183594,
    0.5145741701126099,
    -0.48938891291618347,
    -0.019875410944223404,
    -0.4112045466899872,
    0.899650514125824,
    -1.306502103805542,
    0.35343408584594727,
    -0.5564903020858765,
    -1.2811298370361328,
    -0.013247708790004253,
    -1.4808435440063477,
    -0.12246806919574738,
    1.0709956884384155,
    0.4787459969520569,
    -1.1303790807724,
    -0.6388442516326904,
    -0.15624423325061798,
    -0.6128271818161011,
    -0.5551374554634094,
    0.82425856590271,
    -0.2686227858066559,
    0.4133913815021515,
    -0.7178773880004883,
    0.13299794495105743,
    0.32048237323760986,
    -0.27294397354125977,
    -1.086979866027832,
    0.20002144575119019,
    -0.30918240547180176,
    -0.82229083776474,
    0.18830606341362,
    -0.1422162652015686,
    0.6940365433692932,
    -0.7023693323135376,
    -0.3932957649230957,
    1.121709942817688,
    -0.7166938781738281,
    -1.1248000860214233,
    0.5128799080848694,
    -0.05607360228896141,
    -0.14656329154968262,
    -0.989523708820343,
    -0.6190052628517151,
    -0.6230605840682983,
    0.23399104177951813,
    -0.74824059009552,
    0.21072308719158173,
    -0.051257096230983734,
    -0.8232097625732422,
    0.9727069139480591,
    -0.8459923267364502,
    -0.11356394737958908,
    -1.1320393085479736,
    -0.4766369163990021,
    -0.0892227366566658,
    0.5351415276527405,
    -0.41417497396469116,
    0.014447749592363834,
    -1.283310055732727,
    0.33752235770225525,
    -0.016428973525762558,
    -0.30365970730781555,
    -0.19608883559703827,
    -1.3033095598220825,
    -0.6555097699165344,
    0.38488224148750305,
    0.7610726356506348,
    0.20859970152378082,
    -0.06523460149765015,
    -0.6092102527618408,
    0.5582574605941772,
    -1.0393602848052979,
    0.1153075248003006,
    -0.5972992181777954,
    -0.6994551420211792,
    0.5743984580039978,
    -0.7149019837379456,
    -0.4421311020851135,
    -0.04029272124171257,
    -0.07523238658905029,
    -0.28410813212394714,
    -1.0277116298675537,
    0.8883264660835266,
    -0.6700831651687622,
    0.21417853236198425,
    -1.0415294170379639,
    -0.8893287777900696,
    0.8578954339027405,
    -0.6308683753013611,
    0.7883784770965576,
    1.3239575624465942,
    0.1107189953327179,
    0.8305530548095703,
    -0.6699733138084412,
    -0.6311987042427063,
    -0.9419015049934387,
    0.002197504276409745,
    -0.9095671772956848,
    0.20471666753292084,
    -0.923957347869873,
    -0.5282909274101257,
    -0.25858333706855774,
    0.724369466304779,
    -0.23314277827739716,
    -0.12205629050731659,
    0.6099815368652344,
    -0.003584623336791992,
    0.8154635429382324,
    0.4385671615600586,
    -0.8803164958953857,
    0.8736209869384766,
    -0.8797366619110107,
    -0.3599090576171875,
    0.42026519775390625,
    -0.11596894264221191,
    -0.981806755065918,
    -0.24358630180358887,
    0.17270565032958984,
    0.5580673217773438,
    0.9869096279144287,
    -0.14124298095703125,
    0.3800365924835205,
    -0.6647412776947021,
    -0.437880277633667,
    0.7772388458251953,
    -0.38036632537841797,
    -0.9264512062072754,
    -0.49833202362060547,
    -0.7444875240325928,
    -0.7365732192993164,
    -0.8669025897979736,
    -0.4330737590789795,
    -0.4024202823638916,
    0.22675490379333496,
    0.6591305732727051,
    -0.9880552291870117,
    -0.14571022987365723,
    0.0742335319519043,
    -0.3438265323638916,
    -0.22705078125,
    -0.5855808258056641,
    -0.5648632049560547,
    0.5454981327056885,
    0.2990853786468506,
    0.5482628345489502,
    -0.2710402011871338,
    -0.8276433944702148,
    -0.9313814640045166,
    0.8825068473815918,
    0.4888794422149658,
    -0.2417912483215332,
    -0.5610272884368896,
    -0.6651885509490967,
    -0.0380098819732666,
    0.2951321601867676,
    -0.31802845001220703,
    0.13443350791931152,
    -0.16741108894348145,
    -0.20492291450500488,
    -0.5676131248474121,
    -0.8506040573120117,
    -0.7341969013214111,
    0.20560765266418457,
    0.02228569984436035,
    0.00498652458190918,
    -0.1320171356201172,
    0.14254069328308105,
    -0.7673451900482178,
    0.7417171001434326,
    -0.4393634796142578,
    -0.6049199104309082,
    0.34017109870910645,
    -0.20268964767456055,
    -0.23537230491638184,
    0.8162181377410889,
    0.1593472957611084,
    -0.2839009761810303,
    0.015246868133544922,
    0.05511543154716492,
    0.973125696182251,
    -0.5212771892547607,
    -0.007704963907599449,
    -1.1547712087631226,
    0.03627742826938629,
    -0.990147590637207,
    -0.8386280536651611,
    -0.4571417570114136,
    -0.39515894651412964,
    -0.7964102029800415,
    -0.28601181507110596,
    0.3310195505619049,
    0.1462281495332718,
    -0.5503329038619995,
    -0.5307258367538452,
    0.2545303404331207,
    0.1788780689239502,
    -0.2830444276332855,
    -0.5550655722618103,
    -0.11776061356067657,
    -1.6265161037445068,
    -0.7229812145233154,
    -1.7240235805511475,
    0.16065208613872528,
    -0.7567030787467957,
    0.31738749146461487,
    -1.1001160144805908,
    -0.9538374543190002,
    -0.8291556239128113,
    0.011570021510124207,
    -1.4718644618988037,
    -0.9472001194953918,
    -0.5046977400779724,
    -0.9951344132423401,
    -0.4696625769138336,
    0.8202341794967651,
    -0.7527413368225098,
    -1.4116705656051636,
    0.484775185585022,
    -0.822431206703186,
    -0.6721476316452026,
    -0.9632654786109924,
    -0.6787501573562622,
    -1.0143810510635376,
    -0.5446476936340332,
    -0.7756331562995911,
    -1.3301670551300049,
    -0.3119344413280487,
    -1.3460679054260254,
    -0.7492667436599731,
    -0.25712984800338745,
    -0.9413217306137085,
    -0.37080153822898865,
    -0.08411303162574768,
    -0.6116140484809875,
    -0.45595088601112366,
    -1.2404367923736572,
    0.0018505685729905963,
    -1.0497478246688843,
    -1.0845463275909424,
    -0.607555091381073,
    -0.8913314342498779,
    0.03774521127343178,
    -0.9777224063873291,
    -0.5899906754493713,
    -0.5653948187828064,
    1.1300123929977417,
    -0.32495322823524475,
    0.04716606065630913,
    -0.3442874252796173,
    -0.6438872218132019,
    -0.5037729740142822,
    -0.6602129936218262,
    -0.873171329498291,
    -0.9535474181175232,
    -0.2846100330352783,
    -0.941072940826416,
    -0.5041370391845703,
    -1.5484694242477417,
    -0.1588612198829651,
    -1.126581072807312,
    0.3167741000652313,
    -1.4106043577194214,
    -1.0744209289550781,
    -0.3766801357269287,
    -1.6770402193069458,
    0.06893322616815567,
    -0.5815531015396118,
    -0.28804007172584534,
    0.11522756516933441,
    -0.04154297709465027,
    -1.15227472782135,
    -0.059580687433481216,
    -0.8229405879974365,
    -1.075664758682251,
    0.23489494621753693,
    -0.04860055446624756,
    -0.5006689429283142,
    0.17897184193134308,
    -1.8846322298049927,
    -0.15735198557376862,
    -1.0323412418365479,
    -0.7976458072662354,
    -0.9670748114585876,
    -0.20766279101371765,
    0.017422223463654518,
    -0.32214006781578064,
    -0.36756235361099243,
    -0.8177703619003296,
    -0.4432756006717682,
    -1.1785647869110107,
    -0.2369040697813034,
    -1.2350894212722778,
    -0.8615687489509583,
    0.6004621982574463,
    -1.1125179529190063,
    -0.3191587030887604,
    -0.06400824338197708,
    -0.17916999757289886,
    -0.17741473019123077,
    -0.26568979024887085,
    -0.4371906816959381,
    -0.7591780424118042,
    -0.5520380735397339,
    -0.2388625591993332,
    -0.7185969948768616,
    0.01087699644267559,
    -0.40286001563072205,
    -0.5353508591651917,
    -0.9645666480064392,
    -0.9703133702278137,
    -0.6267909407615662,
    -0.7325651049613953,
    0.21850062906742096,
    -0.7054682970046997,
    -0.04350900277495384,
    0.061008159071207047,
    0.014216593466699123,
    1.1091748476028442,
    -0.1202305480837822,
    -0.47318461537361145,
    -0.4604661762714386,
    0.10373185575008392,
    0.6367373466491699,
    0.2477259635925293,
    -0.5203585624694824,
    0.19025278091430664,
    -0.8611266613006592,
    0.20995259284973145,
    0.7087874412536621,
    0.024794578552246094,
    0.08902716636657715,
    0.42529773712158203,
    0.7488994598388672,
    0.12977981567382812,
    0.13404488563537598,
    -0.5771584510803223,
    0.40027761459350586,
    -0.23523521423339844,
    -0.013172626495361328,
    0.5810592174530029,
    -0.8045120239257812,
    0.05977058410644531,
    0.8530571460723877,
    0.36010003089904785,
    0.11779499053955078,
    0.4496021270751953,
    -0.3342738151550293,
    -0.5276787281036377,
    -0.8727941513061523,
    -0.537299633026123,
    -0.14714765548706055,
    0.24734759330749512,
    -0.9467382431030273,
    0.5936620235443115,
    -0.05899310111999512,
    0.1125173568725586,
    -0.24451255798339844,
    -0.39912843704223633,
    0.18294310569763184,
    0.2225816249847412,
    0.14781475067138672,
    0.5429658889770508,
    -0.7411513328552246,
    0.9770424365997314,
    -0.4064791202545166,
    0.7201189994812012,
    0.32698798179626465,
    -0.6000137329101562,
    -0.9633498191833496,
    -0.3857736587524414,
    0.32182884216308594,
    -0.20662713050842285,
    0.13637137413024902,
    -0.4565927982330322,
    -0.3023500442504883,
    0.0644221305847168,
    0.3463923931121826,
    0.39749622344970703,
    -0.04571127891540527,
    -0.0397343635559082,
    0.9069554805755615,
    0.8531975746154785,
    0.4028618335723877,
    -0.7208352088928223,
    0.19496989250183105,
    -0.9987328052520752,
    -0.5176584720611572,
    -0.386228084564209,
    0.7131941318511963,
    -0.30352783203125,
    0.35242605209350586,
    0.3929479122161865,
    -0.876410722732544,
    0.6360278129577637,
    0.3538703918457031,
    0.9677672386169434,
    -0.48206186294555664,
    -0.28635215759277344,
    -0.2345600128173828,
    0.413776159286499,
    0.11221837997436523,
    -0.28443241119384766,
    -0.5860540866851807,
    0.09380221366882324,
    0.8556110858917236,
    -0.08160901069641113,
    -0.5708255767822266,
    0.528407096862793,
    0.23686456680297852,
    -0.5076749324798584,
    -0.45917272567749023,
    0.24933362007141113,
    0.2306220531463623,
    0.02405071258544922,
    -0.7946901321411133,
    0.620084285736084,
    -0.4146151542663574,
    -0.5967295169830322,
    0.9784204959869385,
    -0.4859597682952881,
    0.40778183937072754,
    0.4034435749053955,
    -0.034780263900756836,
    0.5168735980987549,
    -0.5335688591003418,
    0.645197868347168,
    -0.2958855628967285,
    0.4263923168182373,
    0.9264864921569824,
    0.39499926567077637,
    -0.28456950187683105,
    0.43579530715942383,
    0.7057948112487793,
    0.19009852409362793,
    0.40462398529052734,
    -0.2059314250946045,
    -0.0900583267211914,
    -0.8790497779846191,
    0.28221869468688965,
    -0.6137135028839111,
    -0.09310698509216309,
    -0.9392862319946289,
    0.45259618759155273,
    0.7727005481719971,
    -0.7226688861846924,
    0.7872540950775146,
    -0.907172441482544,
    -0.388469934463501,
    -0.5422573089599609,
    0.6209478378295898,
    0.4518866539001465,
    0.6575171947479248,
    -0.2248854637145996,
    -0.8735530376434326,
    -0.308835506439209,
    -0.9203271865844727,
    0.9251506328582764,
    -0.9638643264770508,
    0.9294693470001221,
    -0.28048181533813477,
    -0.4560527801513672,
    0.4624311923980713,
    -0.8792381286621094,
    0.6926102638244629,
    0.8571374416351318,
    -0.7303178310394287,
    -0.7056069374084473,
    0.7542366981506348,
    0.9063272476196289,
    -0.9444854259490967,
    0.813694953918457,
    0.4609353542327881,
    0.39124441146850586,
    -0.32002830505371094,
    0.6308801174163818,
    -0.06229257583618164,
    0.029010295867919922,
    -0.40323781967163086,
    -0.38463687896728516,
    0.7681841850280762,
    0.2901630401611328,
    0.6931841373443604,
    0.23330044746398926,
    0.014367103576660156,
    -0.2889285087585449,
    -0.618704080581665,
    0.5098402500152588,
    -0.01644277572631836,
    0.44803905487060547,
    0.6920185089111328,
    -0.9561543464660645,
    0.5874466896057129,
    -0.35373616218566895,
    -0.9611775875091553,
    -0.8936803340911865,
    -0.3310973644256592,
    -0.36360645294189453,
    0.44769716262817383,
    0.5359451770782471,
    -0.7546496391296387,
    0.19576454162597656,
    -0.5938129425048828,
    -0.6206676959991455,
    -0.25057411193847656,
    0.6930022239685059,
    -0.05234098434448242,
    -0.37073254585266113,
    -0.0507657527923584,
    -0.3374035358428955,
    0.764415979385376,
    -0.310605525970459,
    0.565821647644043,
    -0.6507434844970703,
    0.7942085266113281,
    0.730341911315918,
    -0.16374850273132324,
    -0.02358698844909668,
    0.860292911529541,
    0.46514153480529785,
    0.9307940006256104,
    0.0604395866394043,
    -0.9147653579711914,
    0.42734360694885254,
    0.5881226062774658,
    -0.591742753982544,
    0.01882171630859375,
    0.5736708641052246,
    -0.9636526107788086,
    -0.42301249504089355,
    0.6088013648986816,
    -0.797271728515625,
    -0.34560441970825195,
    0.3890349864959717,
    -0.101806640625,
    -0.5522546768188477,
    -0.9690210819244385,
    0.8181817531585693,
    -0.7621927261352539,
    -0.6658039093017578,
    -0.13518404960632324,
    0.638941764831543,
    0.23682355880737305,
    0.3703899383544922,
    0.16418933868408203,
    -0.8363456726074219,
    -0.30426025390625,
    0.49999380111694336,
    0.12927794456481934,
    0.47345399856567383,
    0.8167524337768555,
    0.9459562301635742,
    -0.8410735130310059,
    0.34459733963012695,
    -0.3089163303375244,
    -0.4910101890563965,
    0.7720141410827637,
    0.8983831405639648,
    0.24955391883850098,
    0.5254356861114502,
    -0.11106729507446289,
    -0.07112932205200195,
    0.8075509071350098,
    0.967536211013794,
    -0.12688398361206055,
    0.7151362895965576,
    0.5565836429595947,
    -0.16904044151306152,
    -0.5181703567504883,
    -0.2103407382965088,
    0.011658191680908203,
    -0.19137144088745117,
    -0.5383906364440918,
    0.1995840072631836,
    -0.5073459148406982,
    -0.7597618103027344,
    -0.35108423233032227,
    -0.18032097816467285,
    0.8253087997436523,
    -0.46849942207336426,
    -0.9309437274932861,
    0.0230863094329834,
    0.3226461410522461,
    0.7793629169464111,
    -0.1147317886352539,
    0.2859656810760498,
    -0.1403355598449707,
    -0.15474367141723633,
    0.46369147300720215,
    -0.24196624755859375,
    0.3788151741027832,
    -0.7697434425354004,
    0.47876954078674316,
    -0.2593679428100586,
    -0.9829037189483643,
    0.16728830337524414,
    0.5560574531555176,
    -0.5110845565795898,
    -0.27360987663269043,
    0.8108005523681641,
    -0.2794983386993408,
    -0.17986702919006348,
    -0.30580782890319824,
    -0.9434182643890381,
    -0.015626907348632812,
    0.8678493499755859,
    -0.18838167190551758,
    0.12446188926696777,
    0.5308222770690918,
    -0.06998419761657715,
    0.5050148963928223,
    -0.8005695343017578,
    -0.7352044582366943,
    0.71750807762146,
    -0.04513287544250488,
    -0.4122779369354248,
    0.009016990661621094,
    0.3344285488128662,
    -0.8812577724456787,
    -0.02419734001159668,
    -0.15648412704467773,
    -0.3903994560241699,
    0.7520813941955566,
    0.46189188957214355,
    -0.5830481052398682,
    0.913379430770874,
    -0.5040745735168457,
    -0.016929149627685547,
    -0.17976593971252441,
    -0.09413003921508789,
    -0.4385361671447754,
    -0.3045027256011963,
    0.009506464004516602,
    -0.2830817699432373,
    0.3361482620239258,
    0.4987356662750244,
    0.5132489204406738,
    -0.5145523548126221,
    -0.8689639568328857,
    0.13062644004821777,
    0.7897131443023682,
    0.2752823829650879,
    0.03761696815490723,
    0.18562817573547363,
    0.168992280960083,
    -0.519810676574707,
    -0.6957118511199951,
    -0.9074680805206299,
    -0.5327050685882568,
    -0.897505521774292,
    -0.2697939872741699,
    0.08444929122924805,
    0.5924770832061768,
    -0.430281400680542,
    0.8412215709686279,
    0.309783935546875,
    0.3889124393463135,
    0.862907886505127,
    -0.33162522315979004,
    -0.012521743774414062,
    0.5651955604553223,
    0.18800973892211914,
    -0.33844923973083496,
    0.3990633487701416,
    -0.44943785667419434,
    0.5043025016784668,
    0.3349630832672119,
    0.3112037181854248,
    0.9140181541442871,
    0.06425070762634277,
    0.73819899559021,
    0.07311868667602539,
    -0.8193113803863525,
    0.6015100479125977,
    0.280747652053833,
    -0.7852208614349365,
    -0.35500526428222656,
    -0.7381541728973389,
    -0.7334451675415039,
    -0.48872971534729004,
    -0.18135905265808105,
    0.2956423759460449,
    0.1881701946258545,
    0.9553799629211426,
    -0.8769752979278564,
    -0.7648863792419434,
    -0.9516229629516602,
    -0.7634077072143555,
    -0.08083581924438477,
    0.003765583038330078,
    -0.21169066429138184,
    -0.268216609954834,
    0.7336056232452393,
    0.23580265045166016,
    0.40771985054016113,
    0.12044358253479004,
    0.7634313106536865,
    0.42415404319763184,
    0.18910574913024902,
    -0.06154322624206543,
    0.8082525730133057,
    0.608853816986084,
    -0.8829073905944824,
    0.5725455284118652,
    -0.10596919059753418,
    0.3808929920196533,
    0.7620413303375244,
    0.598740816116333,
    -0.7556052207946777,
    0.321704626083374,
    -0.43303465843200684,
    -0.3711831569671631,
    0.32137036323547363,
    -0.07886266708374023,
    -0.10266661643981934,
    -0.8209812641143799,
    0.7317118644714355,
    0.09745311737060547,
    -0.30536532402038574,
    -0.35926127433776855,
    0.21794605255126953,
    0.9989469051361084,
    -0.2673466205596924,
    -0.29325103759765625,
    0.56304931640625,
    0.10813188552856445,
    0.5381381511688232,
    0.4064958095550537,
    -0.9419760704040527,
    -0.9150617122650146,
    0.4369032382965088,
    -0.8714544773101807,
    -0.6774325370788574,
    0.38698363304138184,
    -0.7377171516418457,
    0.4242260456085205,
    0.940216064453125,
    0.7271857261657715,
    -0.33493757247924805,
    0.9118540287017822,
    -0.821552038192749,
    0.4999196529388428,
    0.22553491592407227,
    0.10707831382751465,
    -0.4103410243988037,
    0.6840143203735352,
    0.26222968101501465,
    -0.16157865524291992,
    0.3220984935760498,
    0.596717119216919,
    0.11442732810974121,
    0.7084369659423828,
    -0.8150296211242676,
    -0.7007439136505127,
    -0.7234816551208496,
    -0.9771144390106201,
    -0.26946401596069336,
    -0.10645389556884766,
    -0.677300214767456,
    -0.7346863746643066,
    0.14520263671875,
    -0.888667106628418,
    -0.015879154205322266,
    0.08860492706298828,
    0.2567169666290283,
    -0.27323031425476074,
    -0.8325796127319336,
    -0.3914449214935303,
    0.6180293560028076,
    -0.7877874374389648,
    -0.23923206329345703,
    -0.5402102470397949,
    0.473560094833374,
    0.8514432907104492,
    0.08656096458435059,
    0.560666561126709,
    0.8599758148193359,
    0.024932384490966797,
    -0.9530961513519287,
    -0.9267351627349854,
    0.7431240081787109,
    -0.7377867698669434,
    0.6046569347381592,
    -0.4913914203643799,
    -0.05582165718078613,
    -0.058669328689575195,
    0.5701792240142822,
    -0.7139439582824707,
    0.8418340682983398,
    -0.3919336795806885,
    -0.6125974655151367,
    -0.17683911323547363,
    0.272230863571167,
    -0.5654869079589844,
    0.23841381072998047,
    0.2810080051422119,
    0.1203768253326416,
    -0.01106882095336914,
    -0.5203430652618408,
    0.2890450954437256,
    -0.05227541923522949,
    0.1938025951385498,
    -0.2737157344818115,
    0.08170723915100098,
    0.9312725067138672,
    0.41152048110961914,
    -0.10633420944213867,
    0.5437285900115967,
    0.9443295001983643,
    -0.619612455368042,
    -0.9639022350311279,
    -0.7270903587341309,
    -0.2362501621246338,
    -0.5242054462432861,
    -0.6408190727233887,
    -0.6418867111206055,
    0.8328499794006348,
    0.4173445701599121,
    -0.32583069801330566,
    -0.336655855178833,
    -0.8248565196990967,
    0.6641883850097656,
    -0.1086111068725586,
    -0.6907463073730469,
    0.9642457962036133,
    0.2850668430328369,
    0.7047290802001953,
    -0.37711477279663086,
    -0.7306451797485352,
    0.5955440998077393,
    -0.7310028076171875,
    0.3958272933959961,
    -0.38217854499816895,
    -0.6459450721740723,
    -0.7871971130371094,
    -0.33080315589904785,
    -0.8559162616729736,
    -0.675246000289917,
    -0.8744423389434814,
    -0.28037524223327637,
    0.8316209316253662,
    0.6129324436187744,
    0.6622233390808105,
    0.6110663414001465,
    -0.4240422248840332,
    0.23765826225280762,
    -0.15436172485351562,
    0.6507425308227539,
    0.9071760177612305,
    0.6255958080291748,
    0.2704646587371826,
    -0.053728342056274414,
    -0.8796038627624512,
    -0.47063636779785156,
    0.4670393466949463,
    0.8316135406494141,
    0.4613800048828125,
    -0.7920470237731934,
    -0.4835174083709717,
    0.926459550857544,
    -0.881274938583374,
    -0.5631711483001709,
    0.18041133880615234,
    -0.0939321517944336,
    -0.1778240203857422,
    0.3610367774963379,
    -0.004249095916748047,
    -0.945512056350708,
    -0.6191518306732178,
    -0.37633514404296875,
    -0.5536229610443115,
    0.6583347320556641,
    0.13394904136657715,
    0.9187207221984863,
    0.6480050086975098,
    0.9748268127441406,
    -0.9344887733459473,
    0.9493792057037354,
    -0.027277708053588867,
    -0.9588634967803955,
    -0.8009631633758545,
    -0.2695801258087158,
    0.4763619899749756,
    0.4910247325897217,
    0.5399749279022217,
    -0.3813598155975342,
    -0.6978983879089355,
    0.0056803226470947266,
    -0.46092987060546875,
    0.8760573863983154,
    -0.5193800926208496,
    0.7356762886047363,
    0.6710472106933594,
    -0.018287181854248047,
    0.5111300945281982,
    0.3375582695007324,
    -0.9284029006958008,
    -0.7967610359191895,
    0.5344326496124268
  ],
  "outputNodes": 6,
  "outputToTypes": [
    "Mobile & (Air | Transport)",
    "Mobile & (Air | Transport)",
    "Mobile & (Air | Transport)",
    "Mobile & (Air | Transport)",
    "Fabber & Air",
    ""
  ]
}