{
  "hiddenBiasWeights": [
    -0.05050426721572876,
    -0.24099066853523254,
    0.7693194150924683,
    0.6902324557304382,
    0.8021066188812256,
    0.029810408130288124,
    -0.6245487332344055,
    -0.7045642137527466,
    -0.8211848139762878,
    0.41741427779197693,
    -0.4500753581523895,
    -0.421150267124176,
    -0.7125649452209473,
    -0.025590552017092705,
    -0.4655095934867859,
    0.24460136890411377,
    -0.7829329371452332,
    -0.16294065117835999,
    0.8712623715400696,
    0.1803859919309616,
    0.34620240330696106,
    0.1690850406885147,
    0.0762210413813591,
    0.9032081961631775,
    0.44441646337509155,
    -0.11812423914670944,
    -0.6884278655052185,
    -0.4052724540233612
  ],
  "hiddenNodes": 138,
  "hiddenWeights": [
    0.9953723549842834,
    -0.13729679584503174,
    -0.35352447628974915,
    0.22657553851604462,
    0.6492630243301392,
    0.9022238254547119,
    0.04492276906967163,
    -0.14954376220703125,
    0.5488200783729553,
    0.920939028263092,
    -0.9005247950553894,
    -0.834738552570343,
    0.5106234550476074,
    0.2513512670993805,
    -0.8409367799758911,
    0.9121367335319519,
    -0.7880364656448364,
    0.11962206661701202,
    0.11003183573484421,
    0.2584105432033539,
    -1.0355221033096313,
    0.36260196566581726,
    0.06533975899219513,
    0.5762178301811218,
    0.030824782326817513,
    -0.4179588854312897,
    0.32745811343193054,
    -0.4757307171821594,
    -0.7488738894462585,
    0.617577075958252,
    0.0750461146235466,
    0.784461498260498,
    0.15973973274230957,
    0.7556283473968506,
    0.35101714730262756,
    0.9167268872261047,
    0.36473000049591064,
    -0.03202391788363457,
    -0.12446574121713638,
    0.0827430784702301,
    -0.5504668951034546,
    -0.9321011900901794,
    0.8619304895401001,
    -0.3486200273036957,
    0.1721482276916504,
    0.8693027496337891,
    -0.6054563522338867,
    -0.6982989311218262,
    0.8733153343200684,
    -0.052110280841588974,
    -0.1929602175951004,
    0.0943337231874466,
    -0.414976567029953,
    0.2718900442123413,
    -0.2631922960281372,
    0.3066946566104889,
    1.0533663034439087,
    0.26547789573669434,
    0.6073222160339355,
    0.8675919771194458,
    0.7500171065330505,
    0.22714348137378693,
    0.8696177005767822,
    0.6069180965423584,
    0.9869622588157654,
    -0.7766636610031128,
    -0.8288164734840393,
    0.35382360219955444,
    0.8532314300537109,
    0.25656840205192566,
    1.1162865161895752,
    1.4336415529251099,
    0.8200520277023315,
    1.2329611778259277,
    0.45982617139816284,
    -0.9816007018089294,
    0.2657468616962433,
    0.8578688502311707,
    -0.5729271173477173,
    0.979653537273407,
    0.49305710196495056,
    0.475448340177536,
    -0.17555826902389526,
    0.42149320244789124,
    0.41621822118759155,
    0.5916261672973633,
    0.5138000249862671,
    -0.26465871930122375,
    0.9766396880149841,
    -0.7783843278884888,
    0.44379186630249023,
    0.2956273853778839,
    0.6821649074554443,
    -0.8719056844711304,
    0.5480374693870544,
    0.0632842406630516,
    0.28447026014328003,
    0.23931807279586792,
    -0.35746651887893677,
    -0.3644578754901886,
    -0.3217937648296356,
    -0.0007124872063286602,
    -0.4460616111755371,
    -0.0813978984951973,
    -0.8523449897766113,
    0.64787358045578,
    0.6257263422012329,
    0.8465963006019592,
    0.46485844254493713,
    -0.20011165738105774,
    -0.8411349058151245,
    -0.4774375557899475,
    -0.666667103767395,
    -0.20760652422904968,
    -0.1450740247964859,
    0.9081172943115234,
    0.6246387362480164,
    0.5165714025497437,
    -0.5112253427505493,
    0.30584797263145447,
    -0.6929140686988831,
    -0.7934679388999939,
    -0.019428987056016922,
    -0.27874982357025146,
    0.5779589414596558,
    -0.923712968826294,
    -0.4057791233062744,
    -0.3810252845287323,
    0.10178607702255249,
    -0.7742422819137573,
    0.7728806138038635,
    0.08451122790575027,
    -0.5218640565872192,
    0.015240760520100594,
    -0.6767090559005737,
    0.3681601881980896,
    -0.9148288369178772,
    0.16675955057144165,
    0.32782691717147827,
    -0.12069839984178543,
    0.38765060901641846,
    -0.933980405330658,
    -0.19455839693546295,
    -0.9709147214889526,
    -0.7153725028038025,
    -0.17448562383651733,
    -0.17355936765670776,
    -0.7174409627914429,
    -0.10738760977983475,
    0.29874131083488464,
    -0.8526483178138733,
    0.8372325897216797,
    -0.8597630262374878,
    -0.8412747383117676,
    -0.3787986636161804,
    0.6039651036262512,
    0.39920470118522644,
    0.7895944714546204,
    0.04733622074127197,
    0.0014160186983644962,
    0.7791964411735535,
    0.9321333765983582,
    -0.3849674463272095,
    0.1140647828578949,
    -0.2931016981601715,
    -0.9172513484954834,
    0.6869657039642334,
    -0.8110936284065247,
    -0.5297711491584778,
    0.24210023880004883,
    0.11651018261909485,
    0.3916744291782379,
    -0.5475700497627258,
    0.47483378648757935,
    0.3095923066139221,
    -0.10840221494436264,
    0.189205139875412,
    -0.9290780425071716,
    -0.1913679987192154,
    0.6961330771446228,
    0.08082500845193863,
    0.48154693841934204,
    -0.674529492855072,
    0.5816720128059387,
    0.33559536933898926,
    -0.15123604238033295,
    -0.8108088374137878,
    0.7311654686927795,
    -0.4251692295074463,
    -0.3301052153110504,
    -0.7092400789260864,
    0.2642522156238556,
    0.5596254467964172,
    -0.13893869519233704,
    -0.42242372035980225,
    -0.4026607573032379,
    -0.09776592254638672,
    -0.05165271833539009,
    -0.17649036645889282,
    0.47122493386268616,
    0.7893087863922119,
    -0.32585716247558594,
    -0.5719736218452454,
    -0.6729028224945068,
    -0.9819692969322205,
    0.19872671365737915,
    0.17082226276397705,
    0.8798760175704956,
    -0.35544559359550476,
    0.7124680280685425,
    -0.47729724645614624,
    0.649124264717102,
    0.3349566161632538,
    -0.20178940892219543,
    0.16993118822574615,
    0.918319582939148,
    0.22610193490982056,
    0.003030664985999465,
    0.15449126064777374,
    -0.180699422955513,
    -0.508240282535553,
    0.43358471989631653,
    0.41378483176231384,
    0.1774967759847641,
    -0.61998051404953,
    0.6345162987709045,
    -0.354764461517334,
    0.6065269112586975,
    -0.9288551807403564,
    -0.07132371515035629,
    -0.37918150424957275,
    -1.095505714416504,
    -0.3334195017814636,
    -1.0044842958450317,
    -0.4076264798641205,
    0.06359076499938965,
    0.39914560317993164,
    -0.30141690373420715,
    0.5487642288208008,
    -0.5813807845115662,
    -0.5299705266952515,
    0.05140060931444168,
    0.21841469407081604,
    0.8733210563659668,
    -0.12066984176635742,
    -0.6240884065628052,
    0.13132092356681824,
    -0.039421167224645615,
    0.37629368901252747,
    0.7261660695075989,
    0.47965627908706665,
    0.9354433417320251,
    0.44526001811027527,
    0.9273132681846619,
    0.14113350212574005,
    0.8989108800888062,
    -0.22622647881507874,
    -0.7787203788757324,
    -0.4128241539001465,
    -0.061553627252578735,
    0.9001561403274536,
    0.6397501826286316,
    0.5574461817741394,
    -0.2545176148414612,
    -0.024734267964959145,
    0.433356910943985,
    -0.17574813961982727,
    -0.7523321509361267,
    0.7865344882011414,
    -0.41600483655929565,
    -0.26402419805526733,
    -0.2840442359447479,
    -0.8330160975456238,
    -0.7845016717910767,
    -0.4375990331172943,
    -0.18257856369018555,
    0.5083590149879456,
    0.12641064822673798,
    -0.3920297920703888,
    1.0179369449615479,
    0.2436564415693283,
    0.4650614559650421,
    0.5326661467552185,
    -0.6163716316223145,
    -0.47001269459724426,
    0.8562236428260803,
    0.03956862539052963,
    -0.466378390789032,
    -0.9950006604194641,
    -0.34018027782440186,
    0.5766924619674683,
    -0.3225730061531067,
    0.6443567276000977,
    -0.3150816559791565,
    -1.0277283191680908,
    -0.4496767520904541,
    -0.6194618344306946,
    -0.9024233222007751,
    0.6732181906700134,
    -0.25430208444595337,
    -0.8619479537010193,
    0.40300318598747253,
    0.14095641672611237,
    -0.07872286438941956,
    0.6681166291236877,
    0.19723951816558838,
    -0.5936417579650879,
    0.04046758636832237,
    -0.5124361515045166,
    -0.9047268629074097,
    0.2879144549369812,
    0.01409981306642294,
    -0.7212944626808167,
    -0.801234245300293,
    -0.08468430489301682,
    -0.1239294707775116,
    -0.7963588833808899,
    -0.08603144437074661,
    -0.7027460336685181,
    -0.8911778926849365,
    0.6914868354797363,
    -0.23035511374473572,
    -0.5609966516494751,
    0.7581980228424072,
    -0.40190112590789795,
    0.11353012174367905,
    0.6504874229431152,
    0.8422372341156006,
    -0.8186467885971069,
    0.4058130085468292,
    -0.3091703951358795,
    0.8148485422134399,
    0.904773473739624,
    0.5994983315467834,
    -0.8930994272232056,
    -0.5539891123771667,
    -0.8572114109992981,
    0.2661754786968231,
    -0.6041681170463562,
    -0.6281469464302063,
    -0.7562620043754578,
    0.8240910172462463,
    0.28962817788124084,
    0.30870521068573,
    0.1740262508392334,
    -0.30790016055107117,
    0.8688468337059021,
    -0.4205053448677063,
    -0.3011738657951355,
    0.9424231648445129,
    -0.5176020264625549,
    0.8197181820869446,
    0.9087570905685425,
    0.2675342261791229,
    0.1847551167011261,
    0.1936275213956833,
    -0.7152275443077087,
    0.22972172498703003,
    0.7719137072563171,
    0.4051501154899597,
    0.8093283176422119,
    -0.23577506840229034,
    -0.17457884550094604,
    0.20371684432029724,
    0.6307100057601929,
    -0.040898725390434265,
    0.16001346707344055,
    -0.7342262268066406,
    -0.9724650979042053,
    0.5000869035720825,
    -1.0825750827789307,
    -1.021667718887329,
    -0.47667866945266724,
    0.09201666712760925,
    0.4762614667415619,
    -0.05384690314531326,
    -0.33196690678596497,
    -0.2437698096036911,
    -0.1867266297340393,
    0.5628815293312073,
    -0.6533343195915222,
    -0.7872944474220276,
    0.3365439772605896,
    0.3526439368724823,
    0.10066594928503036,
    -0.6960018277168274,
    -0.5298511981964111,
    -0.929042398929596,
    0.380477637052536,
    -0.15169543027877808,
    0.8026334643363953,
    -0.15292733907699585,
    -0.6190335750579834,
    0.3411078155040741,
    0.02574368752539158,
    -0.9333235025405884,
    -0.22437098622322083,
    0.6896097660064697,
    -1.369816780090332,
    -1.6181583404541016,
    -0.8557137846946716,
    -0.6790058016777039,
    -0.1750495284795761,
    -0.4544687271118164,
    -0.7663569450378418,
    0.5127472281455994,
    0.13903702795505524,
    0.6651552319526672,
    0.5494570136070251,
    0.3511923849582672,
    0.8327763080596924,
    0.03160006180405617,
    -0.7626999020576477,
    0.09138493984937668,
    0.15641659498214722,
    -0.040688175708055496,
    -1.0827736854553223,
    0.383823424577713,
    0.6685483455657959,
    0.9951989054679871,
    -0.381614625453949,
    0.05947303771972656,
    0.8834425806999207,
    0.7362034320831299,
    -0.20000137388706207,
    0.23514294624328613,
    -1.2138952016830444,
    -1.1748766899108887,
    -1.3925316333770752,
    -0.38933196663856506,
    0.6147915720939636,
    -0.08452902734279633,
    0.7064223885536194,
    -0.31541234254837036,
    0.5209627151489258,
    -1.0241812467575073,
    -0.975161612033844,
    0.5746951103210449,
    -0.6212908625602722,
    0.7059491276741028,
    -0.6102399826049805,
    -0.5182552337646484,
    -0.20036883652210236,
    -0.7982050776481628,
    0.4691524803638458,
    0.5504871606826782,
    -0.04432417452335358,
    -0.11440321803092957,
    -0.24968454241752625,
    -0.8263583779335022,
    -0.2622339725494385,
    0.14242316782474518,
    0.35511791706085205,
    0.0006075713899917901,
    0.848168671131134,
    0.8796457052230835,
    0.8310649991035461,
    -0.21188710629940033,
    -0.18140512704849243,
    -0.0037984983064234257,
    1.0181336402893066,
    -0.2915195822715759,
    0.9297850131988525,
    0.4398094117641449,
    0.022676905617117882,
    0.8494169116020203,
    0.22203582525253296,
    0.3354837894439697,
    -0.2746346890926361,
    0.18898773193359375,
    -0.6786596179008484,
    0.00405731750652194,
    -0.7611414194107056,
    -0.9237178564071655,
    -0.09909189492464066,
    1.245882511138916,
    0.5227326154708862,
    0.27364182472229004,
    0.7979309558868408,
    0.5694221258163452,
    -0.9088592529296875,
    -0.591926634311676,
    0.44774869084358215,
    -0.3147416412830353,
    0.7472012042999268,
    -0.45695415139198303,
    -0.06671891361474991,
    0.4603651762008667,
    -0.9205355048179626,
    0.1601596474647522,
    -1.0141164064407349,
    0.04101552814245224,
    -0.7520998120307922,
    -0.7181846499443054,
    -0.8198497295379639,
    -0.0611761175096035,
    -1.0448428392410278,
    -0.8715575933456421,
    -0.5794693827629089,
    0.7770184278488159,
    -0.1320134550333023,
    -0.732623279094696,
    -0.19552092254161835,
    0.705064058303833,
    0.7077605724334717,
    0.8500660061836243,
    0.6081420183181763,
    -0.9824046492576599,
    0.788321852684021,
    -0.5980619192123413,
    0.6461600661277771,
    0.5715106725692749,
    -0.21322210133075714,
    0.9470201730728149,
    0.04437372833490372,
    0.019562717527151108,
    -0.27640682458877563,
    0.325959175825119,
    -0.09834331274032593,
    -0.9002315402030945,
    0.2692699432373047,
    0.6750038266181946,
    -0.5827682018280029,
    -0.9438192844390869,
    -0.830129861831665,
    0.8928332924842834,
    0.05345127731561661,
    -0.826968789100647,
    -0.8680562973022461,
    -0.4659672677516937,
    -0.18215231597423553,
    0.8671226501464844,
    0.12364067137241364,
    -0.5064167976379395,
    -0.4907488524913788,
    -0.7385133504867554,
    0.29437634348869324,
    -0.06951975077390671,
    -0.20712235569953918,
    -0.7478730082511902,
    0.6502158045768738,
    -0.7045037150382996,
    0.6059483885765076,
    0.9081612825393677,
    -0.7297156453132629,
    0.29760655760765076,
    -0.9563402533531189,
    -0.506979763507843,
    0.19939741492271423,
    0.5832228660583496,
    -0.05597209185361862,
    0.879469096660614,
    -0.047401200979948044,
    -0.4237654209136963,
    0.5947633385658264,
    -0.30596300959587097,
    0.10629641264677048,
    -0.6539208889007568,
    0.6149320006370544,
    -0.6834934949874878,
    0.3115290701389313,
    0.968652069568634,
    0.620460033416748,
    0.24620865285396576,
    -0.8541752696037292,
    0.41456231474876404,
    0.4586471617221832,
    0.24806702136993408,
    0.06842842698097229,
    -0.7610307931900024,
    0.9607895016670227,
    -0.4263336956501007,
    -0.5211673378944397,
    0.4377732574939728,
    -0.38322779536247253,
    0.002805422991514206,
    1.1119575500488281,
    -0.20856836438179016,
    -0.0553169883787632,
    0.7280950546264648,
    -0.15566863119602203,
    1.0149130821228027,
    0.26502010226249695,
    0.549757182598114,
    -0.43197014927864075,
    0.9973788261413574,
    -0.17447523772716522,
    -0.07879773527383804,
    -0.531366765499115,
    0.6851980686187744,
    -0.19437411427497864,
    -0.5097867846488953,
    -0.6631168723106384,
    -0.12003662437200546,
    -0.9368614554405212,
    -0.917198896408081,
    -0.0500919371843338,
    0.5794469118118286,
    -0.7184819579124451,
    0.4227936267852783,
    -0.5878229141235352,
    -0.9985465407371521,
    0.5251405239105225,
    -0.8140449523925781,
    -0.5844136476516724,
    0.6850767135620117,
    -0.18883325159549713,
    0.567260205745697,
    0.3123175799846649,
    0.2616218328475952,
    0.7294082641601562,
    0.36803075671195984,
    0.4008244276046753,
    -0.4119977355003357,
    0.5682135224342346,
    -0.6352804899215698,
    0.46045857667922974,
    -0.8974716067314148,
    -0.6397927403450012,
    0.21670709550380707,
    -0.5411933660507202,
    0.5536001324653625,
    -0.3943164050579071,
    0.26088717579841614,
    0.1553666591644287,
    -0.7765887379646301,
    0.7913087606430054,
    0.4949895739555359,
    0.9256720542907715,
    -0.025227174162864685,
    -0.7182745933532715,
    -0.7788087725639343,
    -0.24802535772323608,
    -0.10796782374382019,
    0.9076799750328064,
    0.0713876485824585,
    0.45804405212402344,
    0.8416168093681335,
    -0.8254044055938721,
    0.3982953727245331,
    0.763698399066925,
    -0.01199185848236084,
    0.6629723310470581,
    0.02717560902237892,
    -0.06105927377939224,
    0.7091900706291199,
    0.8517628312110901,
    0.9046280980110168,
    -0.24204319715499878,
    -0.06444501876831055,
    0.7755228877067566,
    -0.13335300981998444,
    -0.012530838139355183,
    -0.514200747013092,
    0.27451765537261963,
    -0.3827219009399414,
    -0.48355674743652344,
    -0.5064931511878967,
    0.13313816487789154,
    0.02374984510242939,
    0.39380326867103577,
    0.8040977716445923,
    0.16086219251155853,
    0.6616936922073364,
    -0.44809430837631226,
    -0.580877959728241,
    0.3899904787540436,
    -1.003677248954773,
    0.5900858640670776,
    -0.46952906250953674,
    -0.3898206055164337,
    0.5945228338241577,
    -0.010666260495781898,
    0.7123258709907532,
    0.45798859000205994,
    0.40429767966270447,
    0.22951363027095795,
    -0.775725245475769,
    0.6614150404930115,
    0.5679170489311218,
    0.7639379501342773,
    0.005480964668095112,
    0.04096486046910286,
    -0.3479222357273102,
    0.7997140884399414,
    0.6932536959648132,
    -0.2110321819782257,
    0.574634850025177,
    -0.9108432531356812,
    0.23623985052108765,
    -0.852288544178009,
    0.6041796803474426,
    0.2545431852340698,
    0.5762842893600464,
    0.11859570443630219,
    0.05557151511311531,
    -1.0342586040496826,
    0.6700018644332886,
    -0.9723634719848633,
    -0.5293965339660645,
    -0.3304903507232666,
    0.2563554048538208,
    0.48044678568840027,
    -0.6534907221794128,
    0.0014378865016624331,
    -0.5458714962005615,
    -0.8434104919433594,
    0.3146721422672272,
    -1.2111620903015137,
    0.2748791575431824,
    0.9201939105987549,
    -0.08491481840610504,
    -0.7507740259170532,
    -0.9087558388710022,
    0.23040026426315308,
    0.8129262924194336,
    -0.5963127017021179,
    -0.27399080991744995,
    -0.8080742359161377,
    0.8693609237670898,
    0.8448476791381836,
    0.8013132214546204,
    -0.16790883243083954,
    0.33684036135673523,
    -0.9515950679779053,
    -0.6169459819793701,
    0.16068804264068604,
    0.07920903712511063,
    0.483810156583786,
    -0.19196000695228577,
    0.9451383948326111,
    0.7915001511573792,
    -0.7209864854812622,
    0.7947030663490295,
    -1.1802961826324463,
    -1.1694023609161377,
    -0.388021856546402,
    -0.12388049066066742,
    0.45197734236717224,
    -0.805903971195221,
    -0.7972383499145508,
    -0.7594118714332581,
    0.13095951080322266,
    -0.2841191589832306,
    0.34110069274902344,
    -0.06583699584007263,
    -0.8773280382156372,
    -0.5926304459571838,
    -0.07261618226766586,
    -0.8364210724830627,
    -0.7429429888725281,
    -0.5580931901931763,
    0.7043342590332031,
    -0.7648771405220032,
    0.5685088634490967,
    -0.13119232654571533,
    -0.2225092500448227,
    -0.6551617980003357,
    0.6388794183731079,
    0.719944417476654,
    -0.6320595741271973,
    0.18706630170345306,
    -1.0438566207885742,
    -0.8983928561210632,
    -0.7407986521720886,
    0.7054929137229919,
    0.4712074100971222,
    0.28567367792129517,
    0.03382335975766182,
    0.8952053189277649,
    0.6054800152778625,
    0.049257177859544754,
    -1.1809858083724976,
    -0.12246454507112503,
    -0.5324912667274475,
    0.8845124244689941,
    0.8157532215118408,
    0.7624199390411377,
    0.4447796642780304,
    0.8630076050758362,
    0.1537303775548935,
    -0.9939475655555725,
    0.13800890743732452,
    -0.03692677989602089,
    0.17967171967029572,
    -0.365092009305954,
    -0.5264500975608826,
    -0.33917099237442017,
    0.7443813681602478,
    -0.8887746334075928,
    -0.020639358088374138,
    0.49746862053871155,
    0.38395750522613525,
    0.6242948174476624,
    0.40634027123451233,
    -0.37393108010292053,
    -0.5424570441246033,
    -1.0591765642166138,
    -0.3751978576183319,
    -0.2306457906961441,
    -0.3912546932697296,
    0.23543119430541992,
    -0.6681964993476868,
    -0.894135594367981,
    -0.7660497426986694,
    -0.47428983449935913,
    -0.6826478242874146,
    0.2729909121990204,
    0.3060429096221924,
    -0.7854119539260864,
    -0.8403814435005188,
    -0.014866707846522331,
    0.5989291667938232,
    0.43845102190971375,
    -0.5927959084510803,
    -0.5327097773551941,
    0.18655350804328918,
    -0.7554578185081482,
    0.09485257416963577,
    -0.9252248406410217,
    -0.6009827852249146,
    -0.8240622878074646,
    -0.1541428118944168,
    0.3437992334365845,
    0.9051103591918945,
    0.01812821812927723,
    -0.7206366062164307,
    -0.2038930505514145,
    -0.8580309748649597,
    -0.07904276251792908,
    0.42031130194664,
    -0.5465260744094849,
    0.0632549449801445,
    -0.8420692682266235,
    0.5803760886192322,
    -0.2621672451496124,
    0.7884476184844971,
    0.09749424457550049,
    -0.22748583555221558,
    0.6635382175445557,
    -0.9327661991119385,
    0.11062049865722656,
    0.5606715083122253,
    -0.10733835399150848,
    0.25160059332847595,
    -0.5916869640350342,
    -0.7800805568695068,
    -0.08842123299837112,
    -0.10580100119113922,
    0.7152740955352783,
    -0.1281338930130005,
    0.2247232347726822,
    0.58294677734375,
    -0.033530447632074356,
    0.31539103388786316,
    0.878699541091919,
    -0.19224007427692413,
    0.585902988910675,
    0.5864670276641846,
    -0.17764832079410553,
    -0.9211609363555908,
    0.765180230140686,
    -0.7317964434623718,
    -0.25838321447372437,
    -0.3202764391899109,
    -0.6576718688011169,
    0.3344654142856598,
    0.2111193984746933,
    0.38208308815956116,
    0.2645033299922943,
    -0.7485876679420471,
    0.26231512427330017,
    -0.9178891181945801,
    -0.10151563584804535,
    -1.0061427354812622,
    -0.42905378341674805,
    -1.1175910234451294,
    0.8188838958740234,
    0.6406426429748535,
    0.2534157633781433,
    -0.2757963538169861,
    0.8107210993766785,
    -0.9415532946586609,
    -0.1556466817855835,
    -0.163700670003891,
    -0.591037929058075,
    0.703165590763092,
    -0.22052612900733948,
    0.1991892158985138,
    -0.2425481230020523,
    -0.16618818044662476,
    -0.9540484547615051,
    0.7584242820739746,
    -0.5676720142364502,
    0.384429931640625,
    0.2600744068622589,
    -0.6470670104026794,
    -0.03379365801811218,
    0.11745144426822662,
    0.7932980060577393,
    -0.2851228415966034,
    -0.5632349848747253,
    -0.14345593750476837,
    0.3328189551830292,
    -0.6502758860588074,
    -0.8181188702583313,
    -0.50388103723526,
    -0.6068806052207947,
    -0.24085733294487,
    -0.18942590057849884,
    -0.40660443902015686,
    0.2123960256576538,
    0.09459782391786575,
    0.503767728805542,
    -0.728513777256012,
    -0.22633247077465057,
    -0.1516159027814865,
    -0.9541656374931335,
    -0.670947790145874,
    0.3388175964355469,
    -0.35291898250579834,
    0.8307726979255676,
    -0.9626442790031433,
    -0.6536729335784912,
    1.0457099676132202,
    0.43430155515670776,
    0.08586864918470383,
    -0.1459035873413086,
    -0.29694175720214844,
    -0.5203320384025574,
    0.528441846370697,
    -0.36517447233200073,
    -0.5648084878921509,
    0.44892019033432007,
    0.8056397438049316,
    -0.44534143805503845,
    0.6670752167701721,
    0.2425937056541443,
    0.17717887461185455,
    0.09921020269393921,
    -0.12977147102355957,
    0.3958747386932373,
    0.49341994524002075,
    -0.18135344982147217,
    0.5445261597633362,
    0.6726377606391907,
    -0.7168087959289551,
    -0.030925486236810684,
    -0.007627812214195728,
    0.9148600697517395,
    0.5526938438415527,
    0.8312790393829346,
    0.644275426864624,
    -0.8529351353645325,
    -0.9695343375205994,
    0.2269805371761322,
    -0.38250136375427246,
    0.986215353012085,
    -1.0979043245315552,
    -0.11826787889003754,
    -0.7970598340034485,
    0.3715217411518097,
    -0.10152594745159149,
    -0.03841963782906532,
    -0.14293396472930908,
    -0.732367753982544,
    -0.8790021538734436,
    -0.5136057138442993,
    0.9887616038322449,
    0.7382067441940308,
    -0.11092692613601685,
    -0.4847815930843353,
    -0.22851808369159698,
    0.6610749959945679,
    0.2542303502559662,
    1.0138132572174072,
    0.1891033798456192,
    -0.420725017786026,
    -0.24324648082256317,
    -0.18137922883033752,
    0.4584875702857971,
    0.7342008948326111,
    -0.44750553369522095,
    0.9605734944343567,
    0.5222730040550232,
    0.9067347049713135,
    0.2173113375902176,
    -0.39147329330444336,
    -0.7051445245742798,
    -0.22623276710510254,
    -0.5570110082626343,
    -0.2078472375869751,
    0.8510261178016663,
    0.38208359479904175,
    0.31972163915634155,
    0.5102096199989319,
    0.08542490005493164,
    -0.6144120097160339,
    -0.7670350074768066,
    -0.4023151695728302,
    0.30408257246017456,
    0.16716879606246948,
    0.335729718208313,
    -0.06151783838868141,
    0.17827795445919037,
    -0.10252079367637634,
    0.19358260929584503,
    -0.7783825993537903,
    -0.6148873567581177,
    -0.49316030740737915,
    0.24608352780342102,
    0.2386334091424942,
    -0.4601125717163086,
    -0.8956683278083801,
    -0.48133981227874756,
    -0.8569815158843994,
    0.1038610115647316,
    -0.16299894452095032,
    0.4093658924102783,
    -0.6268033981323242,
    0.07452766597270966,
    -0.8600612282752991,
    -0.19478683173656464,
    -0.7346302270889282,
    0.7406259775161743,
    -0.5688867568969727,
    0.31578388810157776,
    0.03978613764047623,
    0.5281203389167786,
    -0.834890604019165,
    0.331277996301651,
    0.44699519872665405,
    -0.4257585406303406,
    0.7053337693214417,
    -0.8734093904495239,
    0.1998436599969864,
    -0.400195449590683,
    -0.38500335812568665,
    0.6440426111221313,
    0.0964113101363182,
    0.6282443404197693,
    -0.4467611312866211,
    0.10083746165037155,
    -0.958673894405365,
    -0.7566795945167542,
    0.1575644463300705,
    0.4710635244846344,
    -0.6280718445777893,
    0.5801290273666382,
    -0.4471548795700073,
    0.11670932918787003,
    0.7309313416481018,
    -0.6292985081672668,
    0.6494530439376831,
    0.7618127465248108,
    0.5997594594955444,
    0.15131524205207825,
    -0.5973427295684814,
    -0.07434984296560287,
    -0.773802638053894,
    0.7768087387084961,
    0.24771402776241302,
    -0.18802618980407715,
    0.6596376895904541,
    0.3946840167045593,
    -0.49517372250556946,
    -0.2360904961824417,
    -1.0153566598892212,
    -0.5868945717811584,
    -0.4425559937953949,
    0.22507236897945404,
    -0.21063823997974396,
    0.5452635884284973,
    -0.6001243591308594,
    0.24120864272117615,
    0.32301971316337585,
    -0.5572592616081238,
    -0.7906739711761475,
    -0.750511646270752,
    -0.07702770829200745,
    0.6832895278930664,
    0.026490123942494392,
    -0.7899617552757263,
    -1.0997471809387207,
    -0.8372089862823486,
    -0.13164368271827698,
    -0.9227794408798218,
    0.09072907269001007,
    -0.3990587592124939,
    -0.3193141222000122,
    -1.1255463361740112,
    -0.5623982548713684,
    0.47910329699516296,
    0.4014362692832947,
    -0.04790686443448067,
    -0.05733370780944824,
    0.16711664199829102,
    -0.22456128895282745,
    0.32568758726119995,
    -0.5755327343940735,
    0.043800998479127884,
    -0.8488254547119141,
    -0.680465042591095,
    -0.9816991686820984,
    0.4991004467010498,
    0.8500779867172241,
    -0.2631453275680542,
    0.6910245418548584,
    -0.8648432493209839,
    0.6039276123046875,
    0.11724914610385895,
    0.19921498000621796,
    -0.9988191723823547,
    -0.8230868577957153,
    0.4854781925678253,
    0.6171731948852539,
    -0.47432443499565125,
    -0.34617283940315247,
    -0.19833461940288544,
    -0.31527864933013916,
    0.5392749905586243,
    0.5573946833610535,
    0.6116772294044495,
    -0.32446810603141785,
    -0.2122643142938614,
    0.18616558611392975,
    0.057690009474754333,
    0.6901416778564453,
    0.06787732243537903,
    0.8733273148536682,
    -0.8840520977973938,
    0.6603980660438538,
    0.28497040271759033,
    -0.6447329521179199,
    -0.13551576435565948,
    -0.7488611340522766,
    0.4136497676372528,
    -0.6784719228744507,
    0.2670939862728119,
    0.3839508891105652,
    0.24607132375240326,
    -0.12956978380680084,
    0.5570984482765198,
    -0.5147449970245361,
    0.32654666900634766,
    -0.8113740682601929,
    0.937250554561615,
    0.9618064761161804,
    -0.6639512181282043,
    -0.2639603912830353,
    0.5417318344116211,
    0.47664782404899597,
    0.6668238043785095,
    0.37588775157928467,
    -0.4935920238494873,
    -1.071732521057129,
    -0.4302945137023926,
    0.08881857246160507,
    0.11250511556863785,
    -0.14999766647815704,
    -0.0026531408075243235,
    -0.3629569709300995,
    -0.9359869360923767,
    -0.7899376749992371,
    -0.41357386112213135,
    -0.0675220936536789,
    -0.13684256374835968,
    -0.911718487739563,
    -0.6605800986289978,
    0.5764585137367249,
    0.0533575639128685,
    0.5489493012428284,
    0.8935077786445618,
    -0.8574205636978149,
    -0.11557203531265259,
    -0.8224222660064697,
    0.44262823462486267,
    0.8536292910575867,
    -0.44212180376052856,
    0.13777947425842285,
    0.34198763966560364,
    0.6704074144363403,
    0.18832121789455414,
    -1.0467954874038696,
    -1.0286779403686523,
    -0.4776388704776764,
    -0.7003225684165955,
    -0.09495625644922256,
    0.10629656165838242,
    0.4682958126068115,
    0.2579919993877411,
    0.8860486745834351,
    -0.8860926032066345,
    -0.8300583362579346,
    0.9285897016525269,
    -0.7235434651374817,
    -0.5054616332054138,
    0.31251999735832214,
    0.8490020036697388,
    -0.5048726201057434,
    -0.8230668306350708,
    -0.4246061444282532,
    0.7918225526809692,
    0.1202283427119255,
    0.7489314675331116,
    -0.7788099646568298,
    0.6938596367835999,
    -0.413043737411499,
    -0.32910725474357605,
    0.8183128237724304,
    -0.6395988464355469,
    -0.019977964460849762,
    0.5014681220054626,
    -0.6544196009635925,
    -0.1986578404903412,
    -0.7757458090782166,
    0.055685631930828094,
    -0.6394328474998474,
    0.20428836345672607,
    -0.01635652966797352,
    0.056700270622968674,
    -0.6546508073806763,
    -0.17936570942401886,
    -0.14613206684589386,
    -0.10443075001239777,
    0.8114933371543884,
    0.48136958479881287,
    -0.053158920258283615,
    0.9007918238639832,
    0.6905294060707092,
    -0.8998035192489624,
    -0.3990478515625,
    0.9859946370124817,
    0.006313875317573547,
    0.05499029904603958,
    -0.6647175550460815,
    0.34682196378707886,
    -0.09332477301359177,
    -0.4483126103878021,
    -0.05045070871710777,
    -0.22848352789878845,
    -0.5140063166618347,
    -0.7975562810897827,
    0.9426428079605103,
    0.21294176578521729,
    -0.23384994268417358,
    0.3356395959854126,
    1.0653437376022339,
    -0.4079143702983856,
    -0.4208889603614807,
    0.4595005214214325,
    -0.25288012623786926,
    0.010827134363353252,
    -0.4964439570903778,
    -0.2740632891654968,
    -0.8471606373786926,
    -0.43103164434432983,
    -0.7570733428001404,
    -0.9808637499809265,
    -0.24353903532028198,
    0.8877768516540527,
    -0.11140138655900955,
    0.7390430569648743,
    0.3331277072429657,
    0.8546724915504456,
    -0.6550847291946411,
    0.19103017449378967,
    0.07168570905923843,
    -0.5763106942176819,
    0.6554418802261353,
    0.264860063791275,
    -0.88907390832901,
    -0.5690672993659973,
    -0.22659792006015778,
    0.8637222647666931,
    0.0615253746509552,
    0.6092564463615417,
    0.41567498445510864,
    0.9675704836845398,
    0.6269944906234741,
    0.8703551888465881,
    -0.9915816783905029,
    0.7436567544937134,
    -0.03196555748581886,
    0.6223727464675903,
    -0.13421329855918884,
    -0.7084816098213196,
    0.9119635224342346,
    0.32567742466926575,
    -0.9767173528671265,
    -0.9272018671035767,
    -0.7424443960189819,
    -0.41376620531082153,
    0.7551397085189819,
    -0.25960415601730347,
    0.25991448760032654,
    -0.29896900057792664,
    0.9113497734069824,
    -0.6350877285003662,
    -0.8763495683670044,
    0.818691074848175,
    0.09715574234724045,
    -0.16582220792770386,
    0.5772283673286438,
    0.5851919054985046,
    0.14896053075790405,
    0.9078579545021057,
    0.18181829154491425,
    0.6924003958702087,
    0.9487573504447937,
    -0.8798112273216248,
    0.7883101105690002,
    0.6738038659095764,
    0.02475709095597267,
    -0.4509226381778717,
    0.7468913793563843,
    -0.5455159544944763,
    0.600318193435669,
    -0.873261570930481,
    -0.3168898820877075,
    -0.49451836943626404,
    0.05575818940997124,
    -0.6531513333320618,
    -0.456043004989624,
    -0.9417345523834229,
    0.9445963501930237,
    0.40024736523628235,
    -0.9104322195053101,
    -0.16861803829669952,
    0.6523500084877014,
    0.2785232365131378,
    0.5366719365119934,
    -0.9701006412506104,
    -0.7534646987915039,
    -0.09282325953245163,
    0.3519342541694641,
    0.4517093300819397,
    -0.8872559666633606,
    -1.0718719959259033,
    -0.5016248226165771,
    0.16175517439842224,
    0.2658838927745819,
    -0.46390411257743835,
    0.3064473867416382,
    -0.10411854833364487,
    -0.4772017300128937,
    0.09470751881599426,
    -0.17303495109081268,
    0.712652862071991,
    0.7796650528907776,
    0.5028194785118103,
    0.8284211754798889,
    0.6163771748542786,
    -0.9274446964263916,
    0.7477560043334961,
    -0.6736006736755371,
    0.3688935935497284,
    0.7474868893623352,
    -0.4747568368911743,
    0.20242545008659363,
    -0.2684567868709564,
    -0.42539069056510925,
    0.7357186675071716,
    0.9231694936752319,
    0.2818905711174011,
    -0.6858538389205933,
    1.028075933456421,
    -0.6454418897628784,
    0.3781058192253113,
    1.1522716283798218,
    0.18928219377994537,
    -0.11641491204500198,
    0.2989174723625183,
    0.453284353017807,
    -0.3088153600692749,
    0.11556726694107056,
    0.9792474508285522,
    -0.7359358072280884,
    0.43698760867118835,
    0.510175347328186,
    0.08699923008680344,
    0.02291741594672203,
    1.0149250030517578,
    0.3005061447620392,
    -0.7703717947006226,
    0.8356549739837646,
    0.5034823417663574,
    1.010457158088684,
    -0.14571316540241241,
    0.8212339282035828,
    0.4794255793094635,
    0.7246784567832947,
    -0.17364999651908875,
    0.1261630654335022,
    0.8230105638504028,
    0.044214192777872086,
    0.5774695873260498,
    0.7889150977134705,
    -0.9780056476593018,
    0.6484483480453491,
    0.20604658126831055,
    -0.7601507902145386,
    -0.49709099531173706,
    0.1333407163619995,
    0.21913059055805206,
    -0.1467294842004776,
    0.08722720295190811,
    -0.25230664014816284,
    0.07277067005634308,
    0.6295456290245056,
    0.8875797986984253,
    -0.23586255311965942,
    0.7480814456939697,
    0.14451530575752258,
    0.9044223427772522,
    -0.3533118665218353,
    0.8957058191299438,
    0.9937887191772461,
    0.5340427160263062,
    -0.8377537727355957,
    -0.9678122401237488,
    0.03697748854756355,
    -0.16774915158748627,
    0.007542827166616917,
    -0.6643152236938477,
    -0.017692632973194122,
    0.07532348483800888,
    -0.0904364138841629,
    -0.9056283235549927,
    0.007916347123682499,
    -0.8179284334182739,
    -0.4310617446899414,
    0.26813462376594543,
    0.7973048686981201,
    -0.8417267799377441,
    0.3116936683654785,
    -0.882294237613678,
    -0.8023990392684937,
    -0.8020751476287842,
    0.4213486313819885,
    -0.2608502209186554,
    -0.7357915639877319,
    0.6641202569007874,
    -0.7303162813186646,
    -0.790937602519989,
    0.16889147460460663,
    0.8883938789367676,
    -0.47354942560195923,
    0.1707639992237091,
    -0.7336003184318542,
    0.7360159158706665,
    -0.9548636674880981,
    -0.3165713846683502,
    0.41543522477149963,
    -0.3323792517185211,
    0.9117790460586548,
    -0.1270473152399063,
    -0.9161760807037354,
    0.44548025727272034,
    0.5716360211372375,
    -0.2004789561033249,
    0.4376504123210907,
    -0.8377393484115601,
    -0.6169251799583435,
    -0.9166235327720642,
    -0.3318834602832794,
    0.019926752895116806,
    -1.159934401512146,
    0.5406673550605774,
    0.6423267126083374,
    -0.512795090675354,
    -0.6336356401443481,
    -0.22406749427318573,
    0.3615100383758545,
    -1.0494641065597534,
    -0.9365103244781494,
    0.6017220616340637,
    0.051942262798547745,
    -1.0691965818405151,
    -0.11274047940969467,
    -0.8700488209724426,
    0.8019504547119141,
    -0.9536075592041016,
    -0.7510249018669128,
    -0.43183544278144836,
    0.14885982871055603,
    -0.3978038430213928,
    -0.06614787131547928,
    0.885162353515625,
    -0.27248623967170715,
    -0.1472366452217102,
    -0.26468783617019653,
    -1.2903562784194946,
    0.06862588971853256,
    -0.7691105008125305,
    -0.8920163512229919,
    0.6001719832420349,
    0.522596538066864,
    -0.8870943188667297,
    0.7301973700523376,
    -0.49487924575805664,
    0.6977852582931519,
    0.3622209429740906,
    0.817977786064148,
    0.35955557227134705,
    0.45352810621261597,
    -0.08769828826189041,
    -0.3537759482860565,
    -0.031115373596549034,
    -0.06469745934009552,
    -0.3095293641090393,
    -0.5684919953346252,
    0.1593194305896759,
    -0.048609185963869095,
    -0.5302382707595825,
    0.17620590329170227,
    -0.15939319133758545,
    -0.009285722859203815,
    0.6184052228927612,
    -0.31455859541893005,
    0.42593273520469666,
    -0.4966667592525482,
    -0.8303852081298828,
    -0.447497695684433,
    0.8276098966598511,
    0.6470364332199097,
    -0.46151503920555115,
    -0.259929358959198,
    -0.11611317098140717,
    -0.6950992345809937,
    -0.964057445526123,
    0.5222647190093994,
    -0.20970606803894043,
    -0.2022632211446762,
    0.8051415681838989,
    0.4900891184806824,
    -0.17996995151042938,
    -0.8261624574661255,
    -0.5241625308990479,
    -0.6062630414962769,
    -0.038168009370565414,
    0.6820313334465027,
    0.578209638595581,
    0.33427491784095764,
    0.4778682589530945,
    -0.33854734897613525,
    -0.3699715733528137,
    -0.1280069351196289,
    -0.3880898952484131,
    0.29287827014923096,
    0.944065272808075,
    -0.2623829245567322,
    -0.19430045783519745,
    -0.12131474912166595,
    -0.6910237073898315,
    -0.9181591868400574,
    0.056796666234731674,
    -0.5109941959381104,
    -0.4617800712585449,
    0.30002984404563904,
    -0.6046465039253235,
    0.24908173084259033,
    0.5875659584999084,
    1.0123320817947388,
    -0.8642166256904602,
    0.188157856464386,
    -0.7064736485481262,
    0.5958674550056458,
    -0.5816437005996704,
    -0.0775621309876442,
    -0.4118228256702423,
    0.6544755697250366,
    0.2452596127986908,
    -0.23654057085514069,
    -0.38560089468955994,
    0.5157284140586853,
    -1.0676648616790771,
    -0.8362532258033752,
    -0.978776752948761,
    -0.32155677676200867,
    -0.33557191491127014,
    0.5603713393211365,
    -0.2435402274131775,
    0.45005470514297485,
    -0.36454302072525024,
    -1.0540313720703125,
    -0.761055052280426,
    0.6791600584983826,
    0.34901854395866394,
    -0.5334856510162354,
    0.4000609815120697,
    -0.6212098598480225,
    -0.9011723399162292,
    -0.34687718749046326,
    -0.0851481705904007,
    -0.38178354501724243,
    0.011260380037128925,
    0.7175385355949402,
    0.4245539903640747,
    -0.9887311458587646,
    0.7264793515205383,
    0.6634964346885681,
    -0.19047453999519348,
    -0.3009580373764038,
    -0.28577694296836853,
    0.7258105874061584,
    -0.3346928656101227,
    0.6655019521713257,
    -0.14704063534736633,
    0.5527018308639526,
    0.2902252972126007,
    -0.547206461429596,
    -0.31538310647010803,
    0.6676393151283264,
    -0.27688440680503845,
    0.2955671548843384,
    -0.614864706993103,
    -0.06747124344110489,
    0.8304188847541809,
    0.7461574077606201,
    0.5781786441802979,
    1.00513756275177,
    0.457858145236969,
    0.9742282032966614,
    -0.6396818161010742,
    -0.7991200685501099,
    0.6210677027702332,
    0.9063968658447266,
    0.8492192625999451,
    -0.6821287274360657,
    -0.037121765315532684,
    0.21913868188858032,
    0.49279502034187317,
    0.5944408774375916,
    -0.13399432599544525,
    0.3286518454551697,
    0.6791626214981079,
    -0.1077055111527443,
    -0.26523035764694214,
    1.1661272048950195,
    0.3013427257537842,
    0.8080393671989441,
    0.325018048286438,
    0.04146217182278633,
    0.11549732834100723,
    -0.19827069342136383,
    0.5328874588012695,
    -0.8882997632026672,
    0.18635310232639313,
    -0.3973667025566101,
    0.336029052734375,
    -0.5107578039169312,
    -0.3782663345336914,
    -0.4120120406150818,
    0.4558349847793579,
    0.5327860116958618,
    -0.915052056312561,
    0.20160925388336182,
    -0.5865156650543213,
    -0.9733110666275024,
    0.5082504749298096,
    -0.645390510559082,
    0.01635613851249218,
    0.0680147185921669,
    -0.7279806733131409,
    -0.9551824331283569,
    0.1685228943824768,
    -0.9802725315093994,
    -0.6991229057312012,
    0.4007786214351654,
    0.5605612993240356,
    0.7530628442764282,
    -1.1209818124771118,
    0.23043520748615265,
    -0.3337283432483673,
    0.6604031324386597,
    -0.7943132519721985,
    0.018549282103776932,
    -0.08008009195327759,
    -0.38040691614151,
    0.8325361013412476,
    0.2701960504055023,
    -0.3671654760837555,
    -0.8654966354370117,
    0.6821063160896301,
    -0.7298181056976318,
    0.7186456918716431,
    0.8954192996025085,
    0.028871439397335052,
    0.6710485219955444,
    -0.17800749838352203,
    -0.0443354994058609,
    -0.6495486497879028,
    0.8160571455955505,
    0.33307358622550964,
    0.4214951694011688,
    0.2896888852119446,
    -0.01370566338300705,
    0.8453922271728516,
    0.30747419595718384,
    -0.18696372210979462,
    0.7023689150810242,
    -0.4346320331096649,
    0.19294779002666473,
    -0.8838430643081665,
    -0.5358227491378784,
    0.6708029508590698,
    0.3092016279697418,
    -0.06986438482999802,
    -0.8372825384140015,
    -0.39092570543289185,
    0.9209845662117004,
    -0.13932093977928162,
    0.3049394190311432,
    -0.08591658622026443,
    -0.1272907555103302,
    0.057566236704587936,
    -0.5452306270599365,
    1.0202792882919312,
    0.8385494947433472,
    0.5425466299057007,
    0.16483452916145325,
    0.7881477475166321,
    -0.23860245943069458,
    0.8022545576095581,
    -0.3677871525287628,
    -0.6064858436584473,
    0.55219566822052,
    0.8032006025314331,
    -0.11456040292978287,
    -0.04295948147773743,
    0.10705818980932236,
    0.42994895577430725,
    -0.5135209560394287,
    -0.001954473089426756,
    0.26796671748161316,
    -0.5302123427391052,
    0.5202327370643616,
    -0.0074357688426971436,
    -0.8060552477836609,
    0.23038733005523682,
    -0.4946170449256897,
    0.33305877447128296,
    0.4035223722457886,
    0.7101765871047974,
    -0.3896728754043579,
    0.24699945747852325,
    -0.8548180460929871,
    -0.1182529479265213,
    0.13459788262844086,
    -0.38876205682754517,
    -0.5782673358917236,
    0.4470876455307007,
    0.6950512528419495,
    0.9255222678184509,
    0.21137635409832,
    0.44426095485687256,
    0.32273662090301514,
    0.7005839943885803,
    -0.15228214859962463,
    0.24370446801185608,
    0.9439133405685425,
    -0.8943010568618774,
    -0.22396093606948853,
    -0.25326716899871826,
    -0.16448305547237396,
    -0.2390744388103485,
    0.9510186314582825,
    -0.2510218322277069,
    0.2577172517776489,
    -0.35322704911231995,
    -0.7098096013069153,
    0.3568679094314575,
    0.9079488515853882,
    0.3184720575809479,
    0.33052361011505127,
    -0.9508535265922546,
    -0.1531466245651245,
    -0.4891292154788971,
    -0.35816583037376404,
    -0.34009161591529846,
    0.4394322633743286,
    0.13955774903297424,
    -0.627328097820282,
    0.601090669631958,
    0.46455177664756775,
    0.04578990116715431,
    0.474594384431839,
    -0.7360320091247559,
    -0.9606024622917175,
    0.7828237414360046,
    -0.8761869668960571,
    0.4592304825782776,
    0.500734269618988,
    -0.4408726096153259,
    0.08347053080797195,
    0.7890452742576599,
    0.07625031471252441,
    -0.019858364015817642,
    -1.0209342241287231,
    -0.3556237816810608,
    -0.08470162004232407,
    -0.9978582262992859,
    -0.10365940630435944,
    0.054893676191568375,
    -0.06851131469011307,
    -0.2088652104139328,
    -0.9903326630592346,
    0.3000797927379608,
    -0.19446197152137756,
    -0.601870596408844,
    -0.4899572432041168,
    0.4768373370170593,
    0.0369369201362133,
    -0.18221554160118103,
    0.4338497519493103,
    0.14402063190937042,
    0.29684746265411377,
    0.3122873902320862,
    0.6094890832901001,
    -0.3846021890640259,
    -0.36668941378593445,
    -0.8479299545288086,
    -0.8149715065956116,
    -0.5136069655418396,
    -0.03096625953912735,
    0.37165820598602295,
    -0.49865806102752686,
    0.5944370627403259,
    -0.5787784457206726,
    0.10719228535890579,
    -0.8450434803962708,
    0.2690782845020294,
    -0.8830642700195312,
    -0.14997148513793945,
    0.8218774795532227,
    -0.304365873336792,
    -0.5851754546165466,
    0.4906100630760193,
    -0.9793795943260193,
    -0.7776607275009155,
    0.8081161379814148,
    -0.3907115161418915,
    0.4335878789424896,
    0.9372892379760742,
    0.9715269207954407,
    0.7697996497154236,
    -0.5284966230392456,
    0.2007470428943634,
    0.3890031576156616,
    -0.9666754603385925,
    0.5734466910362244,
    -0.19108359515666962,
    -0.07823339849710464,
    -0.08850950747728348,
    0.5779015421867371,
    -0.8189490437507629,
    -0.6160303354263306,
    -0.9294080138206482,
    0.10721120238304138,
    -0.4318564236164093,
    0.40695473551750183,
    -0.9441733956336975,
    0.04949571564793587,
    -0.3642518222332001,
    -0.16604511439800262,
    -0.4556823670864105,
    -0.9539398550987244,
    -0.7032214403152466,
    0.3268544375896454,
    -0.684373140335083,
    -0.35519227385520935,
    -1.0242267847061157,
    -0.7112444639205933,
    0.3056318461894989,
    -0.47847780585289,
    0.47959259152412415,
    -0.24237580597400665,
    0.6822643876075745,
    -0.9712993502616882,
    0.6426866054534912,
    -0.45911529660224915,
    -0.5619822144508362,
    -0.48916614055633545,
    -1.0263639688491821,
    -0.7159989476203918,
    -1.005536437034607,
    0.5142093300819397,
    0.040657903999090195,
    -0.6199187636375427,
    -0.3026716411113739,
    -0.1473473459482193,
    -1.015426754951477,
    0.25385162234306335,
    -0.5746758580207825,
    -0.9291542768478394,
    0.4065130054950714,
    -0.014705142006278038,
    0.017934836447238922,
    -0.6483289003372192,
    0.2511518597602844,
    0.7207547426223755,
    0.722051739692688,
    -0.19941385090351105,
    0.7618045210838318,
    -0.06315717101097107,
    0.39789482951164246,
    -0.20268142223358154,
    0.5913593173027039,
    -0.04002523422241211,
    -0.5891081690788269,
    -0.30019471049308777,
    -0.24734379351139069,
    -0.5328633189201355,
    0.6765826940536499,
    0.3526637852191925,
    0.28495609760284424,
    -0.47683900594711304,
    -0.4865269958972931,
    -1.0855319499969482,
    0.05151575058698654,
    -0.7887104749679565,
    0.5834762454032898,
    0.018742961809039116,
    -0.3313261568546295,
    0.33271172642707825,
    0.6727840304374695,
    -0.28868114948272705,
    0.7167956829071045,
    -0.6662174463272095,
    0.15104328095912933,
    -0.0929604172706604,
    0.08814093470573425,
    0.7970567941665649,
    -0.13489089906215668,
    -0.5844883322715759,
    -0.06028567999601364,
    -0.4055742621421814,
    0.6250931024551392,
    0.3152805268764496,
    0.4418289363384247,
    1.0181771516799927,
    -0.7398779988288879,
    -0.938522219657898,
    0.23975858092308044,
    0.1780322939157486,
    -0.5404021143913269,
    -0.27541622519493103,
    0.8501269817352295,
    -0.6299351453781128,
    -0.7481183409690857,
    -0.15001438558101654,
    -0.48364704847335815,
    0.12318406999111176,
    0.5547951459884644,
    0.01803709752857685,
    0.11903735250234604,
    0.5074570178985596,
    -0.19662980735301971,
    0.49529674649238586,
    0.33986544609069824,
    0.3744606077671051,
    0.1517019271850586,
    0.009416771121323109,
    -0.2153739035129547,
    0.4943288266658783,
    -0.5690099596977234,
    0.05869879573583603,
    -0.04620114713907242,
    0.7302752733230591,
    -0.2646254599094391,
    0.8768520355224609,
    -0.3702211380004883,
    -0.7780952453613281,
    -0.8072820901870728,
    0.6373518705368042,
    0.2083885222673416,
    0.5734694600105286,
    0.6395139098167419,
    0.36833953857421875,
    0.8581922054290771,
    -0.2122451215982437,
    0.2860380709171295,
    -0.2571929097175598,
    -0.5860129594802856,
    -0.06116423383355141,
    0.7850624322891235,
    -0.40897542238235474,
    0.12845882773399353,
    0.8293930292129517,
    -0.8384610414505005,
    -0.219448521733284,
    0.09080508351325989,
    -0.2837391495704651,
    -0.6060411334037781,
    -0.7601940035820007,
    -0.3621200919151306,
    -0.3084828555583954,
    0.5875469446182251,
    0.41932183504104614,
    -0.13736440241336823,
    -0.7793747782707214,
    -0.6957721710205078,
    0.32281163334846497,
    -0.4540558159351349,
    -0.5365990996360779,
    -0.1406172513961792,
    -1.0216058492660522,
    0.03865392506122589,
    -0.0441756434738636,
    0.03970608115196228,
    0.9065725803375244,
    0.7122339010238647,
    0.6228938102722168,
    0.711290717124939,
    0.033996161073446274,
    0.156413272023201,
    -0.31194084882736206,
    0.7693910002708435,
    -0.6699404716491699,
    -0.2636900544166565,
    -0.5919082164764404,
    -0.37797656655311584,
    0.5696333646774292,
    0.6550061702728271,
    0.4498068690299988,
    0.01739637181162834,
    -0.9028883576393127,
    -0.6503003239631653,
    -0.5854218006134033,
    0.5778908729553223,
    -0.5490648150444031,
    0.7557518482208252,
    0.6844696998596191,
    -0.6094353199005127,
    -0.2042902559041977,
    -0.3795653283596039,
    -0.7108654975891113,
    0.29447320103645325,
    0.45436057448387146,
    0.2474215030670166,
    -0.6380614042282104,
    0.14952969551086426,
    0.7901751399040222,
    -0.00746807549148798,
    -0.3290986120700836,
    -0.7308401465415955,
    -0.5334597826004028,
    -0.24963097274303436,
    -0.5981771349906921,
    -0.7347005009651184,
    0.15372228622436523,
    -0.37713927030563354,
    0.9261949062347412,
    -0.24068570137023926,
    -0.2525235414505005,
    -0.06819090247154236,
    0.15171144902706146,
    -0.5683544874191284,
    -0.0842428132891655,
    -0.21726961433887482,
    -0.2711838185787201,
    0.625053882598877,
    -0.7054329514503479,
    -0.5174747109413147,
    0.35464268922805786,
    -0.6413131356239319,
    -0.5777482390403748,
    0.3245733380317688,
    -0.5430485010147095,
    -0.9856377243995667,
    -0.4206089973449707,
    -0.7506675124168396,
    -0.6089160442352295,
    0.5510413646697998,
    0.6678218841552734,
    0.21835267543792725,
    0.6327192187309265,
    -0.6887830495834351,
    -0.37948399782180786,
    -0.9784691333770752,
    0.8390339612960815,
    0.394488662481308,
    -0.529755175113678,
    -0.45316046476364136,
    -1.0263360738754272,
    0.3512771725654602,
    0.12403491139411926,
    -0.06846293807029724,
    -0.8352398872375488,
    0.30615782737731934,
    0.6616418957710266,
    -0.9478425979614258,
    -0.5763195753097534,
    -0.06399428099393845,
    -0.030537042766809464,
    -0.8009511828422546,
    -0.08945601433515549,
    -0.17349518835544586,
    -0.30195242166519165,
    0.5766361355781555,
    -0.07442248612642288,
    -1.0013442039489746,
    0.30470430850982666,
    -0.5511425733566284,
    0.41268840432167053,
    -0.8737589716911316,
    -0.8520304560661316,
    -0.8702777624130249,
    0.019980788230895996,
    0.8148448467254639,
    0.13742560148239136,
    -0.9717128276824951,
    -0.7110967040061951,
    -1.0417085886001587,
    -0.0417315810918808,
    0.4623045325279236,
    0.178545743227005,
    -0.80350661277771,
    -0.09046459943056107,
    -0.2052982598543167,
    0.013403213582932949,
    -0.08274180442094803,
    0.7468621730804443,
    0.8604751825332642,
    -0.416778564453125,
    -0.8129191994667053,
    -0.8026232123374939,
    -0.6599923372268677,
    -0.9642961025238037,
    0.44596219062805176,
    0.8145798444747925,
    0.1656576544046402,
    0.4870699644088745,
    0.19527527689933777,
    0.6657764911651611,
    0.5073786973953247,
    0.8788649439811707,
    -0.19478555023670197,
    -0.727763295173645,
    0.6888738870620728,
    0.3408689796924591,
    0.20010195672512054,
    0.52438884973526,
    0.8459542989730835,
    0.8753179907798767,
    0.5061854124069214,
    -0.7222051024436951,
    -0.346792072057724,
    0.6723310351371765,
    -0.0026468222495168447,
    -0.419098824262619,
    -0.5551564693450928,
    -0.07230360060930252,
    -0.3738081455230713,
    -0.37468019127845764,
    -0.4068318009376526,
    0.08247701823711395,
    -0.832889974117279,
    0.831629753112793,
    -0.344610333442688,
    0.03434112295508385,
    0.030972778797149658,
    -0.4703145921230316,
    0.24200356006622314,
    0.09454075247049332,
    -0.42320090532302856,
    0.3087504506111145,
    0.11251095682382584,
    -0.6434086561203003,
    -0.708797037601471,
    -0.9841965436935425,
    -1.0515954494476318,
    -0.6264533400535583,
    0.5268874764442444,
    -0.7173742055892944,
    0.23734724521636963,
    0.8487005829811096,
    0.49998795986175537,
    0.2354227602481842,
    0.6015104055404663,
    -0.9382110834121704,
    0.2461158037185669,
    0.9046351313591003,
    -0.7990822196006775,
    -0.928548276424408,
    -0.08617454767227173,
    -0.17036409676074982,
    0.7252382636070251,
    0.7004919648170471,
    -0.4578613042831421,
    0.16142155230045319,
    0.1245938092470169,
    0.18143343925476074,
    -0.930684506893158,
    0.4836619198322296,
    0.08236318826675415,
    -1.1059503555297852,
    -0.2439965307712555,
    -0.6399440169334412,
    0.2885255217552185,
    -0.9860643744468689,
    0.8999188542366028,
    -0.36698317527770996,
    -0.07109248638153076,
    -0.5270869731903076,
    0.1508556455373764,
    0.06446743756532669,
    -0.4728698432445526,
    -0.262138694524765,
    0.3223828375339508,
    0.5663571357727051,
    -0.7519466876983643,
    -0.14562352001667023,
    -0.7000294327735901,
    -1.0317217111587524,
    0.4163645803928375,
    0.38339120149612427,
    -0.4667646884918213,
    -0.6807621717453003,
    -0.8691194653511047,
    -0.5962206125259399,
    -0.009469441138207912,
    0.5696011185646057,
    0.3850906789302826,
    0.26198914647102356,
    -1.0228358507156372,
    0.1626678854227066,
    -0.6003941297531128,
    -0.3711073398590088,
    -0.30417299270629883,
    -0.7057824730873108,
    0.5729106664657593,
    -0.2554744780063629,
    -0.8921305537223816,
    -0.9117792248725891,
    -0.2227364480495453,
    0.5916281938552856,
    -0.5767701864242554,
    0.3636080324649811,
    -0.8472498059272766,
    -0.8799161911010742,
    -0.2890430688858032,
    -1.0315576791763306,
    0.0778268352150917,
    -0.20796363055706024,
    -1.5007961988449097,
    -1.0489104986190796,
    -1.2862812280654907,
    -0.9230387806892395,
    -0.768548309803009,
    0.30413299798965454,
    -1.004395604133606,
    0.23733755946159363,
    0.5516390800476074,
    -0.26049569249153137,
    0.05558854341506958,
    -0.29429781436920166,
    -0.06252772361040115,
    0.11156947910785675,
    -0.03925325348973274,
    0.1268860101699829,
    0.5238864421844482,
    -0.45846298336982727,
    0.6484076976776123,
    -0.19491907954216003,
    0.5144476890563965,
    -0.7878355383872986,
    0.21036627888679504,
    0.8497253060340881,
    0.9739891290664673,
    0.9454442858695984,
    0.9407785534858704,
    0.18131034076213837,
    -0.10534102469682693,
    -0.2200196385383606,
    -0.2989821135997772,
    0.4310018718242645,
    -0.468862384557724,
    0.7606905102729797,
    -0.5986525416374207,
    0.5687716007232666,
    0.5579321384429932,
    0.8253264427185059,
    0.33292126655578613,
    0.018350588157773018,
    0.6979148387908936,
    -0.5277054309844971,
    -0.1313963681459427,
    0.07571598142385483,
    -0.71440190076828,
    -0.5795063972473145,
    -0.3070439100265503,
    -0.7988090515136719,
    -0.1788730025291443,
    0.7125720381736755,
    0.9163995385169983,
    -0.902732789516449,
    -0.09351569414138794,
    -0.050550997257232666,
    -0.7686938047409058,
    -0.3892841041088104,
    -0.16178511083126068,
    -0.21184934675693512,
    -0.5648859739303589,
    0.5253009796142578,
    -0.23960883915424347,
    -0.5260165333747864,
    0.021007711067795753,
    0.5293259024620056,
    0.32220837473869324,
    -0.04974551871418953,
    0.0245178434997797,
    -0.6598487496376038,
    -0.4892781972885132,
    -0.2279455065727234,
    -0.4547092020511627,
    -0.4059709310531616,
    -0.6160961389541626,
    0.5651358366012573,
    -0.35603195428848267,
    0.44611844420433044,
    0.8488815426826477,
    0.3390021324157715,
    -0.8982964158058167,
    -0.7823052406311035,
    -0.2638814151287079,
    -0.2897928059101105,
    0.4960995316505432,
    0.5841760635375977,
    -0.45254993438720703,
    -0.7948670387268066,
    -0.1473502367734909,
    -0.5701874494552612,
    -0.2859385013580322,
    -0.3995588421821594,
    0.04736781120300293,
    -0.015476529486477375,
    -0.04840482398867607,
    0.12316633015871048,
    -0.5350351929664612,
    -0.8646712303161621,
    -0.08934271335601807,
    -0.29912298917770386,
    -0.5534456968307495,
    -0.2272515743970871,
    -0.48920613527297974,
    -0.9119210839271545,
    0.8083345890045166,
    0.3420557975769043,
    -0.02931799367070198,
    -0.33851510286331177,
    -0.677456796169281,
    -0.9662949442863464,
    0.08866890519857407,
    0.5115354061126709,
    -0.07368329167366028,
    0.8321192860603333,
    0.8238640427589417,
    -1.0159413814544678,
    -0.9626808166503906,
    0.45396745204925537,
    0.6718721389770508,
    -0.45647338032722473,
    -0.9661156535148621,
    -0.4704546332359314,
    -0.7845722436904907,
    -0.7071446776390076,
    0.011001328006386757,
    0.8681341409683228,
    -0.2554515302181244,
    0.8510647416114807,
    -0.4985054135322571,
    0.45969709753990173,
    -0.10632839053869247,
    0.5959587097167969,
    -0.36802414059638977,
    -0.1407814472913742,
    -0.5729783177375793,
    0.788866400718689,
    -0.8484973311424255,
    0.596807062625885,
    -0.42772966623306274,
    -0.17088092863559723,
    0.8211534023284912,
    -0.4528161585330963,
    -1.538792610168457,
    -0.536040186882019,
    -0.9696926474571228,
    0.2596897780895233,
    -0.9748296141624451,
    0.5797789096832275,
    -0.9912797212600708,
    -1.0334243774414062,
    -0.2452969253063202,
    0.022662505507469177,
    -0.7909922003746033,
    -0.2647867202758789,
    -0.5161235332489014,
    -0.47489550709724426,
    0.5302016139030457,
    -0.33875012397766113,
    0.03214380517601967,
    0.5255041718482971,
    -1.3374440670013428,
    0.5651625990867615,
    -0.8049905300140381,
    -1.1746838092803955,
    -0.4530075192451477,
    -0.10478360950946808,
    -0.42783039808273315,
    -0.24040628969669342,
    -0.43336236476898193,
    -0.7818325161933899,
    -0.7490915656089783,
    -1.1742445230484009,
    0.534569263458252,
    -0.6125374436378479,
    0.5592343807220459,
    -0.6374433040618896,
    0.9393302202224731,
    1.0155723094940186,
    0.7678347229957581,
    -0.7494164705276489,
    0.716403603553772,
    0.16065281629562378,
    0.9539601802825928,
    0.8287530541419983,
    0.04381571337580681,
    -0.6135401725769043,
    -1.0776554346084595,
    -0.17736567556858063,
    -0.8132779002189636,
    -0.9278157353401184,
    0.4651365876197815,
    -0.5748011469841003,
    0.6998514533042908,
    -0.13664084672927856,
    -1.0359102487564087,
    -0.8120347857475281,
    0.8050886392593384,
    0.5157647728919983,
    0.07826526463031769,
    -1.169572114944458,
    -1.0503332614898682,
    -0.4709286093711853,
    0.797687292098999,
    -0.5399641394615173,
    0.8148743510246277,
    0.3113155961036682,
    -0.047210417687892914,
    0.8640275597572327,
    0.8153378963470459,
    -0.4683637320995331,
    -0.03136734664440155,
    0.097148098051548,
    -0.03432822972536087,
    0.4827277660369873,
    -0.7378808259963989,
    -0.8769650459289551,
    -0.5866088271141052,
    0.4181060194969177,
    -0.5889225006103516,
    -0.34543412923812866,
    0.18250107765197754,
    -0.19449381530284882,
    0.8688569664955139,
    0.2694631516933441,
    -0.057868827134370804,
    -0.8172680735588074,
    -0.14170284569263458,
    0.1560317873954773,
    -0.7546640038490295,
    -0.24652084708213806,
    -0.3448963761329651,
    0.7640699148178101,
    -0.5131571292877197,
    -0.08064627647399902,
    0.8423136472702026,
    0.3280942738056183,
    -0.21398942172527313,
    0.36683323979377747,
    -0.8217692971229553,
    -0.49308013916015625,
    0.17003411054611206,
    -0.5551891922950745,
    -0.9012996554374695,
    -0.3855091631412506,
    -0.8245311379432678,
    -0.42471691966056824,
    -0.8044161200523376,
    0.6114389300346375,
    -0.022212738171219826,
    -0.3633950650691986,
    -0.24195118248462677,
    -0.41678130626678467,
    0.8769009709358215,
    0.7479944229125977,
    -0.8353148698806763,
    0.36047202348709106,
    0.23079419136047363,
    0.42112794518470764,
    0.9488192200660706,
    0.03280244395136833,
    0.3122946321964264,
    -0.9576709866523743,
    -0.03425951302051544,
    -0.2684524655342102,
    0.6396504044532776,
    -1.0996735095977783,
    0.34370875358581543,
    0.745572566986084,
    -1.0380655527114868,
    -0.16652296483516693,
    -0.3823188841342926,
    -0.9692593216896057,
    -0.34296172857284546,
    0.35572072863578796,
    0.786777913570404,
    -0.5560627579689026,
    0.7457819581031799,
    0.002883568871766329,
    -0.363986611366272,
    -0.0050438628531992435,
    -0.8163991570472717,
    0.21214522421360016,
    -0.21058884263038635,
    0.0713120549917221,
    0.05212430655956268,
    -0.31064197421073914,
    0.22408053278923035,
    0.9246760010719299,
    -0.19002842903137207,
    0.8478474020957947,
    0.2735348641872406,
    -0.2683323919773102,
    -0.4775213599205017,
    -0.423897385597229,
    -0.9116063117980957,
    -0.3048762381076813,
    -0.23947592079639435,
    0.7636635303497314,
    -0.061608001589775085,
    0.02268800139427185,
    -0.8613514304161072,
    -0.03626883402466774,
    -0.14591087400913239,
    -0.05825360119342804,
    0.7478252649307251,
    -0.5080740451812744,
    0.6775685548782349,
    -0.36776989698410034,
    0.3546246588230133,
    -0.6719935536384583,
    -0.4804680347442627,
    0.40022948384284973,
    0.06529286503791809,
    -0.8865789175033569,
    -0.8257347941398621,
    -0.8199843764305115,
    -0.5306035280227661,
    0.16180028021335602,
    0.8479355573654175,
    -0.965339720249176,
    0.14063343405723572,
    -0.2109324336051941,
    0.6634079813957214,
    -0.6585012674331665,
    -0.5624343752861023,
    0.2757525146007538,
    -0.6529395580291748,
    0.15693959593772888,
    -1.038596749305725,
    0.6471263766288757,
    0.7428186535835266,
    0.9526283144950867,
    -0.3640417456626892,
    0.6683744192123413,
    0.8634207844734192,
    -0.477910578250885,
    -0.9260653257369995,
    -0.016472619026899338,
    -0.5353429913520813,
    0.10591450333595276,
    -1.0364805459976196,
    -0.5047811269760132,
    0.5341198444366455,
    0.24680079519748688,
    -0.8084496259689331,
    -0.4924483597278595,
    0.27657994627952576,
    -0.5508235692977905,
    -0.18706823885440826,
    0.2830595374107361,
    -0.30730628967285156,
    -0.04473809897899628,
    -0.45190951228141785,
    -0.14323799312114716,
    0.378114253282547,
    0.03510100394487381,
    0.2787540555000305,
    0.22878043353557587,
    -0.8943586349487305,
    -0.13690273463726044,
    0.9011741280555725,
    -0.5536565780639648,
    0.29854586720466614,
    0.4260355234146118,
    -0.5058474540710449,
    -0.31737563014030457,
    0.5737336874008179,
    -0.12720003724098206,
    0.16594254970550537,
    -0.16180194914340973,
    0.8235584497451782,
    0.6049535870552063,
    -0.45863404870033264,
    -0.127993643283844,
    0.0076433029025793076,
    -0.5633790493011475,
    -0.5380103588104248,
    1.050032377243042,
    0.5202871561050415,
    -0.38704538345336914,
    -0.2553881108760834,
    -0.8215208053588867,
    -0.2617315649986267,
    -0.0032276692800223827,
    0.5211761593818665,
    -0.16741901636123657,
    0.8947064876556396,
    -0.38892340660095215,
    0.23491600155830383,
    -0.5070825815200806,
    -0.3779906630516052,
    0.3193723261356354,
    -0.8236687183380127,
    -0.867576539516449,
    -0.7517241835594177,
    -0.3682352304458618,
    -0.1309543401002884,
    0.03277866169810295,
    0.2459571212530136,
    0.4207516014575958,
    0.05349426716566086,
    -0.42527279257774353,
    -0.8602980971336365,
    0.9199236631393433,
    0.019021818414330482,
    -0.6556443572044373,
    -0.3706629276275635,
    -0.9000494480133057,
    0.16074369847774506,
    -0.696704089641571,
    -0.4173148572444916,
    0.9272865653038025,
    -0.6050607562065125,
    0.23188821971416473,
    -0.7486718893051147,
    -0.17119723558425903,
    0.040677186101675034,
    -0.520243227481842,
    0.34610456228256226,
    0.23031240701675415,
    -0.7123721241950989,
    -0.1192169263958931,
    0.3282780349254608,
    -1.0144096612930298,
    -0.18610583245754242,
    -0.9341558814048767,
    -0.6719536781311035,
    0.3490600287914276,
    -0.3866313695907593,
    0.027999384328722954,
    -0.7237784266471863,
    -0.9000452160835266,
    -1.2151297330856323,
    -0.31522655487060547,
    0.456336110830307,
    -0.3701024353504181,
    -0.36929377913475037,
    -0.8392578363418579,
    -0.21899349987506866,
    0.7268098592758179,
    -1.139877200126648,
    -0.27171239256858826,
    0.8130010366439819,
    -0.3026890754699707,
    1.0808368921279907,
    0.9662339091300964,
    -0.8071721792221069,
    0.46928152441978455,
    0.5350920557975769,
    0.5428566932678223,
    -0.15347698330879211,
    0.25541403889656067,
    0.48182857036590576,
    0.49091270565986633,
    0.5675107836723328,
    0.5688120722770691,
    0.7545097470283508,
    0.3858092725276947,
    0.06450606882572174,
    -0.21659128367900848,
    -0.8303050994873047,
    0.1465240865945816,
    0.7180519700050354,
    0.4332847595214844,
    0.8908276557922363,
    -0.41081446409225464,
    -0.45875951647758484,
    0.04312187805771828,
    -0.43076685070991516,
    0.7869958877563477,
    -0.5358843803405762,
    0.1895718276500702,
    -0.21485963463783264,
    -0.4156024158000946,
    -0.2544838488101959,
    -0.485002726316452,
    0.6690628528594971,
    -0.8654208779335022,
    -0.22156581282615662,
    0.46601712703704834,
    0.6257352232933044,
    0.8665015697479248,
    -0.004823892377316952,
    0.7312094569206238,
    0.6880984902381897,
    0.12881270051002502,
    0.8335826992988586,
    0.9808349609375,
    0.800290048122406,
    0.4529840648174286,
    0.32821545004844666,
    0.15936003625392914,
    -0.24910147488117218,
    -0.45796385407447815,
    -0.21437665820121765,
    -0.7821821570396423,
    -0.8097459077835083,
    -0.0333908312022686,
    0.5592253804206848,
    -0.33567139506340027,
    -0.5756926536560059,
    -0.9166429042816162,
    0.7809762954711914,
    0.18886849284172058,
    -0.053095340728759766,
    0.04079034924507141,
    0.15970639884471893,
    -0.3888116180896759,
    -0.43847236037254333,
    -0.6866673827171326,
    0.45594966411590576,
    -1.012434482574463,
    -0.9046941995620728,
    0.059473104774951935,
    -0.9641970992088318,
    0.5391687154769897,
    -0.06478199362754822,
    -0.020719235762953758,
    -0.7325061559677124,
    -0.7892619371414185,
    0.29564663767814636,
    0.6064308285713196,
    0.9269121885299683,
    -0.9467953443527222,
    -0.2541748285293579,
    0.1655786782503128,
    0.9252601861953735,
    0.4988735616207123,
    0.4664125442504883,
    0.024837208911776543,
    0.3944653570652008,
    0.5795952677726746,
    -0.10436266660690308,
    0.9456892013549805,
    -0.6773319244384766,
    -0.8164703249931335,
    0.25117745995521545,
    0.9056654572486877,
    0.7904225587844849,
    0.81070876121521,
    -0.39236751198768616,
    -0.7548075318336487,
    0.10564105212688446,
    0.0017038093646988273,
    0.20083384215831757,
    0.5676376819610596,
    0.9463923573493958,
    -0.036043789237737656,
    0.8355132341384888,
    0.4205743074417114,
    -0.3763624131679535,
    1.014988660812378,
    -0.30798253417015076,
    0.7149803042411804,
    -0.24807050824165344,
    -0.4999174475669861,
    -0.3451831638813019,
    -0.18671070039272308,
    0.10432224720716476,
    -0.5223420858383179,
    -0.024166077375411987,
    0.9992674589157104,
    -0.8028703927993774,
    0.3244258165359497,
    -0.12552636861801147,
    -0.46708986163139343,
    0.24638035893440247,
    0.882683515548706,
    0.8466337323188782,
    0.6369978189468384,
    -0.5525795221328735,
    -0.05310533195734024,
    -0.9465516209602356,
    -0.2793496549129486,
    0.569338858127594,
    -0.3825876712799072,
    -0.37725991010665894,
    0.1576407551765442,
    -0.5604088306427002,
    -0.11104075610637665,
    -0.6589398384094238,
    -0.9079153537750244,
    0.0161324180662632,
    0.3885442912578583,
    -0.11296337097883224,
    0.8212680220603943,
    0.033769674599170685,
    -0.7074956297874451,
    0.07653544843196869,
    0.24211153388023376,
    -0.6605060696601868,
    0.29518330097198486,
    -0.41913238167762756,
    0.3146214485168457,
    0.8795612454414368,
    0.08634685724973679,
    0.06870317459106445,
    -0.1861848384141922,
    -0.054374225437641144,
    0.6009878516197205,
    0.4855044484138489,
    0.30771833658218384,
    -0.15290161967277527,
    0.4491117596626282,
    -0.6061736941337585,
    0.33590441942214966,
    -0.269080251455307,
    -0.7090775966644287,
    -0.45469406247138977,
    -0.44835540652275085,
    0.4360131323337555,
    -0.5600972175598145,
    1.0251063108444214,
    -0.07198356091976166,
    0.3378492295742035,
    0.03142203018069267,
    0.060367558151483536,
    0.9541046619415283,
    -0.6795196533203125,
    0.2431119829416275,
    -0.5429814457893372,
    -0.1899050623178482,
    0.7939514517784119,
    0.41317132115364075,
    0.7205682992935181,
    0.26524674892425537,
    -0.38781115412712097,
    0.34710273146629333,
    -1.2788760662078857,
    -1.0128796100616455,
    0.8650029897689819,
    -0.5095370411872864,
    0.791894793510437,
    -0.8767890930175781,
    0.1489146500825882,
    -0.3331199586391449,
    -0.33218130469322205,
    0.4029870629310608,
    -0.11042097210884094,
    0.3521538972854614,
    -0.6646506786346436,
    0.8724814057350159,
    0.6847785115242004,
    -0.8201170563697815,
    -0.23597802221775055,
    -0.06142658367753029,
    -0.2741732597351074,
    0.21794380247592926,
    -0.26118454337120056,
    0.47746914625167847,
    0.7267197966575623,
    0.08770868927240372,
    -0.6287739276885986,
    0.34922346472740173,
    0.32095420360565186,
    0.6496155261993408,
    0.858161985874176,
    -0.3604053556919098,
    0.40554335713386536,
    -0.8749526143074036,
    0.5135216116905212,
    0.41280990839004517,
    -0.5358740091323853,
    -0.9416932463645935,
    0.4245780408382416,
    0.21375054121017456,
    -0.6764076948165894,
    1.0323480367660522,
    0.6950435042381287,
    -0.7342860698699951,
    1.0004591941833496,
    -0.010957103222608566,
    -0.09384714812040329,
    -0.16522149741649628,
    0.4358876347541809,
    0.4658008813858032,
    0.2890060842037201,
    0.6373056769371033,
    -0.6044379472732544,
    -0.544352114200592,
    -0.01319838222116232,
    0.9041248559951782,
    0.20859487354755402,
    0.9192578196525574,
    0.04871256276965141,
    0.6138179302215576,
    0.9401322603225708,
    -0.8154069185256958,
    -0.3873620331287384,
    0.45104295015335083,
    1.0591121912002563,
    -0.28164079785346985,
    0.32204216718673706,
    -0.42912283539772034,
    0.23302562534809113,
    -0.3858869969844818,
    -0.59647136926651,
    -0.7313384413719177,
    0.9618767499923706,
    0.2710176706314087,
    -0.7080261707305908,
    0.604340672492981,
    -0.6289934515953064,
    -1.1761499643325806,
    -0.3004237413406372,
    -0.21435396373271942,
    0.5657906532287598,
    -0.8732855319976807,
    -0.47074928879737854,
    -0.050335291773080826,
    0.5667120218276978,
    -0.6459791660308838,
    -0.8032909035682678,
    0.8474355340003967,
    0.1454562246799469,
    -0.6680063605308533,
    0.8883654475212097,
    0.5772480964660645,
    -0.010187341831624508,
    0.37839677929878235,
    -0.9513050317764282,
    0.9111876487731934,
    -0.44386178255081177,
    -0.5000113844871521,
    -0.6974847316741943,
    -0.07449974119663239,
    0.7658644318580627,
    -0.11004423350095749,
    0.2673130929470062,
    0.8620697855949402,
    -0.23673051595687866,
    0.3633936047554016,
    -1.1762661933898926,
    -0.048936229199171066,
    -0.6136578321456909,
    0.07921789586544037,
    -0.367806613445282,
    0.5061897039413452,
    0.5846704840660095,
    0.700384795665741,
    0.6031278371810913,
    0.27911698818206787,
    0.0909685418009758,
    -0.20624332129955292,
    -1.0658478736877441,
    0.7800763845443726,
    0.5335913300514221,
    -0.5203635692596436,
    0.14689487218856812,
    -0.2339957058429718,
    0.658927857875824,
    -0.6651246547698975,
    -0.06579113751649857,
    -0.5592780709266663,
    0.014006645418703556,
    -0.9650101065635681,
    -0.2650786340236664,
    -0.28041279315948486,
    -0.5657747983932495,
    0.6949518322944641,
    -0.9399227499961853,
    -0.712213933467865,
    0.7698261737823486,
    0.8433480858802795,
    -0.15474273264408112,
    0.05884049832820892,
    -0.11773792654275894,
    -0.9193158745765686,
    -0.3170129954814911,
    -0.006111889611929655,
    -0.9417966604232788,
    0.47157326340675354,
    -0.7161406874656677,
    -0.2264862358570099,
    0.5280278325080872,
    -0.7531880736351013,
    0.012644188478589058,
    0.8886798024177551,
    -0.8778744339942932,
    0.4857865571975708,
    0.27172067761421204,
    0.8133435845375061,
    0.7621250152587891,
    -0.9140169620513916,
    0.8706227540969849,
    -0.3195122480392456,
    -0.35927027463912964,
    0.09917391836643219,
    -0.7604950666427612,
    -0.9850719571113586,
    0.37078437209129333,
    0.4492478370666504,
    0.7511690258979797,
    0.22548359632492065,
    -0.4823748469352722,
    0.6476643681526184,
    -0.935673713684082,
    -0.9155675172805786,
    -0.7262246012687683,
    -0.35051512718200684,
    0.38526442646980286,
    0.5777140259742737,
    -0.20252425968647003,
    0.6427498459815979,
    -0.01154245063662529,
    0.6981173753738403,
    -0.6065893769264221,
    -0.21847042441368103,
    -0.25195208191871643,
    0.9532655477523804,
    0.9696305990219116,
    0.5534110069274902,
    0.8584234118461609,
    -0.39455169439315796,
    0.016078870743513107,
    0.67801833152771,
    0.1765458583831787,
    0.4562124013900757,
    -0.030709225684404373,
    0.30854302644729614,
    0.19850803911685944,
    0.1326674073934555,
    -0.45107579231262207,
    0.23979929089546204,
    -0.9511582851409912,
    0.17282040417194366,
    0.8379119038581848,
    0.9490073323249817,
    -0.08388396352529526,
    0.6422516703605652,
    -0.16748981177806854,
    -0.21041063964366913,
    -1.0461094379425049,
    0.3744346499443054,
    0.3130132555961609,
    0.837631106376648,
    -0.4019629955291748,
    -0.6396874785423279,
    -0.6648877263069153,
    -0.377876877784729,
    -0.08756599575281143,
    1.1271990537643433,
    1.391579031944275,
    1.2363170385360718,
    0.9384974837303162,
    0.7358930706977844,
    0.04890551045536995,
    -0.7244048118591309,
    0.6004101634025574,
    1.0756627321243286,
    0.6984636783599854,
    0.968963623046875,
    0.17794986069202423,
    1.1770470142364502,
    0.05315401405096054,
    -0.02042336016893387,
    0.9619542360305786,
    0.5622039437294006,
    0.6997450590133667,
    -0.9478209018707275,
    0.8602531552314758,
    -0.7407895922660828,
    0.43026304244995117,
    1.3202658891677856,
    0.12484610825777054,
    -0.8399017453193665,
    0.8763086795806885,
    0.5249992609024048,
    -0.21859626471996307,
    -0.669655978679657,
    0.4557857811450958,
    0.10138753056526184,
    0.20675748586654663,
    0.3206092119216919,
    -0.4950256645679474,
    -0.233564555644989,
    -0.4828471541404724,
    0.3479294180870056,
    -0.5208863019943237,
    -0.7651289105415344,
    -0.44358423352241516,
    -0.7835161685943604,
    -0.8708417415618896,
    0.7437682151794434,
    0.33059415221214294,
    0.5629621744155884,
    0.8044548630714417,
    0.25282710790634155,
    -0.09398221224546432,
    -0.6802955269813538,
    -0.9294620752334595,
    -0.1296672821044922,
    0.7956563234329224,
    -0.559359610080719,
    -0.4390527009963989,
    0.048500288277864456,
    -0.8180387020111084,
    0.32111361622810364,
    -0.27683499455451965,
    -0.9981822371482849,
    -0.0975678488612175,
    -0.19701851904392242,
    -0.7013941407203674,
    0.7704959511756897,
    -0.19292685389518738,
    0.15075919032096863,
    0.15932776033878326,
    0.8140116333961487,
    0.6665833592414856,
    0.43149498105049133,
    -0.7304718494415283,
    -0.38423284888267517,
    0.8539784550666809,
    -0.21851497888565063,
    0.1428232043981552,
    -0.10458146035671234,
    -0.4183807671070099,
    0.45224758982658386,
    -0.786500871181488,
    0.1475754827260971,
    0.47519102692604065,
    0.7575627565383911,
    -0.45362240076065063,
    0.9442136883735657,
    -0.11603207141160965,
    -0.3134201467037201,
    -1.0757694244384766,
    -0.38089776039123535,
    0.5037897229194641,
    -0.690929651260376,
    0.5129285454750061,
    -0.7371660470962524,
    -0.726738452911377,
    -0.5676867365837097,
    -0.1889837235212326,
    0.3118996024131775,
    0.9309437274932861,
    0.609052300453186,
    0.6903567910194397,
    0.6067097783088684,
    0.3842830955982208,
    -0.06764017045497894,
    0.10677079856395721,
    -0.32833266258239746,
    0.3930372893810272,
    0.25236228108406067,
    0.8163681030273438,
    -0.8175995349884033,
    -0.08115535229444504,
    -0.7043830156326294,
    0.1862601786851883,
    0.012397698126733303,
    -0.5249939560890198,
    -0.5539948344230652,
    -0.9090385437011719,
    -1.0066807270050049,
    -0.934418797492981,
    -0.795354962348938,
    0.22068281471729279,
    0.87147456407547,
    0.42296043038368225,
    0.2556861340999603,
    0.09220003336668015,
    -0.6315884590148926,
    -0.17153584957122803,
    -0.8628560900688171,
    -0.6378950476646423,
    0.5859812498092651,
    0.565658450126648,
    -0.39597681164741516,
    -0.8306785225868225,
    0.6615378260612488,
    -0.38255468010902405,
    -0.6021134257316589,
    -1.0079690217971802,
    -0.46104827523231506,
    -0.565951943397522,
    0.40847936272621155,
    -0.5300247669219971,
    -0.13249506056308746,
    0.3213720917701721,
    0.18258289992809296,
    -0.49977222084999084,
    -1.2309327125549316,
    -1.1463627815246582,
    0.7903779149055481,
    -0.024496179074048996,
    0.34252679347991943,
    0.4072939455509186,
    -0.33518967032432556,
    0.4350200593471527,
    -1.0098403692245483,
    -0.5033704042434692,
    0.40093958377838135,
    0.6242189407348633,
    -0.5110357403755188,
    0.0747535452246666,
    0.36006423830986023,
    0.5453501343727112,
    0.049404557794332504,
    0.6102040410041809,
    -0.7183793783187866,
    -0.7934839129447937,
    0.2572478652000427,
    0.8930063247680664,
    -0.4289611876010895,
    -0.8041638135910034,
    0.18104200065135956,
    0.47608980536460876,
    -0.03496825695037842,
    0.07646222412586212,
    0.29064369201660156,
    0.278522253036499,
    0.8210657835006714,
    0.5828169584274292,
    0.05685797706246376,
    -0.06724835187196732,
    -0.3974563777446747,
    0.8309207558631897,
    -0.7087498903274536,
    -0.10935158282518387,
    0.17594048380851746,
    0.6136578917503357,
    0.45729437470436096,
    0.7269238829612732,
    -0.9029422402381897,
    0.4844473600387573,
    0.9112248420715332,
    -0.006971173454076052,
    0.6054615378379822,
    0.3743065893650055,
    0.7024334669113159,
    0.39484357833862305,
    0.5393897891044617,
    0.4704713225364685,
    0.8746647238731384,
    0.5293191075325012,
    -0.320964515209198,
    0.06523972004652023,
    -0.9926633238792419,
    -0.5733802318572998,
    0.7871206998825073,
    -0.9597479701042175,
    0.48089927434921265,
    -0.7328565120697021,
    0.29366427659988403,
    0.19410936534404755,
    -0.7884340882301331,
    0.21455182135105133,
    -0.4524948298931122,
    -0.6264758110046387,
    0.37830594182014465,
    -0.25759273767471313,
    0.13107748329639435,
    -0.3251763582229614,
    -0.050864286720752716,
    0.8000171780586243,
    0.27106934785842896,
    0.5498496890068054,
    0.06683605164289474,
    -0.6697912812232971,
    -0.06380144506692886,
    0.22857756912708282,
    0.6986673474311829,
    -0.8824067711830139,
    0.03709203004837036,
    0.6821891665458679,
    -0.13336479663848877,
    -0.3864326775074005,
    -0.18023139238357544,
    -0.07545944303274155,
    0.5581057667732239,
    -0.8601032495498657,
    0.6184666752815247,
    0.617077648639679,
    0.04227074235677719,
    0.1376383751630783,
    -0.7527608871459961,
    0.8872592449188232,
    -0.20617356896400452,
    0.23554924130439758,
    0.43168559670448303,
    0.0040608360432088375,
    -0.48734018206596375,
    -0.2278193086385727,
    -0.5324031114578247,
    0.179928258061409,
    -0.6149922013282776,
    0.42488113045692444,
    -0.08708079159259796,
    0.649996817111969,
    -0.27933815121650696,
    -0.08931031823158264,
    -0.30095112323760986,
    -0.6583508849143982,
    0.31072163581848145,
    -0.4157586395740509,
    0.6471061706542969,
    0.19023790955543518,
    -0.7565248608589172,
    -0.5217622518539429,
    0.28353750705718994,
    0.5693643093109131,
    0.4069075882434845,
    -0.6631364226341248,
    -0.49241137504577637,
    -0.9094191193580627,
    -1.0154963731765747,
    0.19985331594944,
    -0.30614206194877625,
    -0.4411793053150177,
    0.42902812361717224,
    -1.0510393381118774,
    -0.7956430315971375,
    -0.7004983425140381,
    0.7619410157203674,
    1.0006548166275024,
    -0.047512318938970566,
    -0.2881625294685364,
    0.1236034631729126,
    0.9857491850852966,
    -0.6492065787315369,
    0.4128112494945526,
    0.2478594332933426,
    0.4823683500289917,
    0.570665717124939,
    -0.0647050216794014,
    -0.09251610189676285,
    -0.24914012849330902,
    0.7753857374191284,
    -0.5778886079788208,
    -0.3498724400997162,
    0.7369104027748108,
    -0.728165864944458,
    -0.5428698062896729,
    0.5895946025848389,
    0.12971001863479614,
    0.5787686705589294,
    0.8864622116088867,
    -0.1966971904039383,
    0.21208275854587555,
    -0.30757561326026917,
    0.05779650807380676,
    -0.053102970123291016,
    -0.5262095332145691,
    0.7450626492500305,
    0.8976134061813354,
    -0.2517968714237213,
    -0.5197036862373352,
    -0.5009879469871521,
    -1.2060635089874268,
    -0.5069950222969055,
    -1.0602941513061523,
    0.7584781646728516,
    -0.668300449848175,
    -0.9951397180557251,
    0.8352493643760681,
    -0.0394933745265007,
    -0.25064635276794434,
    -0.09510870277881622,
    0.8628793358802795,
    0.9314140677452087,
    -0.9398763179779053,
    -0.09536663442850113,
    -0.21642760932445526,
    -0.753654420375824,
    -0.15667948126792908,
    0.3558831810951233,
    0.48405012488365173,
    -0.4404003918170929,
    0.9421138763427734,
    -0.37735515832901,
    -0.49249452352523804,
    0.7607722282409668,
    -0.44208914041519165,
    0.20329469442367554,
    -0.6280626058578491,
    0.16582494974136353,
    0.6531804800033569,
    -0.22588807344436646,
    0.6558499932289124,
    -0.40380677580833435,
    -0.47983410954475403,
    -0.4069487750530243,
    0.4346187710762024,
    0.4286765158176422,
    -0.015310382470488548,
    -0.0010363733163103461,
    0.39521995186805725,
    -0.6945036053657532,
    0.3383130431175232,
    0.42839479446411133,
    -0.17462322115898132,
    -0.64051353931427,
    0.5260940790176392,
    -0.7623681426048279,
    0.960111141204834,
    0.8640850186347961,
    0.6172319650650024,
    1.0472499132156372,
    -0.5769023895263672,
    0.07622674852609634,
    -0.8433393239974976,
    -0.29583337903022766,
    0.6346064209938049,
    0.8425793647766113,
    -0.9263842701911926,
    -0.35125619173049927,
    -0.8349189162254333,
    -0.28507161140441895,
    -0.31582480669021606,
    0.7688530683517456,
    -0.7897253632545471,
    0.8055014610290527,
    -0.5320642590522766,
    -0.8166098594665527,
    0.3372635543346405,
    -1.087110996246338,
    -1.0250431299209595,
    0.5248950719833374,
    -0.05984148010611534,
    0.029279764741659164,
    0.414895623922348,
    -0.8203802704811096,
    0.4016264081001282,
    -0.07801385968923569,
    0.17467764019966125,
    -0.5675786733627319,
    0.6117063760757446,
    0.08974170684814453,
    -0.1278335154056549,
    -0.9386659264564514,
    0.2526739537715912,
    0.41602179408073425,
    -1.4696685075759888,
    -1.2167394161224365,
    -1.0121324062347412,
    0.6239044070243835,
    -0.4355418384075165,
    -0.7403242588043213,
    -1.1081513166427612,
    -0.8742542862892151,
    0.44205260276794434,
    -1.134952425956726,
    0.28650474548339844,
    -0.8205270767211914,
    0.15350137650966644,
    0.7673602104187012,
    -1.0471515655517578,
    0.27076399326324463,
    -1.0496652126312256,
    -0.6991207003593445,
    -0.9093746542930603,
    -0.8543103337287903,
    -0.4857114851474762,
    -0.2858867049217224,
    -0.572813868522644,
    0.18540579080581665,
    0.4978656768798828,
    0.9084977507591248,
    -0.7722551822662354,
    0.4685419499874115,
    0.5105579495429993,
    0.471809983253479,
    0.023408018052577972,
    0.8747541308403015,
    -0.7189982533454895,
    0.8951970934867859,
    0.2401789277791977,
    0.9101441502571106,
    -0.21738140285015106,
    0.0004969945875927806,
    0.14396893978118896,
    -0.11576703935861588,
    -0.2765098214149475,
    -0.5713062286376953,
    0.050511837005615234,
    -0.4851408898830414,
    -0.5262147188186646,
    -0.7746778726577759,
    0.9229639172554016,
    0.970764696598053,
    -0.6431240439414978,
    -0.06779424846172333,
    -0.40041521191596985,
    -0.13152454793453217,
    0.7528266310691833,
    0.7309967875480652,
    -0.8117864727973938,
    0.21577125787734985,
    0.1143198236823082,
    0.6072614789009094,
    0.5817721486091614,
    0.44967859983444214,
    0.01651754043996334,
    0.05440415069460869,
    1.0767767429351807,
    -0.17132285237312317,
    0.6257925033569336,
    0.6846261620521545,
    -0.33250123262405396,
    -0.03969106078147888,
    -0.29021719098091125,
    -1.0040282011032104,
    -0.9057193994522095,
    -0.690449595451355,
    -0.2833128273487091,
    -0.6462651491165161,
    0.7781076431274414,
    -0.34937959909439087,
    0.1951269805431366,
    -0.007716769352555275,
    -0.6201769113540649,
    -0.9508141279220581,
    0.48398008942604065,
    0.4299081563949585,
    0.7736583352088928,
    -0.23839415609836578,
    -0.13111065328121185,
    -0.5288223624229431,
    0.07206680625677109,
    0.4490484893321991,
    -0.2816252112388611,
    0.8435443043708801,
    0.6362563967704773,
    0.6988499760627747,
    0.3723301887512207,
    0.5969786643981934,
    0.6431434750556946,
    -0.274800568819046,
    -0.20337823033332825,
    0.009945015422999859,
    0.6457481384277344,
    -0.02445157617330551,
    0.5193127989768982,
    0.9844995737075806,
    -0.9767234921455383,
    -0.7634903788566589,
    -0.8893611431121826,
    0.11820848286151886,
    0.09551757574081421,
    0.2886134088039398,
    -0.37541934847831726,
    0.2319880723953247,
    0.34650078415870667,
    -0.6838212609291077,
    -0.1466158926486969,
    -1.3415786027908325,
    -1.2818281650543213,
    0.40285763144493103,
    -0.9831368327140808,
    0.7830827832221985,
    -0.07118961960077286,
    0.03145105019211769,
    0.4235197901725769,
    -0.41278696060180664,
    -0.13526186347007751,
    0.5933355093002319,
    -0.11256502568721771,
    -0.4199071228504181,
    0.6674884557723999,
    0.1050567701458931,
    -0.8917000889778137,
    0.727165162563324,
    -0.6077234148979187,
    -0.24529780447483063,
    1.0067620277404785,
    0.2376817762851715,
    -0.8549284934997559,
    0.3829938471317291,
    -0.1101219654083252,
    0.06275282055139542,
    0.8006837368011475,
    -0.5363885164260864,
    -0.13830557465553284,
    0.5415323376655579,
    0.587270975112915,
    0.8524834513664246,
    0.16785909235477448,
    -0.3092445433139801,
    -0.06103651598095894,
    0.6557497382164001,
    -0.12251678109169006,
    0.5125643610954285,
    0.30908191204071045,
    0.3671182096004486,
    0.021804047748446465,
    0.16659554839134216,
    0.17139029502868652,
    0.19358354806900024,
    -0.5339376330375671,
    0.01650628261268139,
    0.23917540907859802,
    -0.6028223037719727,
    0.5518084764480591,
    0.19662530720233917,
    0.7183724641799927,
    0.9955799579620361,
    0.5062443614006042,
    -0.453796923160553,
    0.8096045255661011,
    0.4808433949947357,
    0.17510107159614563,
    0.17472757399082184,
    0.16497524082660675,
    0.4184771180152893,
    -0.9311554431915283,
    0.568701446056366,
    0.11595545709133148,
    0.5077998042106628,
    0.6904417872428894,
    0.9866744875907898,
    0.5793448090553284,
    0.41796407103538513,
    0.3806333541870117,
    -0.8506761193275452,
    0.5893877148628235,
    -0.4022020995616913,
    -0.3535047173500061,
    -0.7822822332382202,
    0.30947810411453247,
    0.09027481079101562,
    -0.5129462480545044,
    -0.1094820648431778,
    1.0361825227737427,
    0.694963276386261,
    0.4688814878463745,
    0.9718030691146851,
    -0.9547221064567566,
    1.0724849700927734,
    0.2073802649974823,
    0.0767570286989212,
    0.31589749455451965,
    -0.2054046243429184,
    0.41069307923316956,
    0.46660763025283813,
    0.0022460801992565393,
    0.44655969738960266,
    0.7253240942955017,
    -0.3689383268356323,
    0.5796436667442322,
    -0.5925813913345337,
    -0.601940929889679,
    -0.7391106486320496,
    -0.0647241622209549,
    -0.7202184200286865,
    0.863459587097168,
    -0.146977499127388,
    -0.08249952644109726,
    -0.6445876955986023,
    0.8498281836509705,
    -0.3945697844028473,
    -0.09045877307653427,
    0.4489333927631378,
    -0.582688570022583,
    0.0108246561139822,
    0.6473742723464966,
    0.8652501106262207,
    0.3760334849357605,
    0.19288578629493713,
    0.2658645808696747,
    0.6844982504844666,
    0.8231671452522278,
    0.2918187379837036,
    0.56377112865448,
    -0.7175556421279907,
    -0.030707629397511482,
    0.31920501589775085,
    -0.09918932616710663,
    0.0017431050073355436,
    0.33933472633361816,
    -0.5133720636367798,
    -0.723778486251831,
    -0.41807764768600464,
    0.8616375923156738,
    0.6045144200325012,
    -0.3916744887828827,
    0.5369640588760376,
    0.6764757037162781,
    -0.2538071870803833,
    -0.6481257677078247,
    -0.7784349322319031,
    -0.49379849433898926,
    0.10577977448701859,
    -0.1259588599205017,
    -0.8272830247879028,
    -0.016086328774690628,
    -0.3067619800567627,
    -0.3331201374530792,
    -0.0660686120390892,
    -0.1424066573381424,
    -0.015785012394189835,
    0.5564572811126709,
    0.24228547513484955,
    0.2751274108886719,
    -0.5370352268218994,
    -0.6685472726821899,
    -0.2578207850456238,
    -0.21283449232578278,
    0.5796090960502625,
    0.3005034923553467,
    0.7099284529685974,
    0.31461408734321594,
    -0.43774327635765076,
    0.7380586266517639,
    0.21645870804786682,
    0.14185190200805664,
    -0.8853291869163513,
    -0.694858968257904,
    -0.3608030080795288,
    -0.9598097801208496,
    -0.33752697706222534,
    -0.17338575422763824,
    -0.6927995085716248,
    -0.8402391076087952,
    -0.9498859643936157,
    -1.0543713569641113,
    0.3182354271411896,
    -0.5905638933181763,
    -0.6412058472633362,
    -0.8477534651756287,
    -0.7642804980278015,
    0.5582784414291382,
    0.4121316969394684,
    0.08693339675664902,
    0.06435193866491318,
    -0.6647728681564331,
    -0.9303259253501892,
    0.10787171125411987,
    -0.2536988854408264,
    -1.0229438543319702,
    0.3856278955936432,
    0.06244968622922897,
    -0.5927414894104004,
    -0.283689022064209,
    -0.27786964178085327,
    0.4119907021522522,
    0.7015611529350281,
    -0.5262858867645264,
    -0.6516434550285339,
    0.5061026811599731,
    0.5423963069915771,
    -0.3911552131175995,
    -0.1986306756734848,
    -0.48568037152290344,
    -0.6399696469306946,
    -0.631498396396637,
    0.42699435353279114,
    0.06925436854362488,
    -0.27059900760650635,
    -0.5367082953453064,
    0.6821709275245667,
    0.6635366082191467,
    0.9092564582824707,
    -0.068711057305336,
    -0.6830664873123169,
    -0.0030988643411546946,
    -0.17225319147109985,
    0.6028321385383606,
    -0.4822853207588196,
    0.6755756735801697,
    0.44967660307884216,
    -0.8768503069877625,
    -0.4357038736343384,
    -0.8355056047439575,
    0.8210980296134949,
    -0.8199220895767212,
    -0.8658491373062134,
    -0.4765150547027588,
    -0.8449296355247498,
    0.3613407015800476,
    0.45588013529777527,
    -0.5026575922966003,
    -0.3590163290500641,
    0.46049487590789795,
    0.7496371269226074,
    -0.715689480304718,
    0.4229806959629059,
    -0.30817168951034546,
    0.1757264882326126,
    -1.0687555074691772,
    -0.9068597555160522,
    -0.5718777179718018,
    0.01684592291712761,
    0.1461503952741623,
    -0.7146004438400269,
    -0.11106860637664795,
    -0.7995112538337708,
    0.7839762568473816,
    -0.43737396597862244,
    -0.5247974991798401,
    -0.592441737651825,
    0.9804859757423401,
    -0.0872916504740715,
    -0.6217838525772095,
    0.14957664906978607,
    -0.08916296809911728,
    -0.16847003996372223,
    0.49866369366645813,
    -0.4700715243816376,
    -1.1529995203018188,
    -0.8157808780670166,
    -0.9828187823295593,
    -0.6076231002807617,
    0.8993953466415405,
    0.8947418928146362,
    0.126732736825943,
    -0.577854335308075,
    0.15382571518421173,
    0.6557809114456177,
    -0.16383273899555206,
    0.3097817599773407,
    -0.23848924040794373,
    -0.7619354128837585,
    0.24005399644374847,
    -0.17098957300186157,
    -0.8346145749092102,
    0.7306681871414185,
    0.16365450620651245,
    -0.5188960433006287
  ],
  "inputBiasWeights": [
    0.8674653768539429,
    0.1380719393491745,
    1.2771779298782349,
    0.9856550097465515,
    0.6089316606521606,
    0.5125775337219238,
    0.5301125645637512,
    1.01961350440979,
    0.09625798463821411,
    0.397810161113739,
    -0.7047297954559326,
    0.9714673757553101,
    0.65030837059021,
    -0.990917980670929,
    -0.6003739237785339,
    -1.0821597576141357,
    1.509856104850769,
    -0.38595694303512573,
    0.5985230207443237,
    0.013423407450318336,
    0.7716228365898132,
    -0.7049134969711304,
    0.3789256513118744,
    -0.4749496281147003,
    0.17040996253490448,
    -0.29782208800315857,
    0.23809155821800232,
    -0.7780582904815674,
    0.9759137630462646,
    0.39036181569099426,
    0.32348668575286865,
    -0.004143089521676302,
    0.35859671235084534,
    0.8138844966888428,
    -0.6541121602058411,
    -0.20591646432876587,
    0.2033536732196808,
    0.21700698137283325,
    -0.20051327347755432,
    1.1631029844284058,
    0.463229775428772,
    -0.5986157655715942,
    0.5884413719177246,
    -0.028777163475751877,
    -0.27660447359085083,
    -0.17006778717041016,
    -0.3542853593826294,
    0.07689562439918518,
    1.3218895196914673,
    1.091562032699585,
    0.20497161149978638,
    -0.2549823820590973,
    -0.7175331115722656,
    0.7796204090118408,
    -0.2180841565132141,
    0.3393699526786804,
    -0.6752936840057373,
    -0.5959754586219788,
    0.11222853511571884,
    0.3051862418651581,
    0.2781307101249695,
    -0.09521929174661636,
    -0.14274826645851135,
    0.9292188286781311,
    -0.008489619009196758,
    -0.028592295944690704,
    0.34529343247413635,
    0.3126246929168701,
    -0.058995503932237625,
    0.09600093960762024,
    0.12997975945472717,
    -1.0288032293319702,
    0.16352535784244537,
    1.0071396827697754,
    -0.5343356728553772,
    -1.017029881477356,
    0.45030760765075684,
    0.4204237461090088,
    -0.2197423130273819,
    0.24810636043548584,
    -0.3272269070148468,
    0.37527474761009216,
    -0.9045955538749695,
    0.6272516250610352,
    0.8272897601127625,
    -1.3757437467575073,
    -0.34718361496925354,
    0.7032172679901123,
    0.27300792932510376,
    -0.3285921514034271,
    -0.11173493415117264,
    -0.13077513873577118,
    0.2383681982755661,
    0.9985185861587524,
    0.1562434285879135,
    -0.20911560952663422,
    -0.28092941641807556,
    -0.022748025134205818,
    1.081453561782837,
    0.3754650354385376,
    -0.43832507729530334,
    -0.4460538327693939,
    -0.7173202633857727,
    0.4955110251903534,
    0.4037667512893677,
    0.7982518076896667,
    0.818557620048523,
    0.5617444515228271,
    0.5477983951568604,
    0.5520350337028503,
    1.6353811025619507,
    -0.4465743601322174,
    0.4320826232433319,
    1.0143694877624512,
    0.6974095702171326,
    -0.5616114139556885,
    -0.2696611285209656,
    -0.2072141021490097,
    -0.11726590991020203,
    0.11032310873270035,
    1.1910035610198975,
    -0.5777693390846252,
    -0.19918736815452576,
    -0.707768440246582,
    -1.290409803390503,
    -0.3371884226799011,
    0.26125359535217285,
    -0.08919920027256012,
    -0.1468988060951233,
    0.19514524936676025,
    0.3117055892944336,
    -0.08655722439289093,
    0.2673969864845276,
    0.9771311283111572,
    -0.17896856367588043,
