{
  "hiddenBiasWeights": [
    0.11482492089271545,
    0.09354370832443237,
    -0.6539896726608276,
    -0.23669739067554474,
    -0.6222947239875793,
    0.12287241965532303,
    0.2210269421339035,
    0.708676815032959,
    0.2513200342655182,
    0.3546031713485718,
    -0.4210769534111023,
    0.7435727119445801,
    0.9450640678405762,
    -0.3519928455352783,
    0.32694464921951294,
    -0.6320978999137878,
    0.3438551127910614,
    -0.10562176257371902,
    0.03527427092194557,
    -0.5017135739326477,
    -0.11560331284999847,
    -0.5301575064659119,
    -0.401369571685791,
    0.11461050063371658,
    0.44481027126312256,
    -0.2253064215183258,
    -0.9179757833480835,
    -0.8055937886238098
  ],
  "hiddenNodes": 138,
  "hiddenWeights": [
    -0.017209570854902267,
    -0.28781354427337646,
    0.9045343995094299,
    0.9519192576408386,
    -0.6781689524650574,
    0.9120418429374695,
    -0.6099082231521606,
    -0.18638861179351807,
    0.2343653440475464,
    0.5100563764572144,
    0.46769270300865173,
    -0.4160256087779999,
    0.7705788612365723,
    -0.5632181167602539,
    0.7981256246566772,
    0.8519258499145508,
    0.12765194475650787,
    -0.8627248406410217,
    -0.9326730370521545,
    0.6626015305519104,
    -0.9634127020835876,
    -0.9843582510948181,
    -0.20549269020557404,
    -1.1451051235198975,
    -0.6059885621070862,
    0.9104403257369995,
    0.8324475884437561,
    -0.9075309634208679,
    -0.42663341760635376,
    0.30215394496917725,
    -0.739973783493042,
    0.3503008782863617,
    -0.5677229762077332,
    0.013080800883471966,
    0.13509339094161987,
    0.5504772067070007,
    0.8672032356262207,
    0.680604875087738,
    -0.3624156713485718,
    -0.9168022871017456,
    0.38614749908447266,
    -0.44114330410957336,
    0.05173444747924805,
    -0.6053392291069031,
    0.23282913863658905,
    0.21998073160648346,
    0.6917884945869446,
    0.8013622760772705,
    0.829361617565155,
    0.8917737603187561,
    0.027129292488098145,
    -0.27666139602661133,
    0.09703860431909561,
    0.8507106304168701,
    -0.41397950053215027,
    0.007754466962069273,
    0.0893087163567543,
    -0.6584473848342896,
    0.6391474604606628,
    0.571557343006134,
    -0.7190176248550415,
    0.05808812379837036,
    -1.1111334562301636,
    -1.0560327768325806,
    0.07766922563314438,
    0.7630543112754822,
    0.5184854865074158,
    -0.3124218285083771,
    -0.1528329700231552,
    0.13070571422576904,
    0.08279252797365189,
    -0.6050320863723755,
    -0.761506974697113,
    0.42953580617904663,
    -0.8905913233757019,
    0.808910071849823,
    0.2252287119626999,
    -0.18758632242679596,
    -1.0189735889434814,
    0.4928871691226959,
    -0.8803595304489136,
    -0.2699965536594391,
    -0.19063526391983032,
    -0.1686030924320221,
    0.9739845991134644,
    -0.9581550359725952,
    0.9092923402786255,
    0.23193621635437012,
    0.17376050353050232,
    -0.043775804340839386,
    0.015216866508126259,
    -0.3777220845222473,
    0.17811833322048187,
    0.5003098249435425,
    0.08508402109146118,
    0.28288304805755615,
    0.5099215507507324,
    -0.3752574324607849,
    0.35253992676734924,
    -0.8654190301895142,
    -0.0420805923640728,
    0.8768560290336609,
    0.20077209174633026,
    0.35673412680625916,
    0.560860812664032,
    -0.04110773652791977,
    0.2011421173810959,
    -0.6037521362304688,
    -0.17395491898059845,
    0.9032413959503174,
    0.1989518254995346,
    -0.14218519628047943,
    0.7024716734886169,
    0.12912814319133759,
    0.23344667255878448,
    -0.666742742061615,
    -0.029264692217111588,
    0.3865199387073517,
    0.8856834769248962,
    0.4567405879497528,
    -0.13331182301044464,
    0.3830520510673523,
    0.4886738657951355,
    -0.7299882173538208,
    -0.7177727818489075,
    -0.4124148488044739,
    -0.12217801809310913,
    0.12688054144382477,
    -0.4830233156681061,
    0.019786296412348747,
    0.3988592028617859,
    0.3668139576911926,
    0.6887425780296326,
    -0.06012114882469177,
    0.7353361248970032,
    1.0454260110855103,
    0.08501553535461426,
    0.5568035840988159,
    0.6732584238052368,
    0.7592940330505371,
    0.1991889774799347,
    0.7241983413696289,
    -0.036219872534275055,
    -0.8184657692909241,
    -0.356246680021286,
    0.14102470874786377,
    0.6667226552963257,
    -0.06398341804742813,
    0.7656835913658142,
    -0.8685373067855835,
    0.08448005467653275,
    0.7295389175415039,
    0.5310114622116089,
    -0.5132030844688416,
    0.06588450074195862,
    0.46456849575042725,
    0.0011510892072692513,
    -0.30806711316108704,
    -0.2409193366765976,
    -0.05545160174369812,
    -0.10529434680938721,
    0.47513559460639954,
    0.8772229552268982,
    0.026162676513195038,
    0.03498592600226402,
    -0.8989172577857971,
    0.345088392496109,
    0.2850803732872009,
    0.135382279753685,
    0.3492964804172516,
    0.37552958726882935,
    0.04488318786025047,
    0.8843056559562683,
    -0.8539203405380249,
    -1.1440485715866089,
    -1.1599915027618408,
    -0.8408395051956177,
    0.14237374067306519,
    0.5694713592529297,
    0.9332713484764099,
    -0.5266909003257751,
    -0.852634072303772,
    -0.08206745982170105,
    -0.2749406397342682,
    -0.3708442449569702,
    -0.0943213552236557,
    0.7492550611495972,
    -0.30299511551856995,
    0.8807180523872375,
    -0.30876514315605164,
    -0.594559371471405,
    0.6665761470794678,
    -0.21102307736873627,
    -0.5698848962783813,
    -0.5726495385169983,
    -0.3190710246562958,
    -0.5287916660308838,
    0.9291464686393738,
    -0.6734163165092468,
    0.32008326053619385,
    -0.415525883436203,
    -0.279512882232666,
    0.30344024300575256,
    -0.7935765981674194,
    -0.06950397044420242,
    -0.3737131357192993,
    -0.1852685809135437,
    -0.6037106513977051,
    -0.3559214770793915,
    -0.6442338824272156,
    0.47592708468437195,
    0.25578972697257996,
    0.7353619337081909,
    -0.7702128291130066,
    -0.36353394389152527,
    -0.10761871933937073,
    -0.6372616291046143,
    -0.2853921353816986,
    0.1404891014099121,
    0.26771026849746704,
    0.9777559638023376,
    0.5242230892181396,
    0.9451122283935547,
    0.6299826502799988,
    0.4339306950569153,
    0.5741126537322998,
    -0.3420701324939728,
    -0.514679491519928,
    0.37937265634536743,
    -0.6949816346168518,
    0.03461301326751709,
    -0.5271981954574585,
    -0.3953580856323242,
    -0.0528709851205349,
    0.29956144094467163,
    0.49468696117401123,
    -0.18083587288856506,
    0.5666823983192444,
    -0.9144386649131775,
    -0.04652690142393112,
    -0.30949631333351135,
    0.7560835480690002,
    -0.8319558501243591,
    0.44304004311561584,
    -0.8049930334091187,
    0.18866634368896484,
    0.3963719606399536,
    0.7682274580001831,
    -0.5979573726654053,
    -0.41544467210769653,
    0.09427498281002045,
    -0.13275644183158875,
    -0.19772598147392273,
    0.23161005973815918,
    -0.5908758044242859,
    -0.27734464406967163,
    -0.7278081178665161,
    -0.06842656433582306,
    -0.33953604102134705,
    -0.3992297351360321,
    0.4857789874076843,
    0.20058490335941315,
    0.47517910599708557,
    -0.8308847546577454,
    0.5052115321159363,
    -0.5141054391860962,
    0.9190537333488464,
    -0.7789319157600403,
    0.10384625196456909,
    0.3846830427646637,
    -0.4661683142185211,
    -0.5380702614784241,
    0.031840577721595764,
    -0.23753374814987183,
    0.7183747291564941,
    0.7269296646118164,
    0.8168584704399109,
    0.753090500831604,
    0.37188535928726196,
    0.3798483908176422,
    -0.722374439239502,
    -0.06765434145927429,
    -0.6174055933952332,
    0.29739004373550415,
    -0.7617472410202026,
    0.18231219053268433,
    -0.25007712841033936,
    0.5833806991577148,
    0.8654244542121887,
    0.6837309002876282,
    0.8694482445716858,
    -0.7606488466262817,
    -0.7202044129371643,
    0.3546993136405945,
    -0.6802545189857483,
    0.38926130533218384,
    0.8831489682197571,
    -0.15037484467029572,
    -0.7878937721252441,
    -0.26070159673690796,
    -0.12818939983844757,
    -0.10329803079366684,
    1.0585860013961792,
    0.05146912857890129,
    -0.6402072906494141,
    0.9207454919815063,
    -0.09620126336812973,
    -0.2740700840950012,
    -0.6638504266738892,
    -0.697799026966095,
    0.5975514054298401,
    0.6933382153511047,
    -0.6378796696662903,
    0.6382180452346802,
    0.40180882811546326,
    0.13222162425518036,
    0.8394030332565308,
    -0.16453184187412262,
    0.15512287616729736,
    0.2901277542114258,
    -0.36671751737594604,
    -0.3386063575744629,
    0.7407205104827881,
    0.6297794580459595,
    0.5123655200004578,
    1.1022272109985352,
    0.8745401501655579,
    -0.8614316582679749,
    0.3104923665523529,
    -0.1302325278520584,
    -0.24110360443592072,
    0.23003451526165009,
    -0.23060114681720734,
    0.12851664423942566,
    -0.15841619670391083,
    0.37459397315979004,
    -0.6649886965751648,
    -0.7297186255455017,
    -0.5163500905036926,
    0.047770287841558456,
    0.13654232025146484,
    0.40057721734046936,
    1.169634461402893,
    1.198562502861023,
    -0.12780579924583435,
    -0.1738555133342743,
    0.2708674669265747,
    0.738663375377655,
    -0.10689026862382889,
    -0.2915709912776947,
    1.1690406799316406,
    -0.3077373504638672,
    1.0124099254608154,
    0.4732121229171753,
    -0.23643720149993896,
    0.45610421895980835,
    -0.7031511664390564,
    1.0212833881378174,
    1.0123447179794312,
    0.43605080246925354,
    0.2924116849899292,
    0.6413353681564331,
    0.9321922063827515,
    0.363558292388916,
    -0.8894845843315125,
    0.44219735264778137,
    0.8950032591819763,
    -0.3302570879459381,
    0.9116632342338562,
    -0.13745516538619995,
    0.19388610124588013,
    -0.2921837270259857,
    -0.9487214684486389,
    0.7094773650169373,
    0.5922495722770691,
    -0.9499093294143677,
    -0.5208962559700012,
    -0.5558697581291199,
    -0.5133460760116577,
    0.36792463064193726,
    -0.8617979288101196,
    -0.21843580901622772,
    0.7799494862556458,
    -0.4407470226287842,
    -0.6484473347663879,
    -0.04390639811754227,
    0.4730285406112671,
    0.05390114709734917,
    0.18296627700328827,
    -0.7028524875640869,
    0.7392058968544006,
    -0.20970191061496735,
    -0.6702799797058105,
    -0.8823140859603882,
    -0.680923581123352,
    -0.9689866304397583,
    0.2096249759197235,
    -0.5401368141174316,
    -0.35686564445495605,
    -0.3324616551399231,
    0.20721691846847534,
    -0.4276384115219116,
    -0.6158163547515869,
    -0.3281666040420532,
    1.079492449760437,
    -0.8875495195388794,
    -0.341073215007782,
    -0.857143759727478,
    -0.4598524868488312,
    -0.26733091473579407,
    0.0033981255255639553,
    0.7662988305091858,
    -1.0367910861968994,
    -0.65732741355896,
    -0.6476582884788513,
    -0.5054510235786438,
    -0.08993552625179291,
    0.07175595313310623,
    0.0030547466594725847,
    0.16807182133197784,
    0.2706393599510193,
    0.8623654842376709,
    -0.6833889484405518,
    -0.659416913986206,
    0.051465027034282684,
    0.7532479763031006,
    -0.27537602186203003,
    0.14443837106227875,
    0.33372005820274353,
    0.7945552468299866,
    -0.5179751515388489,
    -0.8304011821746826,
    -0.6078277826309204,
    0.16766665875911713,
    0.40952199697494507,
    0.882428765296936,
    -0.3310689628124237,
    0.8229259252548218,
    0.6538066267967224,
    0.21536090970039368,
    0.19639120995998383,
    0.20690451562404633,
    -0.8423834443092346,
    -0.5021216869354248,
    -0.5551550984382629,
    -0.03301792964339256,
    0.7258650064468384,
    0.8894397616386414,
    -0.28183141350746155,
    0.3561163544654846,
    0.18402066826820374,
    -0.5215365886688232,
    0.8821024894714355,
    0.6240348219871521,
    0.42389345169067383,
    1.0331213474273682,
    0.027203593403100967,
    0.8679524064064026,
    0.8377217650413513,
    -0.32170698046684265,
    -0.44871237874031067,
    0.14382900297641754,
    -0.11234414577484131,
    -0.018655920401215553,
    -0.2656857371330261,
    -0.6866361498832703,
    0.7790980339050293,
    -0.7249737977981567,
    0.03491588309407234,
    0.2532960772514343,
    1.0051952600479126,
    0.6472717523574829,
    -0.35195717215538025,
    -0.074665367603302,
    -0.18192976713180542,
    0.6547084450721741,
    -0.9544073343276978,
    -0.7222296595573425,
    0.6336888670921326,
    0.28387874364852905,
    0.09019896388053894,
    0.15745501220226288,
    0.044863276183605194,
    -0.9497891068458557,
    0.3391966223716736,
    -0.5997506976127625,
    0.4614031910896301,
    0.6171717047691345,
    0.8579026460647583,
    0.015390574000775814,
    -0.8902882933616638,
    -1.0947822332382202,
    0.3126232326030731,
    -1.1508582830429077,
    -0.5515572428703308,
    -0.13605089485645294,
    -0.9858043193817139,
    -1.0444947481155396,
    0.5103778839111328,
    -0.5895967483520508,
    -0.7825338840484619,
    -0.3447153866291046,
    -0.7162443995475769,
    -0.47506365180015564,
    -0.6907086372375488,
    0.24442526698112488,
    -0.3585973381996155,
    0.9741687178611755,
    0.6195769906044006,
    0.20664843916893005,
    0.41088807582855225,
    0.62849360704422,
    -0.32481318712234497,
    0.61649489402771,
    -0.28531038761138916,
    0.26402708888053894,
    0.8085166215896606,
    0.2691454589366913,
    -0.48100388050079346,
    -0.2730233669281006,
    0.2690902650356293,
    0.04270382598042488,
    -0.9113043546676636,
    -0.032565630972385406,
    -0.04096674546599388,
    0.7077547907829285,
    0.19856327772140503,
    0.783111572265625,
    0.08384044468402863,
    -0.19116102159023285,
    -0.8042477369308472,
    -0.9045396447181702,
    -0.6837401986122131,
    0.11359602212905884,
    -0.6324095726013184,
    0.6466026902198792,
    0.5773131847381592,
    0.8507121801376343,
    0.7718612551689148,
    -0.4476911127567291,
    0.9624547958374023,
    0.17332808673381805,
    -0.5215888619422913,
    -0.7612695097923279,
    0.40769803524017334,
    0.07602595537900925,
    0.9245753288269043,
    0.6202437281608582,
    0.01862683705985546,
    0.41016846895217896,
    0.5214866399765015,
    0.16835765540599823,
    0.4853840172290802,
    -0.8628115057945251,
    0.8920941352844238,
    -0.8239078521728516,
    0.4864978492259979,
    -0.7523037195205688,
    0.10742595046758652,
    0.95424884557724,
    0.037066079676151276,
    0.10675148665904999,
    -0.6920765042304993,
    0.5085868239402771,
    -0.7907988429069519,
    -0.8945439457893372,
    -0.13988232612609863,
    -1.1607215404510498,
    -0.0898066833615303,
    0.2269226461648941,
    0.9221556186676025,
    0.07581621408462524,
    -0.9153714776039124,
    -0.8634698987007141,
    -0.518485426902771,
    -0.7026874423027039,
    -0.126304030418396,
    -0.9433693289756775,
    -0.46752282977104187,
    0.38293933868408203,
    0.7751405239105225,
    0.22735539078712463,
    0.7497985363006592,
    0.7469179034233093,
    0.5066887736320496,
    -0.37481656670570374,
    -0.35068222880363464,
    0.5823370218276978,
    0.6597312688827515,
    0.3184863030910492,
    -0.8133596777915955,
    -0.2964542806148529,
    -0.15726034343242645,
    -0.0503600537776947,
    0.33486315608024597,
    0.9604695439338684,
    -0.4811798632144928,
    -0.7376838326454163,
    -0.40386804938316345,
    0.13680517673492432,
    -0.040871407836675644,
    0.09354722499847412,
    -0.5628926753997803,
    -0.6905449628829956,
    0.21500203013420105,
    0.41282325983047485,
    -0.7790912389755249,
    -0.04638120159506798,
    0.5384503602981567,
    0.5882188677787781,
    -0.13787654042243958,
    -0.5407724976539612,
    0.3362378180027008,
    -0.6094141006469727,
    0.3405710458755493,
    1.0066657066345215,
    -0.10295025259256363,
    -0.1163521260023117,
    -0.3702166974544525,
    0.8540932536125183,
    -0.10787687450647354,
    -0.46773162484169006,
    -1.335017204284668,
    -0.7366152405738831,
    0.18175062537193298,
    0.8829853534698486,
    -0.49168017506599426,
    -0.9513179063796997,
    0.7341304421424866,
    0.009775355458259583,
    -0.08146063983440399,
    0.27484411001205444,
    -0.6904321312904358,
    0.16945010423660278,
    -0.36109235882759094,
    0.43488407135009766,
    -0.09633401781320572,
    0.47911834716796875,
    -0.928165853023529,
    -0.2260248214006424,
    1.0524981021881104,
    -0.5429147481918335,
    0.23348215222358704,
    -0.1520274132490158,
    0.4896300435066223,
    0.92611163854599,
    -0.2521156966686249,
    -0.5338735580444336,
    -0.7618092894554138,
    0.18046090006828308,
    -0.6113926768302917,
    -0.631706953048706,
    -0.8196351528167725,
    -0.15768054127693176,
    -0.2399636059999466,
    -0.4222915768623352,
    0.8129581809043884,
    0.3671207129955292,
    0.19574373960494995,
    -0.29596301913261414,
    -0.2131771743297577,
    -0.02708413638174534,
    -0.26523128151893616,
    0.37032458186149597,
    0.024577967822551727,
    -0.3119514584541321,
    0.7686709761619568,
    -0.35794496536254883,
    -0.5265902280807495,
    0.47791236639022827,
    -0.7242977023124695,
    -0.09046254307031631,
    0.40738022327423096,
    0.5199077725410461,
    0.1885795295238495,
    0.24128811061382294,
    0.2947785556316376,
    -0.2431212216615677,
    -1.0542798042297363,
    -0.8359150290489197,
    -0.9717939496040344,
    -0.6398230791091919,
    0.3991538882255554,
    -0.3649870455265045,
    -0.4718591868877411,
    -0.08266737312078476,
    -0.32720500230789185,
    -0.32609865069389343,
    -0.156106099486351,
    0.62099689245224,
    -0.5456212759017944,
    0.2538667321205139,
    -0.5951200127601624,
    -0.39996716380119324,
    -0.6829974055290222,
    -1.071305274963379,
    -0.2737659215927124,
    0.8267976641654968,
    -0.07054709643125534,
    0.7682765126228333,
    0.5591146945953369,
    -0.07905237376689911,
    0.07771734893321991,
    -0.0692962110042572,
    0.8974342942237854,
    -0.9910337328910828,
    0.0742901861667633,
    -0.028590967878699303,
    0.7314257025718689,
    -0.7252236604690552,
    -0.04827144369482994,
    0.36048394441604614,
    -0.05002951622009277,
    0.9900754690170288,
    0.40982604026794434,
    0.46796369552612305,
    0.4286595582962036,
    -0.06779537349939346,
    -0.25582942366600037,
    0.7595937848091125,
    -0.7851870059967041,
    0.807468831539154,
    -0.6439068913459778,
    1.0127564668655396,
    -0.2869473397731781,
    -0.5371972918510437,
    -0.6654853820800781,
    0.8196865916252136,
    -0.6811440587043762,
    0.1609629988670349,
    0.06617187708616257,
    -0.06372622400522232,
    0.24626067280769348,
    -0.6450908780097961,
    0.14194419980049133,
    -0.051671698689460754,
    0.04360468313097954,
    -0.22415727376937866,
    -0.8563766479492188,
    -0.3980368971824646,
    0.7877277135848999,
    0.1923374980688095,
    1.0151947736740112,
    -0.615298330783844,
    0.5133196115493774,
    -0.5583494305610657,
    0.7001739144325256,
    0.5276577472686768,
    -0.16019697487354279,
    -0.41700834035873413,
    0.2828023135662079,
    -0.7598862648010254,
    -0.9356504082679749,
    0.488296777009964,
    -0.0448087602853775,
    0.6720184683799744,
    -0.8062979578971863,
    0.05103013664484024,
    -0.36530840396881104,
    0.4721868336200714,
    -0.6565713286399841,
    0.41427236795425415,
    0.6435990333557129,
    0.33749571442604065,
    -0.01693638041615486,
    -0.2003042995929718,
    -0.2219776213169098,
    0.8341321349143982,
    -0.3098669946193695,
    0.8328484296798706,
    -0.7922756671905518,
    0.14124269783496857,
    -0.8516765236854553,
    0.3527509570121765,
    -0.1947271078824997,
    -0.8726990818977356,
    0.7819730043411255,
    0.8746989369392395,
    0.19595900177955627,
    0.5159722566604614,
    0.22808122634887695,
    -0.9204738140106201,
    0.8760493397712708,
    0.16163885593414307,
    0.28481751680374146,
    -0.6688826680183411,
    -0.609704315662384,
    0.7088155746459961,
    0.9624121785163879,
    -0.9422573447227478,
    -0.35585421323776245,
    0.2603035271167755,
    0.7394150495529175,
    0.025147514417767525,
    -0.5354456901550293,
    -0.3318083882331848,
    -0.11725548654794693,
    -0.6141015291213989,
    -0.870356559753418,
    0.6305727958679199,
    0.18538156151771545,
    -0.09290997684001923,
    -0.6830434203147888,
    -0.553687334060669,
    0.3921816349029541,
    -0.5839105844497681,
    -0.7698059678077698,
    0.7727683186531067,
    -0.8465259671211243,
    -0.6602849960327148,
    -0.039197057485580444,
    0.2246100902557373,
    0.8264247179031372,
    0.4884626865386963,
    0.2639264762401581,
    -0.3409666419029236,
    -0.6280844807624817,
    -0.3049437701702118,
    -0.7035543918609619,
    -0.17118096351623535,
    -0.8265178203582764,
    -0.830377995967865,
    -0.464039146900177,
    -0.1250714361667633,
    0.09899666905403137,
    0.9304765462875366,
    0.1594986468553543,
    -0.5756908059120178,
    0.3523816168308258,
    0.19256962835788727,
    -0.9097280502319336,
    0.8404505848884583,
    -0.13300281763076782,
    0.22683227062225342,
    0.3365049660205841,
    -0.11948695033788681,
    -0.8687047362327576,
    0.850156843662262,
    -0.6797313094139099,
    -0.44801002740859985,
    0.4137199819087982,
    -0.7388760447502136,
    0.4641321003437042,
    -0.503455400466919,
    0.5776486992835999,
    0.7976343631744385,
    -0.09347224235534668,
    0.14169089496135712,
    1.0272293090820312,
    -0.5417893528938293,
    0.5995374917984009,
    -0.050317831337451935,
    0.2539750337600708,
    -0.0329461507499218,
    0.7766042351722717,
    0.23721079528331757,
    0.5129942893981934,
    0.4208787977695465,
    -0.0563870370388031,
    0.32534974813461304,
    -0.6424492597579956,
    -0.43474462628364563,
    -0.6409895420074463,
    0.17750607430934906,
    -0.006855630315840244,
    -0.7908025979995728,
    -0.6659438610076904,
    0.004621606785804033,
    0.6830040216445923,
    -0.5708918571472168,
    -0.9904236793518066,
    -0.08220934867858887,
    0.9791613817214966,
    -0.7958049774169922,
    -0.5078806281089783,
    0.7254531383514404,
    -0.7777453660964966,
    -0.729891300201416,
    0.9667665362358093,
    -0.9568806290626526,
    0.06493785977363586,
    0.03525334969162941,
    -0.3007567226886749,
    0.29635435342788696,
    -0.6087363362312317,
    -0.08478805422782898,
    0.41550830006599426,
    0.7864159345626831,
    -0.38387414813041687,
    0.5905627608299255,
    0.0752003937959671,
    -0.3764551281929016,
    -0.4794333875179291,
    -0.29340821504592896,
    -0.2100065052509308,
    -0.7698876857757568,
    -0.5134193897247314,
    -0.7539238333702087,
    -0.874691903591156,
    -0.36446094512939453,
    -0.8910739421844482,
    0.07798733562231064,
    -0.898567795753479,
    0.5362340807914734,
    0.17914390563964844,
    -0.34057024121284485,
    0.7978034019470215,
    -0.8599076271057129,
    -0.7550943493843079,
    -0.24979037046432495,
    -0.6600457429885864,
    -0.015736475586891174,
    -0.7125775218009949,
    -0.4475109577178955,
    -0.8197126388549805,
    0.6591086387634277,
    -0.34462910890579224,
    -0.8802507519721985,
    0.5939096808433533,
    -1.0205743312835693,
    -0.3531552851200104,
    -0.5044862627983093,
    0.23396815359592438,
    -0.5252671837806702,
    0.8764498829841614,
    0.9095502495765686,
    0.18324945867061615,
    0.31601113080978394,
    -0.3026171624660492,
    0.25291338562965393,
    0.17024566233158112,
    0.4816642999649048,
    0.40046781301498413,
    -0.42770591378211975,
    -0.0780915766954422,
    -0.7142926454544067,
    1.0649155378341675,
    0.850357174873352,
    -0.5340129137039185,
    0.15368340909481049,
    0.4805569052696228,
    0.2201434075832367,
    -0.8631407022476196,
    0.954521894454956,
    0.4083006978034973,
    0.10961563140153885,
    1.0539058446884155,
    -0.7845598459243774,
    -0.8220628499984741,
    0.032241299748420715,
    0.8595576882362366,
    0.7892524003982544,
    -0.8509293794631958,
    -0.4741103947162628,
    -0.289970338344574,
    0.42535683512687683,
    0.6282705068588257,
    -0.4549131989479065,
    -0.5589497685432434,
    -0.514870822429657,
    0.2387312650680542,
    -0.47418269515037537,
    -0.4713088870048523,
    -0.13780060410499573,
    -0.6833211183547974,
    0.7857263684272766,
    0.2658643424510956,
    -0.6808703541755676,
    -0.24941907823085785,
    -0.8086102604866028,
    0.6188676953315735,
    -0.421263188123703,
    0.00923884380608797,
    0.8156569600105286,
    0.21983130276203156,
    0.46343931555747986,
    0.1401548534631729,
    0.5131663084030151,
    0.9201400279998779,
    0.1117887794971466,
    -0.7151757478713989,
    -0.8790928721427917,
    -0.3486255705356598,
    -0.2212628275156021,
    -0.1986890435218811,
    -0.10712751746177673,
    1.0519702434539795,
    0.5757702589035034,
    -0.36150357127189636,
    0.3259548842906952,
    0.7471944093704224,
    0.07169416546821594,
    0.4833729863166809,
    0.7586416006088257,
    0.24230703711509705,
    0.3495687246322632,
    -0.02500731125473976,
    -0.11898182332515717,
    0.6830586791038513,
    -0.2473301738500595,
    0.3205975890159607,
    -0.8603112697601318,
    0.2851291596889496,
    -0.046905189752578735,
    0.283878892660141,
    -0.598297119140625,
    0.1865548938512802,
    0.6508578658103943,
    -0.6935656070709229,
    0.35767343640327454,
    -0.5245771408081055,
    0.0971202552318573,
    -0.8762398958206177,
    -0.580711841583252,
    0.9549677968025208,
    -0.5133965015411377,
    0.17849700152873993,
    -0.1501641422510147,
    0.996840238571167,
    -0.09194959700107574,
    0.8247647285461426,
    0.22420050203800201,
    0.8821482062339783,
    0.3892257809638977,
    -0.13820958137512207,
    0.6331339478492737,
    -0.001364242983981967,
    0.24499936401844025,
    -0.8355041742324829,
    0.7322105169296265,
    0.7875522971153259,
    -0.6676503419876099,
    0.9050737619400024,
    -0.8199180960655212,
    0.17719902098178864,
    -0.7978100180625916,
    -0.7983257174491882,
    0.27321168780326843,
    0.6210148930549622,
    0.2852458357810974,
    0.6870987415313721,
    0.3434174954891205,
    -0.35189029574394226,
    -0.12238310277462006,
    0.09422122687101364,
    0.4159601032733917,
    -0.6125932931900024,
    0.3982143998146057,
    -0.09725267440080643,
    -0.2254406213760376,
    -1.1000124216079712,
    -0.9952012300491333,
    0.08131219446659088,
    -0.4112473130226135,
    -0.018877876922488213,
    -0.9673261046409607,
    -0.2236812710762024,
    -0.8450543880462646,
    -1.0442280769348145,
    -0.32134929299354553,
    -0.47946247458457947,
    0.07811418175697327,
    0.6106123924255371,
    -0.2567063271999359,
    0.35191482305526733,
    0.40888839960098267,
    0.02443712390959263,
    -0.2701835632324219,
    0.19771067798137665,
    -0.20819629728794098,
    -0.15891921520233154,
    0.5291197896003723,
    1.0355784893035889,
    -0.08568032085895538,
    0.6471960544586182,
    0.6016121506690979,
    0.21579068899154663,
    -0.09480858594179153,
    0.1125296801328659,
    0.5570865869522095,
    0.9510775208473206,
    0.3321062922477722,
    -0.9036591053009033,
    0.03333689644932747,
    0.2589840888977051,
    0.9867400527000427,
    -0.5871762037277222,
    0.08618848025798798,
    -0.8146970272064209,
    0.7401033639907837,
    -0.4414943754673004,
    0.8472974300384521,
    0.7568910121917725,
    0.5651485323905945,
    -0.20565389096736908,
    -0.3502921462059021,
    0.36936718225479126,
    -0.44054198265075684,
    -0.5151901245117188,
    -1.0723150968551636,
    0.4559539258480072,
    0.9353998303413391,
    -0.21683871746063232,
    -0.3402046263217926,
    0.9890703558921814,
    -0.5406044125556946,
    0.3921242654323578,
    0.5497656464576721,
    0.6484310626983643,
    -0.2813017666339874,
    0.306119441986084,
    0.4366539418697357,
    -0.9967154264450073,
    -0.4602620005607605,
    -0.7308961749076843,
    -0.6100399494171143,
    -0.697880744934082,
    0.1793721467256546,
    -0.5049826502799988,
    0.11441316455602646,
    0.36634671688079834,
    -0.6208006143569946,
    -0.9929667711257935,
    -0.8153718709945679,
    -0.9958663582801819,
    0.946255087852478,
    0.23565000295639038,
    -0.031924471259117126,
    -0.7269572019577026,
    0.49549174308776855,
    -0.3712770938873291,
    -0.15253214538097382,
    0.5205705165863037,
    0.6611385345458984,
    0.20598861575126648,
    -0.8268967270851135,
    -0.14759624004364014,
    0.6157456636428833,
    0.6214048266410828,
    -1.0199503898620605,
    -0.882307767868042,
    0.4712703227996826,
    0.48369675874710083,
    0.3269493877887726,
    0.3186124861240387,
    0.7704681754112244,
    0.2442265748977661,
    -0.8235836625099182,
    -0.5132781863212585,
    -0.6174752712249756,
    0.5184283256530762,
    -0.09893639385700226,
    0.5468929409980774,
    -0.9756097197532654,
    -1.6028227806091309,
    -0.9329531192779541,
    0.10352244973182678,
    0.45323479175567627,
    0.4196722209453583,
    0.026068562641739845,
    -0.7576065063476562,
    -0.40874484181404114,
    0.5468848347663879,
    0.016344351693987846,
    -0.6671545505523682,
    -0.7797331213951111,
    0.8705604672431946,
    0.7581573724746704,
    0.4061588644981384,
    0.08326935023069382,
    0.5005984902381897,
    0.48838332295417786,
    -0.33862927556037903,
    -0.9537491798400879,
    -0.19649255275726318,
    -1.0005836486816406,
    -0.06992105394601822,
    0.4458278715610504,
    0.9112376570701599,
    0.0992712527513504,
    0.605299174785614,
    0.9270828366279602,
    -1.1465513706207275,
    -0.3273390233516693,
    0.46390342712402344,
    -0.2989574670791626,
    -0.8114176392555237,
    -0.7536605000495911,
    0.02317751757800579,
    -0.4104144275188446,
    0.021929912269115448,
    -0.25431784987449646,
    0.7733176350593567,
    -0.43132176995277405,
    0.6944172978401184,
    -0.0008840923546813428,
    -0.0007144667906686664,
    -0.7154226899147034,
    0.007416001055389643,
    -0.31511956453323364,
    0.8499066233634949,
    0.4922633171081543,
    0.07375598698854446,
    -0.820546567440033,
    -0.4246739149093628,
    0.02922063320875168,
    0.021376024931669235,
    0.12437979876995087,
    0.04283979907631874,
    0.7373104095458984,
    0.4822005033493042,
    0.3529748022556305,
    0.6379287838935852,
    0.3034718930721283,
    0.6379442811012268,
    -0.5464925169944763,
    0.8386036157608032,
    0.462765634059906,
    0.8531890511512756,
    -0.26067349314689636,
    0.729211688041687,
    0.6318754553794861,
    0.32705602049827576,
    0.22194918990135193,
    0.5416085124015808,
    0.46992549300193787,
    0.6974605321884155,
    -0.4058404266834259,
    0.3686998784542084,
    0.5686626434326172,
    -0.38894617557525635,
    0.7607570886611938,
    -0.09105042368173599,
    -0.1617072969675064,
    -0.12877723574638367,
    0.6794916987419128,
    -0.4533051550388336,
    0.8151288628578186,
    -0.7118955254554749,
    0.18177826702594757,
    -0.6445072889328003,
    0.42997750639915466,
    0.11771731078624725,
    -0.939169704914093,
    -0.7764003872871399,
    -0.5904331207275391,
    0.310446172952652,
    -0.34886643290519714,
    -0.5773316621780396,
    -0.2619965672492981,
    0.7122021913528442,
    -0.38436955213546753,
    0.35670599341392517,
    0.32679834961891174,
    0.8153347373008728,
    0.8766352534294128,
    -0.0363149456679821,
    0.1172104999423027,
    -0.6801006197929382,
    0.5943664312362671,
    -0.8894354104995728,
    -0.22437125444412231,
    -0.7538507580757141,
    0.5699686408042908,
    0.6019672751426697,
    -0.21734973788261414,
    -0.3373940587043762,
    0.5763368606567383,
    -0.7599936723709106,
    -0.28626206517219543,
    0.15598170459270477,
    0.5390256643295288,
    1.0162506103515625,
    -0.6665232181549072,
    -0.2265625,
    -0.8048324584960938,
    0.47120213508605957,
    0.06542427837848663,
    -0.8564309477806091,
    0.09243984520435333,
    -0.459322065114975,
    0.19648465514183044,
    0.011301135644316673,
    -0.8416880369186401,
    1.0544747114181519,
    -0.97491455078125,
    -0.6127820014953613,
    0.06594270467758179,
    0.9527260661125183,
    0.45327964425086975,
    0.8936614394187927,
    0.7817440629005432,
    -0.44795143604278564,
    0.7730950117111206,
    -0.5762602686882019,
    0.11464668065309525,
    0.6849952936172485,
    0.16608984768390656,
    -0.7589921355247498,
    0.0047139511443674564,
    0.4905169904232025,
    0.3727210462093353,
    0.15889756381511688,
    0.4968026280403137,
    0.8403594493865967,
    -0.7354322671890259,
    -0.2924085855484009,
    -0.8873801231384277,
    -1.03168523311615,
    0.600031316280365,
    0.5412657260894775,
    -1.0383214950561523,
    -0.03783916309475899,
    0.32325831055641174,
    -0.5528488755226135,
    0.5048269033432007,
    0.10997141897678375,
    0.9222457408905029,
    -0.21625258028507233,
    -0.9354632496833801,
    0.06626264750957489,
    0.6693277359008789,
    0.999291181564331,
    0.3590756058692932,
    -0.7469552755355835,
    -0.28709688782691956,
    0.32501089572906494,
    0.9815247058868408,
    0.839945912361145,
    0.2910724878311157,
    1.0015748739242554,
    -0.16228193044662476,
    -0.834579586982727,
    0.05413839593529701,
    0.5406688451766968,
    0.5359063744544983,
    -0.26171284914016724,
    -0.5272331833839417,
    -0.6337369084358215,
    0.9146054983139038,
    0.7108307480812073,
    -0.6141230463981628,
    -0.09225500375032425,
    -0.03268088772892952,
    -0.8030186891555786,
    0.13096946477890015,
    0.3878817558288574,
    0.2119620144367218,
    -0.09804695099592209,
    0.7100983262062073,
    0.006734298076480627,
    0.5127338767051697,
    0.48208755254745483,
    -0.5798252820968628,
    -0.5770184993743896,
    0.9140294194221497,
    -0.8516582250595093,
    1.225341796875,
    -0.25251030921936035,
    0.3873268961906433,
    -0.6373209357261658,
    0.7067458033561707,
    -0.5571048259735107,
    -0.3150423467159271,
    0.13463816046714783,
    0.3015255331993103,
    -0.4902603328227997,
    -0.49006032943725586,
    -0.19379350543022156,
    0.17579510807991028,
    0.9180131554603577,
    -0.30937638878822327,
    0.109920434653759,
    -0.7237141132354736,
    -0.07813455164432526,
    0.09292776882648468,
    -0.5973753929138184,
    0.8068445920944214,
    -0.238270103931427,
    -0.7359932065010071,
    -0.010667361319065094,
    0.25030317902565,
    0.9925357699394226,
    -0.02530895546078682,
    0.597474217414856,
    0.8477153778076172,
    0.8379003405570984,
    0.44175902009010315,
    -0.1535838544368744,
    -0.16707074642181396,
    -0.47829294204711914,
    -0.9247134923934937,
    0.5650091171264648,
    -0.5889392495155334,
    -0.7946089506149292,
    0.13458816707134247,
    -0.644763171672821,
    -0.780596137046814,
    -0.5871709585189819,
    0.008720502257347107,
    0.801068127155304,
    0.9357069730758667,
    -0.6138649582862854,
    0.8295283317565918,
    0.6573556065559387,
    0.014222764410078526,
    0.5300259590148926,
    0.17977261543273926,
    0.4925466477870941,
    -0.594984233379364,
    -0.6860263347625732,
    -0.524766743183136,
    0.8113583922386169,
    0.12016034126281738,
    -0.8473485708236694,
    0.5764107704162598,
    -0.04678972810506821,
    -0.8590201139450073,
    -0.5284784436225891,
    0.2141607701778412,
    0.424214243888855,
    -0.4469228982925415,
    -0.7255051732063293,
    -0.050694990903139114,
    -0.7632244229316711,
    -0.2975882291793823,
    -0.3868715763092041,
    0.42614343762397766,
    -0.4292479455471039,
    0.6440141797065735,
    0.375535249710083,
    -0.18572767078876495,
    0.8885928988456726,
    -0.5149419903755188,
    0.08144762367010117,
    -0.6795424222946167,
    -1.025342345237732,
    -0.980182409286499,
    -0.8519299626350403,
    -0.7794063091278076,
    -0.21842432022094727,
    0.8806706070899963,
    0.41465383768081665,
    -0.9148227572441101,
    0.42327362298965454,
    -0.34033602476119995,
    0.32380643486976624,
    0.4333387613296509,
    0.2516045570373535,
    0.8585534691810608,
    -0.9394247531890869,
    -0.533820629119873,
    -0.6633200645446777,
    -0.34070467948913574,
    -0.8724841475486755,
    -0.4019124209880829,
    -0.21342329680919647,
    -0.402964323759079,
    0.4971061646938324,
    0.7197853326797485,
    -0.1550387442111969,
    -0.1067173108458519,
    0.39283832907676697,
    0.9685924053192139,
    0.7586082220077515,
    0.2734586298465729,
    0.8322329521179199,
    0.3655664324760437,
    0.5090299844741821,
    -0.6512506008148193,
    -0.7398837804794312,
    0.5273398756980896,
    -0.195615753531456,
    0.40694117546081543,
    0.8262106776237488,
    0.47574108839035034,
    0.35228610038757324,
    -0.1708817332983017,
    -0.8778554797172546,
    0.6487139463424683,
    0.8615225553512573,
    0.5528310537338257,
    -0.091536745429039,
    -0.05911405384540558,
    0.9029111266136169,
    0.15746848285198212,
    -0.6860656142234802,
    0.9181743860244751,
    0.4993978440761566,
    -0.9671118259429932,
    0.04997653514146805,
    -0.37833043932914734,
    -0.17490620911121368,
    -0.3690216541290283,
    0.37594977021217346,
    -0.5080441832542419,
    -0.9416159987449646,
    0.1560390442609787,
    0.690491795539856,
    -0.31046536564826965,
    -0.13186749815940857,
    -0.017092809081077576,
    0.5596166849136353,
    0.8562018275260925,
    0.11936456710100174,
    -0.5691990852355957,
    -0.28880810737609863,
    0.04346394166350365,
    0.9231256246566772,
    0.5256813168525696,
    -1.0050424337387085,
    0.889122486114502,
    -0.35782837867736816,
    0.8394533395767212,
    -0.5873311161994934,
    0.5200755000114441,
    0.8894562721252441,
    -0.5999504923820496,
    -0.21495872735977173,
    -0.9579024910926819,
    -0.5262659788131714,
    -0.490477055311203,
    -0.35285642743110657,
    0.5229026079177856,
    -0.30344200134277344,
    0.922462522983551,
    -0.45948368310928345,
    -0.21678327023983002,
    0.5367903709411621,
    -0.6280151605606079,
    0.5673452019691467,
    -0.7600435018539429,
    -0.33951982855796814,
    0.3798573315143585,
    0.3543524742126465,
    -0.8321250677108765,
    0.16599825024604797,
    0.09227312356233597,
    0.03701573610305786,
    0.2067132294178009,
    -0.7662826180458069,
    -0.3669908046722412,
    -0.12793336808681488,
    -0.9832439422607422,
    0.8383352160453796,
    0.3441619277000427,
    -1.1777160167694092,
    -0.10994792729616165,
    0.5570254921913147,
    0.9215114712715149,
    -0.9239829182624817,
    -0.5829671025276184,
    -0.3266996741294861,
    -0.250054270029068,
    -0.07489033788442612,
    -0.4782945513725281,
    -0.7188720107078552,
    0.3828178942203522,
    -4.516290209721774e-05,
    -0.9165767431259155,
    0.6577110886573792,
    0.670369029045105,
    -0.5566841959953308,
    -0.35334163904190063,
    0.9916070103645325,
    -0.8982007503509521,
    0.23640523850917816,
    -0.05933479964733124,
    0.7765171527862549,
    0.36370643973350525,
    0.6605806946754456,
    -0.3174423277378082,
    0.4016771614551544,
    -0.6960994601249695,
    -0.8657956719398499,
    -0.1781199723482132,
    -0.32020092010498047,
    -0.7409043312072754,
    -0.16172131896018982,
    0.7849783897399902,
    0.019821275025606155,
    0.8631976842880249,
    -0.24546797573566437,
    0.6175633668899536,
    -0.4926625192165375,
    0.4321467876434326,
    -0.9004708528518677,
    0.025913672521710396,
    0.3364761471748352,
    -0.09562167525291443,
    -0.6068799495697021,
    0.22305166721343994,
    -0.319969117641449,
    0.5979804992675781,
    0.6748260855674744,
    0.08696772903203964,
    -0.08388203382492065,
    -0.892295777797699,
    0.7383795380592346,
    -0.9491388201713562,
    -0.7867963314056396,
    0.000958857883233577,
    0.371975302696228,
    0.3258609175682068,
    -0.84272700548172,
    -0.28376954793930054,
    -0.7571646571159363,
    0.516153872013092,
    0.29748934507369995,
    0.7145336270332336,
    -0.76987624168396,
    -0.9763586521148682,
    -0.8457300066947937,
    -0.9500835537910461,
    0.2851563096046448,
    -0.35364195704460144,
    0.04111991822719574,
    0.7107610702514648,
    -0.743536651134491,
    -0.38610538840293884,
    0.22636987268924713,
    0.3133472800254822,
    0.21053484082221985,
    0.1966971457004547,
    -0.7178210020065308,
    0.5572350025177002,
    0.3324040174484253,
    0.0891820415854454,
    -0.3782033324241638,
    -0.4128679037094116,
    -0.6600264310836792,
    0.6234032511711121,
    0.22319108247756958,
    -0.027332527562975883,
    -0.08338393270969391,
    0.9292216897010803,
    -0.583116888999939,
    -0.40748029947280884,
    -0.5426666140556335,
    0.46171581745147705,
    -0.7162817716598511,
    -0.20592492818832397,
    -0.6115063428878784,
    -0.857300341129303,
    0.15161146223545074,
    -0.8191448450088501,
    -0.6653456091880798,
    0.4040681719779968,
    1.011555790901184,
    -0.055498525500297546,
    -0.7601990103721619,
    -0.3503236472606659,
    -0.7883005738258362,
    -0.5393901467323303,
    0.7867404818534851,
    0.8261833786964417,
    -0.54611736536026,
    -0.644895613193512,
    0.17774221301078796,
    -0.15629549324512482,
    -0.17175687849521637,
    -0.8823034763336182,
    -0.3457106351852417,
    -0.42331719398498535,
    -0.04468337446451187,
    -0.39322465658187866,
    0.18561577796936035,
    -0.31323370337486267,
    -0.3440585732460022,
    0.22175899147987366,
    -0.613463282585144,
    -0.19015926122665405,
    0.8760711550712585,
    0.569580614566803,
    0.3105412721633911,
    0.8779398202896118,
    -0.2437741458415985,
    -0.7668936848640442,
    -0.7217459678649902,
    -0.13741061091423035,
    -0.2403775155544281,
    -0.7508165240287781,
    0.18711481988430023,
    0.4275359809398651,
    0.0008009473676793277,
    0.9376001358032227,
    -0.6244828104972839,
    -0.7146649360656738,
    0.3426758348941803,
    -0.3316671550273895,
    -0.1693471223115921,
    -0.2441515326499939,
    -0.7400477528572083,
    -0.02061993069946766,
    -0.5115367770195007,
    0.6397457122802734,
    0.42851001024246216,
    0.8551399111747742,
    -1.010426640510559,
    0.024528663605451584,
    0.5744274258613586,
    0.6408678889274597,
    0.33885207772254944,
    -0.7295609712600708,
    0.7722625732421875,
    0.9202882647514343,
    -0.1754932552576065,
    -0.5581983327865601,
    0.9291972517967224,
    -0.3069419264793396,
    0.7871819138526917,
    -0.12443912029266357,
    0.24238517880439758,
    -0.75694739818573,
    -0.8484313488006592,
    -0.4351691007614136,
    -0.22967484593391418,
    -0.6445431709289551,
    0.7061644792556763,
    -0.18278057873249054,
    0.1448475569486618,
    -0.908833920955658,
    -0.9281883835792542,
    -0.12070800364017487,
    0.12541233003139496,
    0.6111848950386047,
    0.8048970103263855,
    0.8337081074714661,
    -0.5447091460227966,
    0.07777076959609985,
    0.22048033773899078,
    0.5157668590545654,
    0.43176349997520447,
    -0.1402631551027298,
    0.7436268329620361,
    -0.2776338756084442,
    0.010940788313746452,
    0.40306705236434937,
    -1.0281387567520142,
    -0.8362515568733215,
    0.4394304156303406,
    -0.2556012272834778,
    0.2860211431980133,
    0.5559067726135254,
    -0.4512866735458374,
    0.16156180202960968,
    0.4567895829677582,
    -0.9804342985153198,
    -0.5551204085350037,
    -0.1910809427499771,
    -0.6513314843177795,
    0.6754828095436096,
    -1.0817153453826904,
    -0.02522836998105049,
    -0.06226123869419098,
    -0.2702045440673828,
    0.4897988736629486,
    -0.6566190123558044,
    -0.20257049798965454,
    0.8209816217422485,
    -0.18423347175121307,
    0.3625570237636566,
    -0.5187552571296692,
    -0.07783573120832443,
    -0.25507721304893494,
    0.43988120555877686,
    0.4433423578739166,
    -0.4276221990585327,
    0.035855237394571304,
    0.0911504402756691,
    0.7629477381706238,
    -0.06715451180934906,
    -0.5462010502815247,
    0.5538093447685242,
    0.9728608727455139,
    -0.08386947214603424,
    -0.5525436997413635,
    1.100980281829834,
    -0.0025868660304695368,
    0.7694912552833557,
    0.8181462287902832,
    0.07192318141460419,
    0.494529664516449,
    0.7457252740859985,
    0.6440699100494385,
    0.04208268225193024,
    0.2229202836751938,
    0.45958954095840454,
    -0.7090279459953308,
    0.13953062891960144,
    0.2837409973144531,
    0.11982306092977524,
    0.7674164175987244,
    -0.28210872411727905,
    -0.8305746912956238,
    0.9557822942733765,
    -0.977567195892334,
    0.6355029940605164,
    -0.3897968530654907,
    0.36752453446388245,
    -0.25654903054237366,
    0.4362766146659851,
    -0.2609328031539917,
    -0.8870282173156738,
    0.9612820744514465,
    0.6607399582862854,
    0.18600459396839142,
    -0.0814751461148262,
    -0.6776549220085144,
    0.9610339403152466,
    -0.9096367359161377,
    -0.8523141741752625,
    -0.017318109050393105,
    -0.16425132751464844,
    0.07486056536436081,
    -0.6948524713516235,
    -0.11577384918928146,
    -0.5567720532417297,
    0.39884334802627563,
    0.8360166549682617,
    -0.4678856134414673,
    0.18423892557621002,
    0.45290684700012207,
    -0.837225079536438,
    0.206639364361763,
    0.34064581990242004,
    0.8363585472106934,
    0.1718761920928955,
    -0.5089786052703857,
    0.04597179964184761,
    -0.16510136425495148,
    0.7402310967445374,
    -0.5629677176475525,
    0.5224447846412659,
    0.3821631073951721,
    -0.5728744864463806,
    0.7643452882766724,
    0.5893111824989319,
    -0.06012379005551338,
    0.601447582244873,
    0.3478655219078064,
    0.5348761677742004,
    0.8998737335205078,
    -0.662655770778656,
    0.4875987768173218,
    0.5860880613327026,
    0.2562205493450165,
    -0.5990673899650574,
    0.46959131956100464,
    0.3069736361503601,
    -0.9154664874076843,
    -0.678846001625061,
    0.35373684763908386,
    -0.880303144454956,
    -1.0895401239395142,
    -1.0329840183258057,
    0.23185725510120392,
    0.10957322269678116,
    -0.738170862197876,
    -0.8053565621376038,
    0.21611922979354858,
    0.4461328387260437,
    -1.100529670715332,
    -0.7314531803131104,
    -0.5494257807731628,
    0.052981264889240265,
    -0.0016798072028905153,
    0.6489531993865967,
    0.10375745594501495,
    0.5470657348632812,
    -0.5461307764053345,
    -0.36288946866989136,
    -0.40075555443763733,
    -0.7460339069366455,
    -0.06465695053339005,
    0.13480573892593384,
    0.3958094120025635,
    -0.6240014433860779,
    0.6966708302497864,
    -0.8420165777206421,
    0.20799164474010468,
    0.5781376957893372,
    0.8348402380943298,
    -0.004403388127684593,
    0.7693278193473816,
    -0.7101960182189941,
    -0.5059414505958557,
    -0.3867664039134979,
    -0.19988489151000977,
    0.6148719787597656,
    -0.9332830905914307,
    0.27686652541160583,
    0.4363187253475189,
    -0.27624255418777466,
    0.3334676921367645,
    -0.2910597324371338,
    -0.6587185263633728,
    -0.2823812663555145,
    0.8040723204612732,
    0.3681091368198395,
    1.0342062711715698,
    0.09772861003875732,
    -0.18670041859149933,
    -0.7477313280105591,
    0.7252365350723267,
    -1.0102925300598145,
    0.7935531139373779,
    -0.7273149490356445,
    -0.5070353150367737,
    -0.6297572255134583,
    0.7455352544784546,
    -0.12151289731264114,
    0.1072823628783226,
    0.4034114480018616,
    0.9961140155792236,
    -0.547927975654602,
    0.7316036820411682,
    -0.6627748012542725,
    0.24703438580036163,
    0.8302695751190186,
    -0.7026787996292114,
    0.6544098854064941,
    0.9473412036895752,
    0.5075772404670715,
    0.2454441487789154,
    0.7640092968940735,
    0.9419673681259155,
    1.032254934310913,
    -0.0929344967007637,
    0.8370724320411682,
    0.3401828110218048,
    -0.18886397778987885,
    -0.1997847706079483,
    0.8059417009353638,
    0.8221125602722168,
    -0.04091953486204147,
    -0.46991071105003357,
    0.8417421579360962,
    -1.104905366897583,
    -0.4294396638870239,
    0.049056846648454666,
    0.6528772115707397,
    -0.8161388635635376,
    -0.4151909649372101,
    -0.44841212034225464,
    -0.023169292137026787,
    0.83978670835495,
    -0.4603256583213806,
    0.8301812410354614,
    -0.6605331897735596,
    0.6626948714256287,
    -0.6704403758049011,
    -0.24729932844638824,
    0.17349478602409363,
    -0.6613165140151978,
    0.8500385880470276,
    0.9450469017028809,
    0.8337687253952026,
    0.20262867212295532,
    -0.7822272777557373,
    0.5809222459793091,
    -0.6476567387580872,
    -0.8612233400344849,
    -0.971079409122467,
    -0.7651774287223816,
    -0.9445832371711731,
    0.5208443999290466,
    0.8142525553703308,
    -0.2689967155456543,
    -0.39484867453575134,
    0.49815091490745544,
    0.9500828981399536,
    -0.9119477272033691,
    -0.388542115688324,
    -0.40772607922554016,
    0.07168334722518921,
    0.005798520520329475,
    0.060062065720558167,
    0.3709297776222229,
    -0.4027157723903656,
    -1.0361406803131104,
    0.648439347743988,
    0.31926044821739197,
    0.2264794260263443,
    0.6293332576751709,
    -0.3043736517429352,
    0.16772602498531342,
    -0.5095877647399902,
    -0.7080332040786743,
    0.7179973721504211,
    -0.6639195680618286,
    0.30932557582855225,
    -0.4038921594619751,
    0.5534245371818542,
    -0.8427272439002991,
    -0.23971576988697052,
    -0.8106346130371094,
    0.12148264050483704,
    -0.5693545341491699,
    -0.9671251773834229,
    0.926121711730957,
    -0.3199073076248169,
    0.4726439416408539,
    0.0861344113945961,
    -0.808867335319519,
    0.5669370889663696,
    -0.5286775231361389,
    0.11297769844532013,
    0.8760840892791748,
    0.34372565150260925,
    -0.48185086250305176,
    0.359203577041626,
    -0.8625954985618591,
    0.34148040413856506,
    -0.6507808566093445,
    -0.6720033884048462,
    0.31253910064697266,
    0.8749859929084778,
    0.8000907301902771,
    0.27577024698257446,
    0.2045157104730606,
    0.5725963711738586,
    -0.03148651123046875,
    0.7638176679611206,
    -0.9779873490333557,
    -0.7764801383018494,
    -0.7510316967964172,
    0.41927844285964966,
    -0.6792164444923401,
    -0.5645440816879272,
    -0.6608908772468567,
    -0.7135452032089233,
    -0.00397223187610507,
    0.7422335147857666,
    -0.5253292918205261,
    -0.8644094467163086,
    -0.15023763477802277,
    -1.031316876411438,
    -0.7573254704475403,
    -0.524753749370575,
    0.8126807808876038,
    -0.8541648387908936,
    0.14593078196048737,
    -0.3283407986164093,
    0.6290587782859802,
    -0.28266265988349915,
    -0.7007986307144165,
    0.618532121181488,
    0.11948984116315842,
    0.7426381707191467,
    -1.1283776760101318,
    -0.048647865653038025,
    -0.8600360155105591,
    -0.8519411683082581,
    0.19828484952449799,
    0.48409220576286316,
    0.7005354762077332,
    0.6402090787887573,
    -0.2997979521751404,
    -0.5816643238067627,
    -0.8682795166969299,
    -0.7196366190910339,
    0.39275649189949036,
    -0.2302231639623642,
    -0.7624126076698303,
    -0.37513312697410583,
    -0.12821079790592194,
    0.8468214273452759,
    -0.9027804732322693,
    0.4071517288684845,
    0.2248746007680893,
    -0.8555268049240112,
    0.8714741468429565,
    -0.5513388514518738,
    -0.532522439956665,
    0.6031001806259155,
    -0.2716023623943329,
    0.5687993764877319,
    -0.8492562174797058,
    -0.12696538865566254,
    -0.24631507694721222,
    0.9734699726104736,
    -0.637931227684021,
    0.4956708252429962,
    -0.6530997157096863,
    0.02048664167523384,
    -0.014219928532838821,
    0.8761051893234253,
    0.8068718910217285,
    -0.2141771763563156,
    -0.14968471229076385,
    0.10394061356782913,
    -0.9093040227890015,
    -0.816303014755249,
    -0.2538171410560608,
    0.6117393374443054,
    0.7620706558227539,
    0.5600977540016174,
    0.4776368737220764,
    -0.2351333498954773,
    -0.5110217928886414,
    0.46599727869033813,
    -0.3988204002380371,
    0.8393948078155518,
    -0.6741146445274353,
    0.7054824829101562,
    -0.43151482939720154,
    -0.06871965527534485,
    -0.19942951202392578,
    0.4376992881298065,
    0.7174819707870483,
    -0.2685592770576477,
    -0.3869889974594116,
    -0.08538650721311569,
    -0.8896151781082153,
    0.1001208946108818,
    -0.18112963438034058,
    0.8118350505828857,
    -0.8055296540260315,
    -0.11099765449762344,
    0.7427857518196106,
    0.44345664978027344,
    -0.9083653092384338,
    0.832757830619812,
    -0.47005075216293335,
    0.04035213962197304,
    0.2763993740081787,
    0.8990538716316223,
    0.2641748785972595,
    -0.20513315498828888,
    0.36510801315307617,
    0.39899325370788574,
    0.8010766506195068,
    0.41464167833328247,
    -0.7405910491943359,
    -0.9723330140113831,
    -0.2634066045284271,
    0.9139218926429749,
    0.3553757071495056,
    0.8477566838264465,
    -0.2678981423377991,
    0.523817241191864,
    -0.5759052038192749,
    -0.5732701420783997,
    0.6718476414680481,
    -0.6179755330085754,
    -0.12387053668498993,
    0.5786299109458923,
    0.1558082550764084,
    0.04502999782562256,
    -0.2678384482860565,
    -0.9955549240112305,
    -0.1844167858362198,
    -0.2793842554092407,
    0.526051938533783,
    -0.2579614222049713,
    -0.8241381645202637,
    -0.7345483303070068,
    0.3529163897037506,
    -0.6646090745925903,
    0.8443333506584167,
    0.21317407488822937,
    -0.7208581566810608,
    -0.38951072096824646,
    0.5615540146827698,
    0.7802302837371826,
    1.0301891565322876,
    -0.10811194777488708,
    0.9130716323852539,
    0.26884639263153076,
    -0.12336955219507217,
    0.8397670388221741,
    0.8447856307029724,
    0.4641505479812622,
    0.09309258311986923,
    0.33178213238716125,
    0.8867965936660767,
    0.2082260102033615,
    -0.019781172275543213,
    -0.4932979643344879,
    -0.45525193214416504,
    -0.5437362194061279,
    0.6404737830162048,
    0.6810974478721619,
    0.8239592909812927,
    0.6788554787635803,
    0.1290106624364853,
    -0.5782159566879272,
    0.7141949534416199,
    -0.8532937169075012,
    -0.8357086181640625,
    0.5381289720535278,
    0.340831458568573,
    0.46690404415130615,
    -0.016103489324450493,
    0.9697256088256836,
    0.3072742819786072,
    -0.4576388895511627,
    0.1853305697441101,
    0.769173800945282,
    -0.026423675939440727,
    0.7327401041984558,
    0.3513992726802826,
    0.14461380243301392,
    -0.41061100363731384,
    -0.29950568079948425,
    0.9112379550933838,
    -0.47968751192092896,
    0.9788180589675903,
    -0.17211954295635223,
    -0.39779457449913025,
    -0.7482321858406067,
    0.1618921309709549,
    -0.9232087135314941,
    -0.2567656338214874,
    -0.6018473505973816,
    0.552294135093689,
    -0.21219125390052795,
    -0.46237483620643616,
    -0.9011440873146057,
    0.7190487384796143,
    0.5590294599533081,
    0.9355825185775757,
    -0.5506628155708313,
    0.723736047744751,
    0.7967652082443237,
    0.7394512891769409,
    0.008397669531404972,
    0.5977388620376587,
    -0.2186477780342102,
    0.6354092359542847,
    -0.8525951504707336,
    0.44595274329185486,
    0.030526895076036453,
    -0.9381707310676575,
    -0.07736865431070328,
    -0.07212553918361664,
    0.6809862852096558,
    0.6395635604858398,
    0.7695351243019104,
    0.6906960010528564,
    -0.7280136346817017,
    0.2860482335090637,
    -0.022053204476833344,
    -0.6452245712280273,
    0.4633930027484894,
    -0.635308563709259,
    0.24476200342178345,
    -0.6006821990013123,
    -0.756693959236145,
    -0.5750248432159424,
    0.8592178225517273,
    -0.5073977112770081,
    -0.9311572909355164,
    -0.4805507957935333,
    0.6769764423370361,
    0.496642142534256,
    0.2825755178928375,
    0.704828143119812,
    -0.7305323481559753,
    0.7724438905715942,
    -0.8390846252441406,
    0.6308895945549011,
    -0.33505314588546753,
    -0.10099337995052338,
    -0.03812076151371002,
    0.38009411096572876,
    -0.7206466794013977,
    -0.899007260799408,
    -0.21317242085933685,
    -0.48870426416397095,
    -0.23437172174453735,
    0.6773282289505005,
    -0.3922845721244812,
    -0.46091386675834656,
    -0.4228464365005493,
    0.06701729446649551,
    -0.6959217190742493,
    -0.3373397886753082,
    0.7533940076828003,
    -0.8634264469146729,
    0.1492655724287033,
    -0.36956045031547546,
    -0.2041146606206894,
    0.2199144959449768,
    -0.8098735809326172,
    -0.5131899118423462,
    0.3737022876739502,
    -0.12011086195707321,
    -0.1996023952960968,
    -0.3369244337081909,
    0.016772158443927765,
    -0.5358948707580566,
    0.7171616554260254,
    -0.19135782122612,
    0.4341772496700287,
    0.8576165437698364,
    0.28933650255203247,
    0.43312159180641174,
    -0.9244345426559448,
    0.14353510737419128,
    -0.914334237575531,
    0.16084139049053192,
    0.23304998874664307,
    -0.06924475729465485,
    -0.18911749124526978,
    0.0857468768954277,
    0.03462006896734238,
    -0.34561988711357117,
    0.04402254894375801,
    0.8133115172386169,
    -0.196451336145401,
    -0.23702766001224518,
    0.5407254695892334,
    -0.37126612663269043,
    -0.6525081396102905,
    -0.27468743920326233,
    -0.8769045472145081,
    -0.27760201692581177,
    0.871778666973114,
    -0.6595043540000916,
    -0.504453718662262,
    0.30277690291404724,
    -0.19172970950603485,
    -0.7700563669204712,
    0.34262776374816895,
    -0.16066089272499084,
    0.8975287675857544,
    -0.6461681127548218,
    0.1822754591703415,
    0.7852986454963684,
    -0.20211061835289001,
    -0.13055770099163055,
    -0.543232262134552,
    0.5031866431236267,
    0.15774892270565033,
    -0.3811511695384979,
    0.3945510983467102,
    0.05406251549720764,
    0.3789365589618683,
    0.12474466860294342,
    -0.018402041867375374,
    -0.9627025723457336,
    0.9060785174369812,
    0.6196631789207458,
    -0.7235540747642517,
    0.1666317582130432,
    -0.1372266411781311,
    -0.5519282817840576,
    -0.1937091052532196,
    0.41537997126579285,
    -0.37182360887527466,
    -0.031842075288295746,
    0.6087340712547302,
    -0.17118604481220245,
    0.3969457745552063,
    0.2891063988208771,
    -0.9568104147911072,
    -1.2132211923599243,
    0.16180573403835297,
    -0.8978410959243774,
    0.2456383854150772,
    -0.8658551573753357,
    0.8202019929885864,
    -0.5009809136390686,
    0.5318694114685059,
    -0.6085585951805115,
    -1.0123778581619263,
    -1.1269415616989136,
    0.47834014892578125,
    -0.7608439922332764,
    -0.648624837398529,
    -1.0801860094070435,
    0.5220986604690552,
    -0.6890965700149536,
    0.7408984303474426,
    0.6697605848312378,
    0.24193456768989563,
    0.29921194911003113,
    -0.4570605158805847,
    0.8978101015090942,
    0.20532363653182983,
    0.4996943771839142,
    -0.9007279276847839,
    0.060501646250486374,
    0.27810314297676086,
    -0.8036795854568481,
    -0.4258757531642914,
    -0.7659566402435303,
    0.83903568983078,
    0.35701608657836914,
    0.057769522070884705,
    -0.9916792511940002,
    0.4384199380874634,
    0.5002538561820984,
    -0.7196318507194519,
    -1.1865732669830322,
    0.009249736554920673,
    0.6333787441253662,
    -1.005947470664978,
    -0.344661146402359,
    -0.9004108905792236,
    -0.05557670816779137,
    -0.23204228281974792,
    -0.8548052906990051,
    -0.28961244225502014,
    0.591956377029419,
    -0.04693475365638733,
    -0.7491596937179565,
    0.947239875793457,
    0.5338847041130066,
    0.3979450464248657,
    0.4580055773258209,
    0.41179487109184265,
    -0.23505078256130219,
    0.4274708330631256,
    -0.7581517696380615,
    -0.7351308465003967,
    -0.29440009593963623,
    0.9179861545562744,
    0.8618484139442444,
    -0.782985270023346,
    0.5467581748962402,
    0.6271961331367493,
    -0.7635453343391418,
    -0.05776354670524597,
    0.38686782121658325,
    -0.18281704187393188,
    0.10268302261829376,
    -0.963507354259491,
    0.12222694605588913,
    -0.6976391673088074,
    -0.6671826839447021,
    -0.012809112668037415,
    0.2545011043548584,
    0.19566220045089722,
    -0.46475234627723694,
    -0.6750526428222656,
    0.9064969420433044,
    -0.11456998437643051,
    -0.7759879231452942,
    0.24571765959262848,
    -0.8931878209114075,
    -0.26314783096313477,
    -1.2875851392745972,
    0.7635526061058044,
    -0.5721243023872375,
    0.44549140334129333,
    -0.520903468132019,
    0.8991499543190002,
    -0.9532343149185181,
    0.787090539932251,
    -0.16544002294540405,
    0.2130858153104782,
    -0.6755339503288269,
    -0.6081487536430359,
    -0.8880261182785034,
    -0.5555335879325867,
    -0.23474770784378052,
    -0.12831100821495056,
    -0.8220400810241699,
    0.8136763572692871,
    -0.48853600025177,
    0.4765523076057434,
    -0.868505597114563,
    0.31129494309425354,
    0.8349173665046692,
    -0.4684992730617523,
    0.0872892364859581,
    -0.38911861181259155,
    -0.5931987166404724,
    0.6182015538215637,
    0.16884523630142212,
    -0.8178097605705261,
    -0.31078824400901794,
    -0.4812818467617035,
    0.05170997604727745,
    -0.2146238535642624,
    -0.7953487038612366,
    -0.6668738126754761,
    -0.22940325736999512,
    -1.0682674646377563,
    -0.72109454870224,
    -0.32447823882102966,
    -0.46488526463508606,
    0.17456206679344177,
    -0.9214562177658081,
    0.4951716661453247,
    0.17263545095920563,
    0.24575701355934143,
    -0.4729028642177582,
    -0.014121348038315773,
    0.46377286314964294,
    -0.486487478017807,
    0.664228081703186,
    -0.17846176028251648,
    0.48617202043533325,
    0.850561797618866,
    -0.7039034366607666,
    -0.5909237861633301,
    -0.2116515338420868,
    0.08440666645765305,
    0.6918069124221802,
    0.5965913534164429,
    -0.14339540898799896,
    -0.45435547828674316,
    -0.09044282138347626,
    -0.5273220539093018,
    0.7867467999458313,
    -1.1378754377365112,
    -1.0113435983657837,
    -0.7307971119880676,
    0.29856574535369873,
    0.6396092176437378,
    0.3267781436443329,
    0.060128696262836456,
    0.9212263226509094,
    0.17840640246868134,
    -0.8391582369804382,
    0.8131756782531738,
    -0.5612245202064514,
    0.5527419447898865,
    -0.28797221183776855,
    -0.43997472524642944,
    -0.5050056576728821,
    0.2653270661830902,
    -0.9125414490699768,
    -1.0105502605438232,
    0.2269587218761444,
    0.007078203372657299,
    -0.6989279985427856,
    -0.7646175622940063,
    -0.2235156148672104,
    0.5569425821304321,
    -0.4653174579143524,
    -0.7958436012268066,
    -0.9556573033332825,
    -0.19108474254608154,
    -0.3043401539325714,
    -0.004723522812128067,
    -0.7435477375984192,
    0.339107871055603,
    0.9158580899238586,
    -0.6322903037071228,
    -0.2031555324792862,
    -0.3585526645183563,
    -0.45353177189826965,
    -0.7209868431091309,
    -0.7577828764915466,
    -0.7034528255462646,
    0.9331207275390625,
    -0.16404417157173157,
    -0.8701112866401672,
    -0.43973609805107117,
    0.3961321711540222,
    -0.27248063683509827,
    -0.4809209108352661,
    0.862296462059021,
    0.32201722264289856,
    0.771790087223053,
    0.9352335333824158,
    -1.0376338958740234,
    -0.655272901058197,
    -0.8121788501739502,
    -1.0800429582595825,
    -0.1555653065443039,
    0.5027695298194885,
    -0.09223552793264389,
    -0.4512687921524048,
    -0.8302170634269714,
    0.7659381628036499,
    -0.3419524133205414,
    0.23232907056808472,
    0.8003060817718506,
    -1.0064421892166138,
    0.03780584782361984,
    -0.7181645631790161,
    0.3827737271785736,
    -1.0136595964431763,
    0.49340930581092834,
    0.39420604705810547,
    -0.9963275194168091,
    -0.050574641674757004,
    -0.1381809413433075,
    -0.8268027305603027,
    0.27634692192077637,
    0.6046660542488098,
    -0.4834493100643158,
    0.18988579511642456,
    0.6624492406845093,
    0.8073856830596924,
    -0.5492234826087952,
    -0.978671669960022,
    -0.3780096173286438,
    -0.08098720759153366,
    -0.03840414434671402,
    0.9644443988800049,
    -0.24462854862213135,
    -0.5826764702796936,
    -0.25576505064964294,
    -0.005730530712753534,
    0.562639057636261,
    -0.24103093147277832,
    0.7547779679298401,
    -0.5411239862442017,
    -0.01176848541945219,
    0.12215597182512283,
    -0.7580260634422302,
    -0.18877094984054565,
    0.8281185030937195,
    0.32218703627586365,
    -0.781426191329956,
    -0.7956984639167786,
    0.35656705498695374,
    0.18084484338760376,
    0.9985812902450562,
    -0.9596934914588928,
    -0.7080586552619934,
    0.6577900648117065,
    -0.8667569160461426,
    -0.09345871210098267,
    0.7940046191215515,
    0.8799154758453369,
    -0.464195191860199,
    0.43487313389778137,
    0.152683824300766,
    0.1165563315153122,
    -0.6845746040344238,
    -0.31205180287361145,
    0.4736770689487457,
    0.07447147369384766,
    0.7055055499076843,
    0.8816903233528137,
    0.67848140001297,
    0.7737476229667664,
    0.36517488956451416,
    0.09951809048652649,
    0.12805064022541046,
    0.5414838194847107,
    -0.30632466077804565,
    0.27488717436790466,
    0.9492563009262085,
    -0.9547179937362671,
    0.9894014596939087,
    -0.16997981071472168,
    0.4687386453151703,
    -0.9357879757881165,
    -0.2430347055196762,
    0.22865988314151764,
    -0.20789651572704315,
    -0.2597488760948181,
    0.6764999032020569,
    0.21928498148918152,
    0.38014352321624756,
    0.49459800124168396,
    0.38197967410087585,
    0.3919539451599121,
    -0.27598580718040466,
    0.5282633304595947,
    0.1908539980649948,
    0.6183999180793762,
    -0.040203697979450226,
    0.09633751958608627,
    0.334372341632843,
    -0.006935159210115671,
    -0.4722437560558319,
    0.11684329807758331,
    0.2647353708744049,
    0.7127094864845276,
    -0.7354883551597595,
    0.982363760471344,
    -0.9174447059631348,
    0.11119449883699417,
    -0.21846961975097656,
    -0.0803798958659172,
    0.41143712401390076,
    -0.3339570164680481,
    -0.7753153443336487,
    0.5238773822784424,
    0.19729579985141754,
    0.8560419082641602,
    0.828765869140625,
    0.7627221941947937,
    -0.9479091167449951,
    0.8179394006729126,
    0.37055104970932007,
    -0.810603141784668,
    0.7026868462562561,
    -0.14281980693340302,
    0.2800578474998474,
    -0.22248420119285583,
    0.8284143209457397,
    0.56499183177948,
    0.11221689730882645,
    0.06429844349622726,
    1.0045193433761597,
    0.7080453634262085,
    0.9593849778175354,
    -0.8289057612419128,
    -0.11240935325622559,
    0.6480491757392883,
    1.0615637302398682,
    0.6707503199577332,
    1.1088637113571167,
    -0.5504627823829651,
    -0.433668851852417,
    -0.22685062885284424,
    -0.2656203508377075,
    0.27276450395584106,
    0.2869987487792969,
    -0.5761902332305908,
    -0.6895029544830322,
    -0.07144558429718018,
    0.9638798832893372,
    -0.5599350929260254,
    0.43024763464927673,
    0.44245317578315735,
    0.511600911617279,
    0.5415825247764587,
    -0.8245275020599365,
    0.6771172881126404,
    0.1801958978176117,
    0.47668755054473877,
    0.6947097182273865,
    -0.5207046270370483,
    -0.4010898172855377,
    -0.17659282684326172,
    -0.805043637752533,
    -0.6750273108482361,
    -0.7681417465209961,
    0.6517914533615112,
    -0.32820239663124084,
    0.6969047784805298,
    0.2579548954963684,
    -0.6277147531509399,
    -0.8612232804298401,
    0.13789060711860657,
    0.3049057722091675,
    -0.894445538520813,
    -0.6344643235206604,
    -0.7573897242546082,
    0.30471906065940857,
    -0.06295493990182877,
    -0.18034756183624268,
    0.09181429445743561,
    0.2040206640958786,
    -0.9698164463043213,
    -0.7010440826416016,
    -0.25707802176475525,
    0.9438410997390747,
    0.16984978318214417,
    0.8379496335983276,
    0.33278903365135193,
    -0.7349729537963867,
    -0.36081933975219727,
    0.13018372654914856,
    0.549955427646637,
    -0.6946239471435547,
    -0.2538178563117981,
    0.08144325762987137,
    0.08902060240507126,
    0.16887901723384857,
    0.10063808411359787,
    -1.1130677461624146,
    -0.3335544764995575,
    -0.6950128078460693,
    -0.411927729845047,
    0.7775737643241882,
    -0.9235159158706665,
    0.48067599534988403,
    0.2296794205904007,
    -0.9702181816101074,
    0.007563192397356033,
    -0.24820703268051147,
    -0.5069580078125,
    0.8392741084098816,
    0.8324723243713379,
    0.4758386015892029,
    0.39874982833862305,
    -0.002949499525129795,
    0.9230177402496338,
    0.40028297901153564,
    -0.5577534437179565,
    0.9282580614089966,
    -0.46918046474456787,
    0.5273627042770386,
    -0.04908827692270279,
    0.6532809138298035,
    -0.46747156977653503,
    0.24220217764377594,
    -0.19877959787845612,
    0.904487669467926,
    0.3978644907474518,
    -0.7026847004890442,
    -0.5928816199302673,
    0.9508347511291504,
    0.8830666542053223,
    0.27278268337249756,
    0.9626168012619019,
    0.5413154363632202,
    0.21051029860973358,
    -0.2908081114292145,
    -0.36038854718208313,
    -0.6896652579307556,
    0.4737333655357361,
    0.2584672272205353,
    -0.6514101624488831,
    -0.6021021604537964,
    -0.79524165391922,
    -0.9577219486236572,
    -0.03515905141830444,
    -0.8123846054077148,
    0.46126165986061096,
    0.1667868196964264,
    0.3513867259025574,
    0.6028047204017639,
    -0.001452020020224154,
    -0.5078681707382202,
    0.648438036441803,
    -0.8648645877838135,
    -0.6536898612976074,
    -0.11354264616966248,
    -0.8405522108078003,
    0.11737070977687836,
    -0.2314823418855667,
    -0.2382134199142456,
    -0.014606015756726265,
    -0.4888153374195099,
    0.2822716534137726,
    0.36511045694351196,
    -0.4991334080696106,
    0.6454897522926331,
    -0.571054995059967,
    -0.25202858448028564,
    1.1968456506729126,
    1.363960862159729,
    0.09622083604335785,
    -0.7921586632728577,
    -0.42093780636787415,
    0.392708420753479,
    1.067354440689087,
    0.053715500980615616,
    0.35125645995140076,
    -0.21419592201709747,
    0.73812335729599,
    -0.525255024433136,
    0.2043021321296692,
    -0.2336256057024002,
    0.3314993977546692,
    0.6361903548240662,
    0.5691412687301636,
    -0.9000754356384277,
    -0.3617080748081207,
    -0.06406202912330627,
    0.850479006767273,
    1.0704939365386963,
    0.8864790201187134,
    0.2691521644592285,
    0.4111100435256958,
    -0.11963751167058945,
    -0.5637065172195435,
    0.39051952958106995,
    0.5445337891578674,
    -0.879745602607727,
    0.1278134137392044,
    0.7727271318435669,
    -0.8491924405097961,
    0.570124626159668,
    -0.04948136955499649,
    0.04837483912706375,
    0.3277045786380768,
    -0.7092092633247375,
    -0.5019368529319763,
    -0.643335223197937,
    -0.11314325779676437,
    -0.8464409708976746,
    0.6840780377388,
    -0.9688109159469604,
    -0.6812946796417236,
    -0.051112446933984756,
    -0.48226866126060486,
    -0.1555836945772171,
    -0.6792092323303223,
    0.17764876782894135,
    -0.5142579674720764,
    0.9572705030441284,
    0.8017092347145081,
    0.5955571532249451,
    0.707346498966217,
    -0.33649709820747375,
    -0.8828906416893005,
    -0.9554066061973572,
    -0.8972712159156799,
    -0.7836817502975464,
    0.9826490879058838,
    0.8234454989433289,
    -0.22473113238811493,
    -0.5718919634819031,
    -0.422529935836792,
    -0.3139292597770691,
    0.5585342049598694,
    -0.18232813477516174,
    0.06138778477907181,
    0.25187772512435913,
    -0.541130781173706,
    0.07634642720222473,
    -0.12959952652454376,
    -0.4399086534976959,
    -0.5625512599945068,
    -0.7279817461967468,
    -0.7092823386192322,
    -0.5297911763191223,
    -0.085837721824646,
    -0.586833119392395,
    -0.8879088163375854,
    -0.8482210040092468,
    0.339192271232605,
    -0.8203198909759521,
    0.59122234582901,
    -0.03275841474533081,
    0.7041053771972656,
    -1.0026557445526123,
    0.6413082480430603,
    -0.45893099904060364,
    -0.5548951625823975,
    0.23815438151359558,
    0.428355872631073,
    -0.785187304019928,
    0.00655157957226038,
    0.8219197392463684,
    0.6863479018211365,
    0.6578033566474915,
    -0.5601480007171631,
    0.8181104063987732,
    0.38954243063926697,
    -0.5155761241912842,
    -0.4931311309337616,
    -0.9479590058326721,
    0.37051156163215637,
    0.16144807636737823,
    0.8162333965301514,
    -0.0023375158198177814,
    0.6397485136985779,
    0.9644595384597778,
    -0.6394689083099365,
    0.2570991516113281,
    -0.9154520034790039,
    -1.0802491903305054,
    0.6381704211235046,
    -0.14317376911640167,
    -0.08568808436393738,
    -0.8903883695602417,
    -0.9596754908561707,
    -0.9307896494865417,
    -0.227880597114563,
    -0.4271206557750702,
    -0.8570361733436584,
    -0.6553660035133362,
    0.9008733630180359,
    0.8616901636123657,
    -1.0394805669784546,
    -1.0555042028427124,
    -0.8600815534591675,
    -0.517678439617157,
    -0.6559042930603027,
    -0.34545138478279114,
    -0.9261404871940613,
    0.4229167401790619,
    -0.5126116871833801,
    -0.6625583171844482,
    0.7739529013633728,
    0.12966524064540863,
    0.439318984746933,
    0.3960530459880829,
    0.03603921830654144,
    -0.499522864818573,
    -0.2250092625617981,
    -1.011734962463379,
    0.17659972608089447,
    0.1179521307349205,
    -0.15152303874492645,
    0.21200142800807953,
    -0.47297704219818115,
    0.3892247974872589,
    -0.04971703141927719,
    0.760359525680542,
    -0.7341859340667725,
    -0.4730013906955719,
    -0.07322656363248825,
    -0.6478168368339539,
    -0.26783350110054016,
    -0.011073577217757702,
    -0.2627792954444885,
    0.6662067174911499,
    -0.40965959429740906,
    -0.881255030632019,
    0.28311437368392944,
    0.8936078548431396,
    -1.057577133178711,
    -0.15172991156578064,
    0.16428695619106293,
    -0.7118744850158691,
    -0.5823258757591248,
    0.42565998435020447,
    -0.10146941244602203,
    -0.4773419499397278,
    -0.34187382459640503,
    0.8805783987045288,
    0.4716857969760895,
    -0.06874686479568481,
    -0.7509070634841919,
    -0.8689815402030945,
    -0.5311122536659241,
    0.2520833909511566,
    0.10703132301568985,
    0.018083132803440094,
    0.675716757774353,
    0.6435421705245972,
    -0.19012926518917084,
    0.794835090637207,
    -0.5863770246505737,
    -0.26114970445632935,
    -0.8889898061752319,
    -0.3453734815120697,
    -0.7752651572227478,
    0.6106340289115906,
    -0.7327198386192322,
    0.12351595610380173,
    -0.8542930483818054,
    -0.6562034487724304,
    0.474680632352829,
    -0.15884317457675934,
    0.26953834295272827,
    -0.039979394525289536,
    -0.018400859087705612,
    -0.7010602355003357,
    -0.06930273771286011,
    0.5869553685188293,
    0.4390125572681427,
    0.2599632740020752,
    0.40331175923347473,
    0.16797327995300293,
    0.8478679656982422,
    -0.8863080739974976,
    0.7553205490112305,
    0.7547642588615417,
    -0.3980555534362793,
    0.5902288556098938,
    -0.008492442779242992,
    -0.0791148915886879,
    0.7801225185394287,
    -0.1457791030406952,
    0.7075050473213196,
    0.3545282483100891,
    0.7134026885032654,
    0.7591371536254883,
    0.5042124390602112,
    -0.879895806312561,
    -0.5397769808769226,
    -0.367291659116745,
    -0.8629866242408752,
    -0.4783336818218231,
    -0.45180973410606384,
    0.5640136003494263,
    0.8559098839759827,
    0.22040902078151703,
    0.4743569493293762,
    -0.11685006320476532,
    0.12992097437381744,
    0.2587403655052185,
    0.5475077629089355,
    0.15990842878818512,
    0.2797360122203827,
    0.05819641426205635,
    0.4123080372810364,
    0.4631481170654297,
    -0.5781234502792358,
    -0.9244332909584045,
    -0.23867078125476837,
    0.73530513048172,
    -0.8645098209381104,
    0.05570895969867706,
    -0.6237198710441589,
    0.568737268447876,
    0.1790352612733841,
    0.10252485424280167,
    0.1805099993944168,
    -0.5361083745956421,
    -0.44455480575561523,
    -0.7711875438690186,
    0.13782984018325806,
    0.5667459964752197,
    -0.8757991790771484,
    -0.7317187190055847,
    0.8234352469444275,
    -0.5190103054046631,
    -0.44709843397140503,
    -0.38085970282554626,
    -0.22155256569385529,
    -0.24738219380378723,
    -0.4537512958049774,
    0.5587610602378845,
    0.4132414758205414,
    -0.9954915642738342,
    0.20663604140281677,
    -0.9041569828987122,
    0.0924595519900322,
    0.2674865126609802,
    -0.18090508878231049,
    -0.7227025032043457,
    0.8495113253593445,
    -0.47515496611595154,
    0.2350500524044037,
    -0.2863464951515198,
    -0.6082055568695068,
    -0.011633495800197124,
    0.53419029712677,
    -0.7461976408958435,
    0.3034431040287018,
    0.32289382815361023,
    0.7315954566001892,
    -0.734197199344635,
    -0.0400807224214077,
    -0.659270703792572,
    0.961359441280365,
    -0.11965469270944595,
    -0.6809808611869812,
    0.09130172431468964,
    -0.030425384640693665,
    -0.5897649526596069,
    -0.7815839648246765,
    -0.35795101523399353,
    0.01853225566446781,
    0.4199496805667877,
    -0.5066730976104736,
    -0.13097737729549408,
    0.8535086512565613,
    0.539779543876648,
    0.10175902396440506,
    0.725867748260498,
    -0.06652660667896271,
    -0.6114210486412048,
    -0.21280616521835327,
    -0.03918105363845825,
    -0.892806351184845,
    -0.28134068846702576,
    0.7264266014099121,
    0.14299963414669037,
    -0.5770158767700195,
    0.13779328763484955,
    -0.7576640248298645,
    0.33638712763786316,
    -0.9382438063621521,
    -0.012867256067693233,
    -0.7234360575675964,
    -0.17403556406497955,
    -0.31957173347473145,
    -0.06565508991479874,
    -0.5361149311065674,
    0.19570733606815338,
    0.10774347186088562,
    -0.0068444726057350636,
    0.8795684576034546,
    -0.05218463018536568,
    0.5848837494850159,
    -0.24458065629005432,
    -0.20263895392417908,
    0.16419371962547302,
    -0.41157668828964233,
    0.02754039876163006,
    -0.12012997269630432,
    0.8211895227432251,
    -0.470400869846344,
    -0.6560488939285278,
    -0.7804905772209167,
    -0.7515607476234436,
    0.1417715698480606,
    0.06575267761945724,
    -0.22835366427898407,
    -0.7238802909851074,
    0.04487347975373268,
    0.40221723914146423,
    -0.388403058052063,
    0.15045353770256042,
    -0.88536536693573,
    0.4424161911010742,
    -0.01682422310113907,
    -0.8087564706802368,
    0.10235318541526794,
    0.2677018642425537,
    -0.43751516938209534,
    -0.1296870857477188,
    0.7442101836204529,
    0.0657472312450409,
    0.90164715051651,
    0.8954378962516785,
    0.8538133502006531,
    0.22847174108028412,
    0.058009810745716095,
    -0.27196747064590454,
    -0.33446604013442993,
    0.43830740451812744,
    0.7770177125930786,
    -0.323728084564209,
    0.1708192378282547,
    -0.24538829922676086,
    -0.8759430050849915,
    0.46658992767333984,
    0.5735372304916382,
    0.6527349352836609,
    -0.06960379332304001,
    0.46881812810897827,
    -1.0043312311172485,
    -0.3842889070510864,
    0.7262227535247803,
    -0.8326718807220459,
    0.7169276475906372,
    -0.8358052372932434,
    -0.11026906222105026,
    -0.016133509576320648,
    0.07241886109113693,
    0.92410808801651,
    -0.7455583810806274,
    -0.2921093702316284,
    -0.28030210733413696,
    -0.5075796246528625,
    0.3438284397125244,
    -0.0853094682097435,
    0.3473109304904938,
    -0.24636977910995483,
    1.0177088975906372,
    0.9899562001228333,
    1.0141408443450928,
    -0.5205016136169434,
    0.4573204815387726,
    0.5028554797172546,
    0.6735772490501404,
    0.22474467754364014,
    0.09073836356401443,
    0.5342773199081421,
    -0.24465031921863556,
    -0.8383281826972961,
    0.8581793308258057,
    0.13623106479644775,
    0.4240012466907501,
    -0.9261164665222168,
    0.8308594822883606,
    -0.8018797636032104,
    0.968406081199646,
    -0.8418592214584351,
    -0.5151275396347046,
    0.18895702064037323,
    0.6943074464797974,
    0.08401387929916382,
    0.13867825269699097,
    -0.1603330373764038,
    -0.6734926700592041,
    0.07031509280204773,
    -0.1314585655927658,
    0.3482997715473175,
    0.7723897099494934,
    -0.7206296920776367,
    -0.10660754889249802,
    -0.8471221923828125,
    -0.8541892766952515,
    -0.010960173793137074,
    0.7125769257545471,
    0.031379584223032,
    -0.24307264387607574,
    0.6013979315757751,
    -0.11401238292455673,
    0.5843203067779541,
    0.2278648018836975,
    -0.4909164309501648,
    -0.9479705095291138,
    -0.7358272075653076,
    -0.13094653189182281,
    -0.9558103084564209,
    -0.2931668162345886,
    -0.41693347692489624,
    0.3161938190460205,
    0.0804160013794899,
    0.21577507257461548,
    -0.9684966206550598,
    -0.3224186897277832,
    0.7311344742774963,
    0.08935080468654633,
    -0.14207576215267181,
    -0.17764097452163696,
    -0.559238612651825,
    -0.38740837574005127,
    0.6594799757003784,
    0.6118648648262024,
    -0.5973383188247681,
    -0.9356510043144226,
    0.3130597770214081,
    0.8819926977157593,
    -0.44284743070602417,
    -0.7331781983375549,
    0.5509265661239624,
    0.7198904156684875,
    -0.812148928642273,
    -0.10596705973148346,
    -0.5819553136825562,
    0.32059621810913086,
    0.5827081799507141,
    -0.9166445732116699,
    -0.3598259389400482,
    0.06974232196807861,
    0.13071390986442566,
    -0.8991076946258545,
    -0.799649178981781,
    0.5249397158622742,
    0.030899349600076675,
    0.3389805853366852,
    0.31700873374938965,
    0.26372870802879333,
    -0.6174841523170471,
    -0.9337419867515564,
    -0.7935429215431213,
    0.9995926022529602,
    -0.27421122789382935,
    -0.4911157786846161,
    -0.5702398419380188,
    -0.4439897835254669,
    0.6322252154350281,
    0.07163536548614502,
    -0.14549851417541504,
    -0.23800808191299438,
    -0.9620761871337891,
    0.4571864902973175,
    0.6760099530220032,
    0.8148807287216187,
    0.20486858487129211,
    0.6593456864356995,
    0.4919959604740143,
    0.5059099197387695,
    0.40255871415138245,
    0.33427855372428894,
    -0.5955193638801575,
    -0.2052430361509323,
    -0.5709604024887085,
    -0.20498673617839813,
    -0.33619531989097595,
    -0.49960559606552124,
    -0.7386289238929749,
    0.06073212996125221,
    0.455345094203949,
    0.5999545454978943,
    -0.8490129709243774,
    -0.5816530585289001,
    -0.44757726788520813,
    -0.500733494758606,
    -0.29858916997909546,
    0.08174101263284683,
    0.38806673884391785,
    0.48121294379234314,
    -0.9570146799087524,
    0.7585156559944153,
    -0.0255765151232481,
    0.37606698274612427,
    0.8791770935058594,
    -0.5947381854057312,
    -0.3227612376213074,
    -0.6583912968635559,
    -0.14767612516880035,
    -0.9839958548545837,
    -0.6320981383323669,
    -0.1342710703611374,
    -0.23844186961650848,
    -0.3143569529056549,
    -0.6282036900520325,
    0.1373525857925415,
    0.4367835223674774,
    0.8297509551048279,
    0.867317259311676,
    0.16190075874328613,
    0.820509135723114,
    -0.13063295185565948,
    0.6151332259178162,
    -0.11033642292022705,
    -0.5453961491584778,
    -0.7678298950195312,
    -0.19458875060081482,
    -0.33475783467292786,
    -0.7329291105270386,
    -0.04543324187397957,
    0.3662331998348236,
    -0.19406920671463013,
    0.7056295275688171,
    0.6508944034576416,
    -0.4428538382053375,
    0.5124593377113342,
    -0.5917654037475586,
    0.07424464821815491,
    -0.7257207632064819,
    -0.5938680171966553,
    -0.10375695675611496,
    1.0002822875976562,
    0.742795467376709,
    -0.47930261492729187,
    -0.15316365659236908,
    0.4058915674686432,
    -0.9124438762664795,
    0.15415234863758087,
    -0.9545177221298218,
    -0.22733379900455475,
    0.2529148459434509,
    0.017884323373436928,
    -0.8120267987251282,
    -0.635716438293457,
    -0.7889980673789978,
    -0.6363754868507385,
    0.20940643548965454,
    -0.7481655478477478,
    0.2824796438217163,
    0.06709123402833939,
    -0.6941078305244446,
    0.3313828110694885,
    0.1398218721151352,
    -0.19677190482616425,
    0.1268007606267929,
    0.8251351118087769,
    0.3709231913089752,
    -0.651401162147522,
    0.059781529009342194,
    -0.5009990334510803,
    -0.5946512222290039,
    -0.3610181212425232,
    0.21640798449516296,
    -0.05793506279587746,
    -0.7588106393814087,
    0.09415559470653534,
    0.9586657285690308,
    0.6696142554283142,
    -0.9970782995223999,
    -0.37884268164634705,
    -0.7269782423973083,
    -0.727645754814148,
    -0.2461097091436386,
    0.8161414265632629,
    -0.06270439922809601,
    -0.30504927039146423,
    -0.2123832404613495,
    -0.07120651751756668,
    0.48687729239463806,
    -0.5580121874809265,
    0.603272557258606,
    0.5352870225906372,
    -0.4381929039955139,
    -0.5106560587882996,
    0.8168234825134277,
    0.9931261539459229,
    -0.7858999967575073,
    -0.4142356216907501,
    0.456103652715683,
    -0.6977301836013794,
    -0.21507389843463898,
    0.5521984100341797,
    -0.5707616806030273,
    -0.4083389341831207,
    0.7858388423919678,
    -0.16515156626701355,
    0.3777119219303131,
    0.018702903762459755,
    0.2911580801010132,
    -0.6033688187599182,
    -0.3400837779045105,
    0.2939142882823944,
    -0.7494158148765564,
    -0.4578403830528259,
    0.5613552927970886,
    -0.31205251812934875,
    -0.5874180793762207,
    -0.5250234603881836,
    0.48771142959594727,
    0.18367443978786469,
    0.8920040130615234,
    -0.5713308453559875,
    0.5637222528457642,
    -0.35764190554618835,
    0.45207035541534424,
    -0.38646167516708374,
    -0.8018000721931458,
    -0.1267479807138443,
    -0.7269203066825867,
    -0.17557045817375183,
    0.5406040549278259,
    1.0140371322631836,
    1.0049103498458862,
    -0.7172775268554688,
    0.8319385051727295,
    -0.8193125128746033,
    0.7827639579772949,
    -0.12254027277231216,
    0.5116550922393799,
    0.8587456345558167,
    0.05105559527873993,
    0.11282051354646683,
    -0.3020283281803131,
    0.07183635979890823,
    -0.7479877471923828,
    -0.07568555325269699,
    0.8173848986625671,
    0.8833828568458557,
    0.7272127270698547,
    0.2877851128578186,
    -0.2742486894130707,
    -0.5860169529914856,
    -0.78528892993927,
    -0.3837376534938812,
    0.8815473914146423,
    0.2822239398956299,
    -0.7800950407981873,
    -0.3050006330013275,
    -0.6198137402534485,
    0.7822872996330261,
    -0.27367937564849854,
    -0.1367001086473465,
    -0.11504964530467987,
    0.7574678063392639,
    -0.2432887703180313,
    -0.47642186284065247,
    0.10028789937496185,
    -0.6843889951705933,
    0.3002420961856842,
    -0.9777868986129761,
    -0.4110151529312134,
    -0.8281732201576233,
    -0.69987553358078,
    -0.28929227590560913,
    0.3154808580875397,
    0.11462480574846268,
    -0.6219416856765747,
    -0.03338811919093132,
    -0.04989510774612427,
    0.47460657358169556,
    0.5708300471305847,
    0.9735927581787109,
    -0.36863020062446594,
    -0.3120028078556061,
    0.732612669467926,
    0.7191640734672546,
    0.4174008369445801,
    0.5541743040084839,
    -0.5208641290664673,
    -0.9632587432861328,
    -0.2665790915489197,
    -0.06793662905693054,
    -0.8939288258552551,
    -0.42145732045173645,
    -0.20797201991081238,
    -0.5058593153953552,
    -0.7454207539558411,
    -0.6356865167617798,
    -0.29314425587654114,
    0.8244184851646423,
    -0.034971773624420166,
    -0.5794202089309692,
    0.6142309904098511,
    -0.7821959257125854,
    -0.8458092212677002,
    -0.39019280672073364,
    -0.19785739481449127,
    0.3476673662662506,
    -0.31071946024894714,
    -0.8705490827560425,
    0.5615459084510803,
    -0.7819727063179016,
    -0.7686729431152344,
    0.8500516414642334,
    -0.4098050892353058,
    -0.37936919927597046,
    -0.6638025641441345,
    0.11339391767978668,
    0.5475413203239441,
    -0.08845058083534241,
    -1.1283375024795532,
    0.14456366002559662,
    -0.30593615770339966,
    0.18450582027435303,
    -0.7476543188095093,
    0.23950845003128052,
    -0.34287357330322266,
    -0.5488530397415161,
    0.805036723613739,
    0.7024694085121155,
    0.9525619149208069,
    -0.40265804529190063,
    -0.05298535153269768,
    0.7180248498916626,
    1.0851722955703735,
    -0.4338315725326538,
    0.45721468329429626,
    -0.3661292791366577,
    -0.842269241809845,
    0.8479019403457642,
    0.4640963673591614,
    0.47302860021591187,
    -0.07685931771993637,
    0.36941996216773987,
    0.757082462310791,
    -0.6052631735801697,
    0.7141928672790527,
    -0.802344560623169,
    0.31665125489234924,
    -0.40426722168922424,
    0.03847549483180046,
    -0.47797438502311707,
    0.9010342955589294,
    -0.4564802050590515,
    -0.7103392481803894,
    -0.47321730852127075,
    -0.19995945692062378,
    0.28806400299072266,
    0.48443177342414856,
    -0.6573203206062317,
    0.03528289124369621,
    0.7734045386314392,
    0.05571100115776062,
    -0.32262998819351196,
    0.634472668170929,
    -0.35882124304771423,
    0.3022761940956116,
    0.4894610643386841,
    -0.7604638934135437,
    0.004962068051099777,
    -0.1386825144290924,
    0.8990477919578552,
    -0.9810041785240173,
    0.39843112230300903,
    0.4795720875263214,
    -0.034235209226608276,
    0.9446678161621094,
    -0.5525503754615784,
    0.08113276958465576,
    0.19195720553398132,
    -0.16609004139900208,
    0.45145508646965027,
    -0.17802390456199646,
    0.12550930678844452,
    -0.06055174395442009,
    0.5413715243339539,
    0.31961390376091003,
    -0.043966036289930344,
    0.9211037158966064,
    -0.7975651025772095,
    0.1356937140226364,
    0.031252071261405945,
    0.7448697686195374,
    -0.04470095783472061,
    -0.9582475423812866,
    -0.6853790283203125,
    0.6620303392410278,
    -0.31640204787254333,
    0.6358422040939331,
    0.4906027317047119,
    0.291309118270874,
    -0.5089104771614075,
    -0.23333361744880676,
    0.136302649974823,
    -0.7022745609283447,
    -0.4013296663761139,
    0.08266694843769073,
    -0.8150743246078491,
    0.215436652302742,
    -0.8810667395591736,
    0.014710331335663795,
    0.5937137603759766,
    -0.9564283490180969,
    -0.9118234515190125,
    -0.09539776295423508,
    0.01934344321489334,
    -0.3548453450202942,
    -1.0276904106140137,
    0.707447350025177,
    0.33555278182029724,
    -0.5103300213813782,
    0.45376697182655334,
    -0.5538145303726196,
    -0.00020822160877287388,
    0.10715512931346893,
    -0.20122350752353668,
    0.019173700362443924,
    -0.2738286554813385,
    -0.6837630867958069,
    0.8150866627693176,
    -0.37107428908348083,
    -0.3024500906467438,
    -0.9036853313446045,
    0.8433382511138916,
    -0.8995226621627808,
    -0.539725124835968,
    0.9570869207382202,
    -0.3096112608909607,
    0.7960121035575867,
    0.8881067633628845,
    0.8878052830696106,
    0.8777443766593933,
    -0.6291770935058594,
    0.5013673901557922,
    0.33093202114105225,
    -1.167385458946228,
    -0.4689473509788513,
    -0.9226104617118835,
    -0.24875353276729584,
    0.7281491756439209,
    -0.16339044272899628,
    -0.5847350358963013,
    -0.7521704435348511,
    -0.2760377824306488,
    0.6387659311294556,
    -0.30919623374938965,
    0.28305909037590027,
    -0.8181750774383545,
    0.18558494746685028,
    -0.9156997799873352,
    -0.4939974546432495,
    0.5027989149093628,
    -0.2652754485607147,
    -0.7405532002449036,
    0.8717256188392639,
    0.7575792074203491,
    -0.9198859333992004,
    0.2997962236404419,
    0.43208715319633484,
    -0.6349539160728455,
    -0.04811472073197365,
    -0.41207435727119446,
    0.6586006879806519,
    -1.101683259010315,
    -0.47237491607666016,
    -0.07667718082666397,
    0.2672731876373291,
    0.4771466553211212,
    -0.8559889197349548,
    -0.4323505461215973,
    -0.9374257326126099,
    0.29509738087654114,
    0.36067304015159607,
    0.04587739706039429,
    -1.1224877834320068,
    0.25907593965530396,
    -0.5177237391471863,
    0.07044102251529694,
    0.7533767819404602,
    -0.049867305904626846,
    0.5811178684234619,
    -0.4079000651836395,
    0.7437441945075989,
    -0.7258025407791138,
    -0.9012246131896973,
    0.07097961753606796,
    0.209675595164299,
    -0.8439910411834717,
    -0.7852568030357361,
    0.7038901448249817,
    0.8351169228553772,
    -0.203446164727211,
    -0.11912999302148819,
    0.15821325778961182,
    0.47373121976852417,
    0.3101857304573059,
    -0.3814544379711151,
    -0.4544529318809509,
    -0.4311635494232178,
    0.8728041052818298,
    -0.04260560870170593,
    0.15465883910655975,
    -0.844024658203125,
    0.9090496897697449,
    -0.9104732871055603,
    0.2840140759944916,
    0.6263546943664551,
    0.659229040145874,
    0.009002133272588253,
    0.0015353907365351915,
    0.48297396302223206,
    0.27643856406211853,
    -0.3291676938533783,
    0.8185567259788513,
    -0.21335208415985107,
    -0.025025058537721634,
    -0.3947771191596985,
    -0.3443460464477539,
    0.84918612241745,
    -0.9809401035308838,
    -0.5442163944244385,
    -0.39890626072883606,
    0.5810202360153198,
    0.23342344164848328,
    0.11711624264717102,
    0.3269686996936798,
    0.5050441026687622,
    0.8444747924804688,
    0.6912057399749756,
    -0.05165945738554001,
    -0.29056262969970703,
    0.5893795490264893,
    -0.07483955472707748,
    0.910472571849823,
    -0.17075280845165253,
    -0.06253818422555923,
    -0.3824630677700043,
    0.3356076776981354,
    -0.446755975484848,
    0.4952473044395447,
    -0.9499765634536743,
    -0.6288269758224487,
    0.5972409844398499,
    0.14759516716003418,
    -0.4369116723537445,
    -0.36933669447898865,
    0.21116867661476135,
    -0.13259732723236084,
    -0.2721174955368042,
    -0.6428114175796509,
    0.6802037954330444,
    -0.32917889952659607,
    0.9531395435333252,
    -0.021952632814645767,
    0.03794477880001068,
    -0.40940871834754944,
    0.6641013622283936,
    0.6346552968025208,
    -0.11058464646339417,
    0.48121100664138794,
    0.19951756298542023,
    0.5942899584770203,
    0.17855297029018402,
    0.37603816390037537,
    0.6131153106689453,
    0.4605947732925415,
    -0.29374173283576965,
    -0.31723931431770325,
    0.5807086825370789,
    -0.44163987040519714,
    -0.9496018290519714,
    0.5926191806793213,
    0.2850539982318878,
    -0.3405400812625885,
    -0.16207082569599152,
    -0.2357299029827118,
    -1.0188446044921875,
    0.7577129602432251,
    0.24258601665496826,
    0.876449704170227,
    -0.7375355958938599,
    -0.5168197154998779,
    0.17119435966014862,
    -0.6495349407196045,
    0.7464090585708618,
    0.578052818775177,
    0.6245093941688538,
    -0.8878921866416931,
    -0.12225838005542755,
    0.9636768698692322,
    0.5575646758079529,
    -0.8317745327949524,
    0.40711289644241333,
    0.6150415539741516,
    -0.8669083714485168,
    -0.4782949686050415,
    -0.29863646626472473
  ],
  "inputBiasWeights": [
    -0.6650868058204651,
    0.4543394148349762,
    -0.6528037786483765,
    0.2829543650150299,
    0.6211603879928589,
    -0.5751533508300781,
    -0.4008430242538452,
    0.19662734866142273,
    0.23470523953437805,
    0.645410418510437,
    0.9887354373931885,
    0.7526668906211853,
    0.9903278946876526,
    -0.7535737156867981,
    -0.3502258360385895,
    -0.2155405730009079,
    0.7206432223320007,
    -0.18665283918380737,
    -0.4466628134250641,
    0.19394557178020477,
    0.4926060736179352,
    -0.2991260290145874,
    -0.7364262938499451,
    -0.09537433832883835,
    -0.056142326444387436,
    0.31470733880996704,
    0.6815568208694458,
    0.1298554539680481,
    0.47760096192359924,
    0.7212277054786682,
    0.7789600491523743,
    0.8304858207702637,
    -0.6982307434082031,
    0.9224175810813904,
    -0.5232579112052917,
    1.1252739429473877,
    0.10301097482442856,
    0.4640543758869171,
    1.2056156396865845,
    -0.3863629102706909,
    0.6054474115371704,
    -0.5091949701309204,
    -0.22989429533481598,
    0.19955044984817505,
    -0.11451083421707153,
    -0.30685949325561523,
    -0.7623237371444702,
    1.0094386339187622,
    0.4993894100189209,
    0.917738139629364,
    0.3914622962474823,
    -0.3935711979866028,
    0.3998454511165619,
    -0.4338573217391968,
    -0.509751558303833,
    -0.2899968922138214,
    -0.15399782359600067,
    0.2722328305244446,
    -0.29753512144088745,
    0.3196495473384857,
    0.8356002569198608,
    0.9841655492782593,
    0.38514620065689087,
    0.6817959547042847,
    0.8429682850837708,
    0.7307953834533691,
    -1.0159313678741455,
    -0.4873795509338379,
    -0.1726790964603424,
    1.022997260093689,
    0.22803683578968048,
    0.07754626125097275,
    -0.16606782376766205,
    -0.3744097948074341,
    0.6640368700027466,
    -0.46594032645225525,
    0.6364299058914185,
    0.0075708734802901745,
    0.040319960564374924,
    0.965794026851654,
    -0.5944294929504395,
    0.6551879644393921,
    -0.10481586307287216,
    0.5716817378997803,
    -0.7241561412811279,
    -0.596962571144104,
    -0.8172881603240967,
    -0.6229189038276672,
    0.8520674109458923,
    -0.5377629399299622,
    0.2627924680709839,
    1.0234044790267944,
    0.9824047088623047,
    0.5353497266769409,
    0.40100324153900146,
    -0.6942934989929199,
    0.6407817602157593,
    0.19574576616287231,
    -0.5746760368347168,
    1.1272677183151245,
    0.19579698145389557,
    0.02115386351943016,
    -0.5805229544639587,
    -0.5551429986953735,
    0.9144667387008667,
    0.14060963690280914,
    0.2254093736410141,
    -0.4401790201663971,
    -0.5256803035736084,
    0.2897561490535736,
    -0.3520161807537079,
    0.317018985748291,
    1.0153958797454834,
    1.0642027854919434,
    0.7566168308258057,
    -0.12482690811157227,
    0.46541139483451843,
    0.5796728730201721,
    0.46785351634025574,
    0.37059277296066284,
    0.6335061192512512,
    0.07674245536327362,
    0.274716317653656,
    0.7117711305618286,
    -0.404541552066803,
    -0.6869436502456665,
    0.9940165877342224,
    -0.7734517455101013,
    0.9360347390174866,
    0.5861765146255493,
    0.27382445335388184,
    0.42697873711586,
    0.445719450712204,
    -0.29994118213653564,
    -0.6883265376091003,
    -0.6481403708457947,
    0.8600769639015198,
    -0.627391517162323
  ],
  "inputNodes": 18,
